// This file is computer-generated by onnx2c 
// (TODO: add creating command line here)
// (TODO: print creation date here )

// ONNX model:
// produced by onnx.quantize, version 0.1.0
// ONNX IR version: 14
// Model documentation: 
/*

*/

#include <float.h>
#include <math.h>
#include <stdbool.h>
#include <stdint.h>
#include <string.h>
#define MAX(X,Y) ( X > Y ? X : Y)
#define MIN(X,Y) ( X < Y ? X : Y)
#define CLIP(X,L) ( MAX(MIN(X,L), -L) )

static const float tensor_0_bias[175] = 
{-0.067631907761096954346f, -0.018678585067391395569f, -0.15033920109272003174f, -0.19509546458721160889f, -0.043707113713026046753f, -0.18256367743015289307f, 0.068201228976249694824f, 0.031851954758167266846f, 0.027710746973752975464f, 0.029854828491806983948f, 0.17155994474887847900f, 0.088244669139385223389f, 0.093350552022457122803f, 0.029589531943202018738f, -0.54217219352722167969f, -0.071054421365261077881f, -0.22510668635368347168f, -0.15858362615108489990f, 0.10765564441680908203f, 0.022923314943909645081f, -0.21873475611209869385f, -0.15985740721225738525f, 0.047109462320804595947f, 0.074751481413841247559f, 0.068688727915287017822f, -0.069330886006355285645f, -0.0096100252121686935425f, -0.018536580726504325867f, 0.053860243409872055054f, -0.14470934867858886719f, 0.11326895654201507568f, -0.094576850533485412598f, 0.10710607469081878662f, -0.10483185946941375732f, -0.32517412304878234863f, -0.20806504786014556885f, -0.28541246056556701660f, 0.18939487636089324951f, -0.14382176101207733154f, 0.020606746897101402283f, -0.15709421038627624512f, -0.0095446091145277023315f, -0.28536173701286315918f, -0.17627857625484466553f, 0.047983448952436447144f, 0.051158841699361801147f, -0.11717099696397781372f, -0.014260496944189071655f, 0.11009269207715988159f, -0.12367159873247146606f, -0.12706276774406433105f, -0.13484321534633636475f, 0.25597605109214782715f, 0.041244011372327804565f, 0.0091148912906646728516f, -0.11873955279588699341f, -0.19300365447998046875f, -0.14053876698017120361f, -0.11645092070102691650f, -0.11343697458505630493f, -0.10002619028091430664f, -0.027756121009588241577f, -0.014579584822058677673f, -0.27422097325325012207f, 0.26111802458763122559f, -0.42389684915542602539f, -0.059230677783489227295f, -0.33081436157226562500f, 0.079907096922397613525f, 0.17843119800090789795f, -0.090305395424365997314f, 0.045087460428476333618f, -0.24210557341575622559f, 0.22383736073970794678f, 0.014157681725919246674f, 0.077605582773685455322f, 0.066374629735946655273f, -0.10229185968637466431f, -0.022307636216282844543f, -0.084633730351924896240f, 0.17263717949390411377f, -0.027810633182525634766f, -0.18516524136066436768f, -0.47238460183143615723f, -0.0057619567960500717163f, 0.19982562959194183350f, 0.10990646481513977051f, -0.11306518316268920898f, -0.19073148071765899658f, -0.11548722535371780396f, 0.27094984054565429688f, -0.059950929135084152222f, -0.31747198104858398438f, 0.030231699347496032715f, -0.27958467602729797363f, -0.0070620523765683174133f, -0.14025188982486724854f, -0.096745081245899200439f, -0.15350407361984252930f, -0.31971096992492675781f, 0.00049731222679838538170f, -0.12448181211948394775f, -0.40460956096649169922f, 0.037991710007190704346f, -0.17028330266475677490f, -0.26207032799720764160f, 0.20551952719688415527f, 0.12910938262939453125f, -0.074200779199600219727f, 0.027769669890403747559f, -0.12198700010776519775f, 0.10892784595489501953f, 0.058919049799442291260f, -0.23011371493339538574f, 0.045167643576860427856f, 0.013360396027565002441f, -0.17744809389114379883f, -0.18564000725746154785f, -0.29375764727592468262f, 0.039736237376928329468f, -0.22605717182159423828f, 0.23111516237258911133f, -0.19064801931381225586f, -0.12141878902912139893f, 0.034622408449649810791f, 0.085190251469612121582f, -0.15849587321281433105f, -0.10399743169546127319f, -0.38900160789489746094f, 0.055999845266342163086f, -0.068514704704284667969f, -0.47078308463096618652f, -0.0090750334784388542175f, 0.12768073379993438721f, -0.051472738385200500488f, -0.10494285821914672852f, -0.23531979322433471680f, 0.031562730669975280762f, -0.22069984674453735352f, -0.10708051174879074097f, -0.12337786704301834106f, 0.11362803727388381958f, -0.15340428054332733154f, 0.063807576894760131836f, -0.14788131415843963623f, -0.095596656203269958496f, -0.029316835105419158936f, -0.35568931698799133301f, -0.095436841249465942383f, -0.036411177366971969604f, -0.14937789738178253174f, -0.034384682774543762207f, 0.049985092133283615112f, -0.074301332235336303711f, -0.33000573515892028809f, 0.050564721226692199707f, 0.21987083554267883301f, -0.24441605806350708008f, 0.044016435742378234863f, -0.13495819270610809326f, -0.039419595152139663696f, 0.14984157681465148926f, -0.18330450356006622314f, -0.013145200908184051514f, -0.12414367496967315674f, -0.21297422051429748535f, 0.077588349580764770508f, -0.13948549330234527588f, -0.042594306170940399170f, -0.067168705165386199951f, -0.21787340939044952393f, 0.12633641064167022705f, 0.0098092760890722274780f, -0.088614538311958312988f, 0.073671184480190277100f};
static const float tensor_2_bias[175] = 
{0.028346406295895576477f, -0.091015033423900604248f, -0.0092646125704050064087f, -0.032538998872041702271f, -0.095929227769374847412f, -0.40152961015701293945f, 0.059535767883062362671f, -0.20981991291046142578f, 0.055904556065797805786f, 0.32204416394233703613f, -0.020991953089833259583f, -0.033559095114469528198f, -0.16644917428493499756f, -0.067031756043434143066f, -0.25837314128875732422f, 0.38929355144500732422f, -0.035982418805360794067f, -0.023600174114108085632f, 0.26035276055335998535f, -0.40903437137603759766f, -0.16458374261856079102f, 0.11547771841287612915f, -0.31548699736595153809f, -0.32182282209396362305f, -0.12330072373151779175f, 0.10897666215896606445f, 0.066860862076282501221f, 0.18579868972301483154f, 0.28403717279434204102f, -0.057839870452880859375f, -0.061195172369480133057f, 0.035646293312311172485f, -0.47145265340805053711f, -0.065874107182025909424f, -0.28582328557968139648f, -0.21704646944999694824f, 0.095142133533954620361f, -0.22794060409069061279f, 0.064167484641075134277f, -0.15837061405181884766f, -0.067139603197574615479f, 0.27925357222557067871f, 0.028657170012593269348f, -0.18628256022930145264f, 0.054552063345909118652f, 0.33236157894134521484f, 0.21957366168498992920f, -0.068952538073062896729f, -0.24077984690666198730f, 0.23203107714653015137f, 0.11522901058197021484f, -0.061047796159982681274f, 0.11205513030290603638f, -0.11337896436452865601f, -0.48905384540557861328f, -0.11878907680511474609f, -0.15069335699081420898f, 0.028525790199637413025f, -0.28763723373413085938f, -0.12510558962821960449f, -0.12468075007200241089f, 0.076065585017204284668f, 0.31262797117233276367f, -0.053387872874736785889f, -0.13846541941165924072f, 0.20256696641445159912f, -0.30207476019859313965f, 0.22391034662723541260f, -0.073653884232044219971f, -0.28391098976135253906f, -0.16034139692783355713f, -0.23166319727897644043f, 0.35386729240417480469f, 0.020074535161256790161f, 0.33639997243881225586f, -0.26903381943702697754f, 0.18746151030063629150f, 0.22963461279869079590f, 0.012946496717631816864f, 0.074704945087432861328f, 0.044359069317579269409f, 0.35110262036323547363f, -0.13290901482105255127f, -0.0062514152377843856812f, -0.16924257576465606689f, -0.25325438380241394043f, -0.21456572413444519043f, -0.35467153787612915039f, 0.076791234314441680908f, -0.063026428222656250000f, -0.15921536087989807129f, -0.43860656023025512695f, 0.067849464714527130127f, 0.071875721216201782227f, -0.019194150343537330627f, -0.39531680941581726074f, 0.11258616298437118530f, -0.18316857516765594482f, -0.093843951821327209473f, 0.052797023206949234009f, -0.10122442245483398438f, -0.082559883594512939453f, -0.15350133180618286133f, 0.10292162001132965088f, 0.21558415889739990234f, 0.13260303437709808350f, 0.11770351976156234741f, -0.20240341126918792725f, 0.079165615141391754150f, 0.11735078692436218262f, -0.35040888190269470215f, -0.11401116102933883667f, -0.18883195519447326660f, -0.17597261071205139160f, -0.11109169572591781616f, 0.28645756840705871582f, -0.57873314619064331055f, -0.0011977972462773323059f, 0.053760305047035217285f, -0.34158834815025329590f, -0.067505508661270141602f, 0.081208944320678710938f, -0.22792573273181915283f, 0.078089483082294464111f, -0.088346205651760101318f, -0.19366461038589477539f, 0.027282617986202239990f, -0.12678501009941101074f, -0.089318603277206420898f, 0.0046050911769270896912f, 0.079253248870372772217f, 0.13752575218677520752f, -0.14349058270454406738f, -0.14774577319622039795f, -0.13599872589111328125f, -0.094256043434143066406f, -0.11966799944639205933f, 0.23254829645156860352f, -0.064939796924591064453f, 0.024432620033621788025f, -0.043519698083400726318f, 0.031653478741645812988f, 0.21337649226188659668f, 0.0093283271417021751404f, 0.11306343972682952881f, -0.18120940029621124268f, 0.10117201507091522217f, 0.10019849985837936401f, -0.050575949251651763916f, 0.060778457671403884888f, 0.30232599377632141113f, 0.093987993896007537842f, -0.041397579014301300049f, -0.015145463868975639343f, -0.24211412668228149414f, 0.10974653065204620361f, 0.058131035417318344116f, 0.096941784024238586426f, 0.19921258091926574707f, 0.086799167096614837646f, -0.089178875088691711426f, -0.14791233837604522705f, 0.087307311594486236572f, 0.026184760034084320068f, 0.49270820617675781250f, -0.13432763516902923584f, -0.0017173506785184144974f, 0.13493467867374420166f, 0.066413320600986480713f, 0.015227529220283031464f, -0.017396429553627967834f, 0.22834484279155731201f, 0.21898998320102691650f, 0.17417977750301361084f, -0.014832932502031326294f};
static const float tensor_4_bias[175] = 
{0.15396557748317718506f, -0.0035478756763041019440f, 0.080142304301261901855f, 0.090774491429328918457f, 0.32247999310493469238f, -0.13375841081142425537f, 0.13769692182540893555f, 0.035994675010442733765f, -0.15857423841953277588f, 0.13570551574230194092f, 0.29904446005821228027f, 0.21910637617111206055f, 0.11088179796934127808f, 0.11434382200241088867f, 0.11628563702106475830f, 0.10682302713394165039f, -0.22861388325691223145f, 0.23404727876186370850f, 0.17424525320529937744f, 0.068822458386421203613f, -0.20920245349407196045f, 0.13477794826030731201f, -0.032184541225433349609f, -0.14382217824459075928f, -0.094544805586338043213f, 0.24007183313369750977f, 0.16417242586612701416f, 0.070538818836212158203f, 0.28819772601127624512f, 0.078534662723541259766f, 0.24880808591842651367f, -0.10527272522449493408f, 0.0013014510041102766991f, 0.23596118390560150146f, 0.017233390361070632935f, -0.11428707093000411987f, -0.14320269227027893066f, -0.25109782814979553223f, 0.21953544020652770996f, 0.017348237335681915283f, -0.18294633924961090088f, -0.27118703722953796387f, 0.14398635923862457275f, 0.096126355230808258057f, -0.11666753888130187988f, 0.11503673344850540161f, -0.063891395926475524902f, -0.0043920287862420082092f, 0.24710153043270111084f, 0.068404026329517364502f, -0.25542521476745605469f, -0.083159618079662322998f, 0.095913164317607879639f, 0.10689835995435714722f, -0.0019144979305565357208f, 0.12139462679624557495f, -0.035630378872156143188f, 0.015342506580054759979f, 0.060453414916992187500f, 0.13267418742179870605f, -0.15687043964862823486f, -0.22861726582050323486f, 0.23822166025638580322f, -0.0044263815507292747498f, -0.026376867666840553284f, 0.16761048138141632080f, 0.11151684075593948364f, 0.40921923518180847168f, 0.088769845664501190186f, 0.20767344534397125244f, 0.018331902101635932922f, 0.20413927733898162842f, 0.18496654927730560303f, 0.14865170419216156006f, 0.30996805429458618164f, 0.23115934431552886963f, -0.0088239861652255058289f, 0.049262352287769317627f, -0.020196083933115005493f, 0.054383054375648498535f, 0.061055477708578109741f, 0.14574265480041503906f, 0.26512619853019714355f, 0.085041366517543792725f, 0.15773206949234008789f, -0.053912576287984848022f, 0.15376150608062744141f, -0.0031757978722453117371f, 0.20720328390598297119f, 0.24239641427993774414f, 0.096597649157047271729f, 0.28905352950096130371f, 0.0056565725244581699371f, -0.10729730874300003052f, 0.22151517868041992188f, -0.064038984477519989014f, -0.030399277806282043457f, 0.16576275229454040527f, 0.18730524182319641113f, 0.021527145057916641235f, 0.17590770125389099121f, 0.14966328442096710205f, -0.035634893923997879028f, -0.027727277949452400208f, 0.10123933851718902588f, 0.15440569818019866943f, 0.10164669156074523926f, 0.0044697332195937633514f, 0.19953218102455139160f, -0.17244797945022583008f, 0.12390143424272537231f, -0.10805821418762207031f, 0.17311032116413116455f, 0.036701660603284835815f, -0.23398375511169433594f, 0.23332120478153228760f, 0.051252968609333038330f, 0.13565716147422790527f, 0.095973968505859375000f, -0.20270028710365295410f, -0.19476597011089324951f, 0.041136562824249267578f, 0.065981887280941009521f, 0.20069193840026855469f, -0.16032552719116210938f, -0.030312534421682357788f, 0.051635149866342544556f, 0.063746944069862365723f, 0.19454906880855560303f, 0.024632213637232780457f, 0.13252729177474975586f, 0.038732789456844329834f, -0.00090100086526945233345f, 0.15362426638603210449f, -0.21425293385982513428f, 0.21683783829212188721f, 0.21213908493518829346f, 0.28338277339935302734f, -0.041222549974918365479f, 0.21647572517395019531f, -0.16326569020748138428f, 0.14649689197540283203f, 0.17790949344635009766f, 0.022196244448423385620f, -0.25122430920600891113f, -0.0084487181156873703003f, -0.15883652865886688232f, 0.38296654820442199707f, 0.20380668342113494873f, 0.23694580793380737305f, -0.10938975960016250610f, 0.19273619353771209717f, 0.0067885024473071098328f, -0.00064108113292604684830f, 0.088294401764869689941f, -0.080197095870971679688f, 0.037024296820163726807f, 0.15822172164916992188f, 0.042467452585697174072f, -0.18344478309154510498f, 0.11969389021396636963f, -0.049463275820016860962f, -0.025676051154732704163f, -0.26644694805145263672f, -0.13743086159229278564f, 0.24139250814914703369f, 0.097814522683620452881f, 0.24764585494995117188f, -0.10500397533178329468f, -0.10300146788358688354f, 0.0024455229286104440689f, 0.014524883590638637543f, 0.13749296963214874268f, 0.029280470684170722961f, 0.030426546931266784668f};
static const float tensor_6_bias[4] = 
{0.043619379401206970215f, 0.057035684585571289062f, 0.17161481082439422607f, 0.39346376061439514160f};
static const float tensor_0_weight_scale[1] = 
{0.014253862202167510986f};
static const int8_t tensor_0_weight_zero_point[1] = 
{0};
static const int8_t tensor_0_weight_quantized[13][175] = 
{
  {10, 11, 48, 14, 6, 41, -4, 11, 88, 53, -8, 13, 58, 22, -5, -4, 16, -9, -4, 66, 6, 12, -4, 33, -2, 12, -3, -6, 123, -3, -5, 37, 13, 2, -6, 1, -16, 2, 21, 21, 11, 39, 14, 8, 5, 16, -2, 3, 29, -7, 25, 3, -2, -8, 19, 19, -5, 16, 1, 44, 3, 2, 19, 3, -13, 2, 22, 30, 2, 30, 8, -3, 3, -8, -7, 17, 3, -6, -5, -5, -14, 80, 76, 4, -6, 105, -1, 30, 17, 5, 4, 11, 7, 9, 3, 14, 17, -4, 24, -5, 31, -10, 15, 1, -11, 25, 66, 3, 17, -1, -2, 5, 1, 23, 64, 6, 9, -11, -5, -2, 4, 18, 11, 2, 0, -2, -7, 72, -7, 5, 22, -3, 33, 13, 9, 8, 1, -1, 13, 15, 9, -1, 16, 39, -8, -3, 66, -3, -12, 1, -16, 47, 4, 50, 17, 2, 5, -13, 6, 26, -3, -8, -8, 18, -5, 15, -1, 14, 6, 23, 12, 20, 8, 8, 109},
  {-32, 1, 8, 0, 4, 4, -17, -40, -24, -40, -11, -14, -2, 7, 8, -31, 21, 4, -10, -5, -4, -2, -2, 11, -13, 7, -22, -24, -9, -2, 5, 1, 2, 14, -1, 12, -9, 5, 0, -15, 20, -24, 0, -11, 6, 16, -17, -10, 4, -16, -9, -15, -5, -3, -18, -35, 3, -10, 5, -24, -23, 10, 8, -24, -4, -10, 3, -6, -5, 5, 14, 7, 10, -1, -10, 15, -14, 2, -2, -10, 0, -16, -23, 4, -7, -28, -1, 10, -6, -31, -16, -28, -22, -2, -15, -26, -8, -19, -27, -4, -15, -1, 3, -34, -13, 24, -18, -10, -20, -1, -18, 9, 9, 7, 8, -1, 5, 6, -12, -21, 7, -40, 3, 16, -3, -22, 10, 5, 2, -1, -27, -3, 2, -3, 4, -18, 2, -4, 3, 1, -5, 10, 4, -31, 24, 13, 20, 2, 2, 2, -8, -8, 11, 17, -4, -12, 11, -1, -14, 14, -11, 7, -4, 15, -14, 6, -8, -17, -28, -24, -15, 5, 8, 0, -15},
  {12, -25, 9, 6, 27, -4, 12, -5, -3, 7, 6, -10, 25, 46, -18, 30, -1, 20, 5, 4, 10, -22, -21, 29, -18, -23, 21, -8, 12, 28, -53, -23, 8, 9, 9, 5, 9, 15, 4, -8, 7, -1, 2, 15, -10, -1, -16, -6, -3, -14, -32, -19, -15, 22, 19, 10, 29, 10, 11, 25, 26, 11, 14, 13, 10, 55, 8, -32, -29, -3, -20, 10, -13, -41, 37, 20, 42, -23, -4, -1, 1, -25, 26, 25, 9, 10, 14, 15, -20, 9, -26, 25, -13, 4, 19, -4, -3, -2, 3, -9, -13, -8, 33, 26, 21, 21, -5, -25, -4, -25, 48, 18, -20, 7, -2, -15, -9, -2, -12, -19, -5, 17, 8, 24, -24, -16, 12, -18, 13, 11, -27, -3, -8, -24, -20, 9, -3, 8, 4, 34, 5, 21, 70, 23, -8, 3, -11, -19, 43, 31, 16, 5, 20, 12, 38, 8, -21, -6, 8, 14, 1, -8, -5, -10, -5, 9, 54, -10, -2, -17, -6, 4, 0, -28, 8},
  {20, -5, 0, 21, -8, -9, -3, 2, 8, 3, -23, 12, 14, 1, -22, -5, 15, -8, -4, -3, 7, 6, 6, 14, -3, 9, 3, 6, 15, -20, 1, 17, -8, -2, -3, -4, 11, -10, -12, 10, -7, -5, -10, -8, 8, -4, 4, 5, -3, -19, 1, 5, -17, 5, 12, -5, 7, -4, 4, 7, -10, -23, 11, -14, -45, 12, -8, -9, -12, -10, 5, 2, 17, 9, 4, -21, 15, 5, -15, 3, -22, 11, -1, 17, -23, 5, -1, -15, -14, -17, -7, 8, 1, -1, -22, 3, -9, -20, 20, 7, 6, -7, 6, -15, 4, -2, 7, -10, 12, -5, -4, -8, -28, 12, 14, 0, 8, 8, -9, -3, 6, -2, -3, -17, 8, -4, -17, 16, -16, 2, 11, -18, 7, -10, -36, -5, 4, -52, 15, 7, -2, -1, 10, 9, -16, 1, -6, -25, -9, 7, 6, 24, -35, 12, -2, -1, -4, 16, 3, 2, -11, -2, -19, -16, 3, 5, -20, 17, -19, 14, -1, -19, -39, -23, 12},
  {-7, -11, -5, 7, 5, 29, 2, -22, 9, -20, 3, -4, -2, -2, -10, -9, -11, -10, 0, -17, 10, -4, 4, -9, 4, 21, -23, -16, -2, 8, -2, 15, -2, 4, -9, -15, 8, 1, -1, -27, 12, 16, 1, -3, 10, -1, 21, -6, -1, -24, 9, -16, -4, 20, -18, -30, -11, 6, 12, -13, -17, -15, 5, -16, 6, -8, 26, 5, -9, 13, -1, -1, 2, 11, -13, -11, 11, -6, -6, 11, 7, 8, -11, -6, -3, 7, 3, 4, 28, -7, -13, -12, -6, -7, -19, 6, 11, 5, 7, -2, 21, 13, -6, -27, -5, -10, -18, 10, -5, 1, 8, 3, 22, 6, 24, -4, 13, 13, -16, -25, 4, 4, 19, 37, 48, -7, 10, 9, 0, 0, 22, -8, 20, 25, 8, -10, 19, -5, -4, 8, -14, 0, -1, 18, 20, 6, 22, 2, 15, 1, 42, 3, 16, -17, -1, -10, 2, 10, 9, 28, -6, 1, 20, 19, -14, -11, -20, -10, -10, -29, -7, -21, 5, -20, -13},
  {11, -53, -43, -1, 17, -15, 26, 6, -11, 35, 28, -56, 16, 25, 11, -38, -18, 7, -16, 14, 8, -31, -33, -11, -42, -45, 0, 6, -31, 23, -39, 11, 18, -19, 11, -25, -5, 23, -1, -45, -18, -9, 7, 58, 7, 7, -16, 1, -61, -21, -21, -18, -27, 31, 24, 22, 29, 26, 21, -13, -43, 5, 28, -1, -5, 14, 16, -33, 4, -13, 13, 6, -6, 14, 51, 8, 77, -35, -27, -11, -45, -12, 21, 10, -33, 0, 5, 15, -6, 7, 12, -33, 13, 10, -18, 21, 2, -32, -3, 8, 40, -29, 33, -13, 31, -13, 4, 6, 23, 27, 5, -11, -25, 0, -21, 63, 2, -18, -7, -24, 23, -14, 1, 37, -21, -49, 29, 35, 0, -11, 8, 6, -1, 34, 60, 4, -9, 18, -14, 8, 39, 34, 46, -7, -22, 25, -4, 7, 0, 2, 32, 28, 36, 5, 35, 54, -23, 21, 6, -1, 73, -15, -38, -40, -26, 22, 29, -6, 9, -26, -3, -34, -3, -21, 11},
  {-10, 51, -8, 37, 28, -1, -77, -8, -15, -7, 52, -17, -1, -16, -51, 4, 19, 7, -52, -6, 29, 3, 5, -3, -18, 28, -53, 38, -9, -23, -32, -9, 15, -70, -46, 16, 53, 73, 35, 22, -11, 0, -3, 5, 9, 25, 23, -24, 29, -41, -24, -20, -66, 10, -13, 4, -24, -16, 9, 17, -7, -84, 40, 8, 5, 57, 36, 9, 28, 20, -12, -127, 22, -51, -17, -1, -17, -82, -1, 45, 35, 5, -2, 48, -31, -3, -67, 13, -25, -21, -32, -14, 36, 27, 9, -19, 7, -24, -43, -52, -21, 3, -13, 11, 55, -3, -7, 38, -45, 21, -27, 104, 0, 0, -13, 42, 11, 34, 20, 30, -58, 5, -16, -17, -5, 22, 0, -4, -94, -53, -2, 36, -45, -63, 14, -31, -14, 32, -46, -4, 50, -4, -5, 14, 4, 58, -27, -53, -12, -62, 9, -21, -20, -4, 23, -3, -12, 9, -44, 34, 2, 124, 21, -73, -36, 22, 24, 41, -1, -11, 60, 7, 55, 53, 13},
  {-27, -20, 3, 0, 31, -4, -50, 14, -5, 0, -46, -33, -9, -14, -53, 9, -11, 102, 61, -5, 21, -36, 65, -14, -11, -38, -42, 23, 14, -43, 51, -24, -40, -77, -28, 70, 70, 18, -19, 7, 9, 12, -29, 45, 81, -58, -57, -2, -8, -11, -8, -91, 30, -39, 4, -12, 19, -55, 50, 2, 8, 49, -64, -46, 68, 42, -55, -34, -53, -49, -61, -8, -79, 33, 26, -26, 29, 38, -12, 30, -68, 3, 8, -50, -71, 25, 35, 32, 7, 12, -27, -18, -26, 93, -1, 35, 5, -4, 17, 1, 9, -68, 59, 0, 7, 15, 21, -57, -15, 53, 17, 44, 15, 54, -9, -52, 74, -57, -69, -27, 8, 23, -17, -25, 17, 22, -33, 21, -42, -87, 17, -42, -36, -7, 45, -6, -33, 8, 9, 73, 38, -100, 10, 19, 6, 52, -16, -22, -41, 20, 7, -18, 47, 34, -18, 7, 39, -23, 5, 6, 53, -33, 35, -6, 3, -19, 26, 5, 4, -27, -27, -30, -60, 2, -5},
  {-20, 9, 13, -2, 9, -8, -15, 3, 6, 0, 17, -5, -5, -11, -22, -14, 1, -3, -3, -20, 22, -5, -7, -12, 14, -6, -15, -9, 7, 24, -12, 11, 5, 10, -22, -6, 1, 8, -13, 10, -20, 7, -3, 7, 0, 5, 2, -10, -7, -10, -8, -16, -3, 12, 5, 10, -5, -4, -20, -15, -17, -24, 3, -9, -1, -8, -1, 3, 15, -1, 12, -3, -19, -10, -5, 1, -12, -2, 2, 14, 15, -21, 5, -16, -22, -6, -2, -13, 8, 6, -3, 3, -13, 7, -14, 18, -4, 20, -11, 14, -17, 18, -23, 20, 4, 5, 14, 18, 5, 15, -20, 1, -23, 35, 13, -1, -23, 1, -26, -13, 6, 6, 31, 7, 1, 13, -14, 13, -30, 0, 6, -23, -2, -15, 13, -6, 24, -11, 6, -6, 6, 1, 8, -14, 22, 8, 5, 23, 20, -2, -8, -5, -15, -5, -10, -18, -6, -10, -1, 0, -12, 2, 24, -17, 6, -3, 10, -15, 5, 0, -36, 0, 19, 1, 1},
  {19, 12, 8, -54, -17, 34, 14, -34, -16, -1, -21, 57, 46, 1, -3, 4, -17, -16, 40, 25, 22, -11, -9, 1, -31, -40, 29, -54, 22, 17, 15, -35, -56, -4, -15, -25, -44, -66, -22, -22, 8, -46, 7, -9, 58, 39, 3, 20, 60, 52, 21, 31, 38, 28, 33, -27, -18, -13, -61, -17, 0, 7, -11, -2, -4, -56, -31, -21, -23, -30, 28, 59, 24, 49, 33, -12, 20, 73, 16, -55, -22, -40, 20, -19, 14, 34, 91, -21, 40, 26, 60, -6, -41, -15, -12, -6, -10, -1, -15, 34, 20, 18, -23, -40, -49, 4, -26, -34, 6, 18, 12, 12, -6, 21, 6, -35, -55, -54, 3, 23, 48, 3, 43, 40, 6, -9, 4, -12, 21, 22, -5, -39, 47, 35, -2, 56, 10, -23, -15, -7, -54, -33, 17, 10, 5, -38, -6, 2, 9, 76, 6, 30, -23, 6, -10, 6, -16, 14, 48, 22, -21, -32, -3, 38, 16, -23, 25, -9, -11, 1, -25, -14, -30, 28, 13},
  {21, 64, 2, -21, -20, -14, 33, 11, 30, -5, -17, -24, 9, 21, 9, -17, 5, -34, -11, -35, -46, 65, -88, -23, 13, 18, 2, -50, 24, 3, -30, 13, 70, 33, 25, -43, -36, 10, 17, -31, -25, -32, 21, 26, -80, 54, 19, -54, -7, -16, 10, 31, -3, 47, -43, -25, 6, -35, -28, 29, -29, 14, 15, 34, -19, 12, 32, -42, 1, 26, 38, 59, 33, -48, -20, -43, -31, -38, 21, -56, 11, 17, 3, 8, 24, 13, -5, -14, 2, 23, 17, -45, 46, -66, 25, 1, -13, 17, -20, 67, -3, 19, -27, -19, -11, 23, -15, 61, 28, -47, -44, -49, 22, -44, -45, 5, -19, 33, 15, 9, 60, -31, 42, 15, -10, -5, 27, -8, -8, 48, -30, 39, 59, -24, 5, 46, 37, -12, -33, -95, 0, 37, 8, 1, 9, -27, 29, 13, -21, -18, -14, 12, 5, -33, 19, -11, -68, 39, -35, 13, -17, -6, 19, -8, -8, 35, 24, 58, -17, -56, 52, 16, 25, -24, -20},
  {-7, 12, -35, 0, 3, -23, 4, -13, -8, 12, -29, -2, -18, -21, -4, 17, -25, 4, -42, -28, 7, 13, 5, -32, -14, -5, -32, -9, -13, 19, 0, 11, 27, -23, -21, -44, -20, -4, -9, 3, -8, 12, -21, -4, 2, -16, 32, 13, -6, -18, -23, -2, -7, -18, 0, 22, -48, 28, -16, -16, -20, -1, 30, 14, -29, -3, 26, -21, -5, 2, -15, -9, -5, 6, 19, 2, 0, 5, -44, -36, 3, -4, -5, -8, 0, 5, 1, -24, -3, 0, 9, -3, 0, 0, 9, 6, 9, -9, -11, -39, -3, -18, -10, 10, 13, -26, -26, -18, 34, 15, 19, -20, -17, 17, -32, 20, -13, -11, -14, 15, 18, 10, 32, -12, -31, 9, -20, -4, -22, 13, 4, -3, -19, -8, -2, -9, -8, -42, -36, 8, 3, 5, 15, -12, 10, -14, -11, -2, 31, -14, -8, 1, -10, -19, -7, 9, -1, -2, -14, -23, 10, -16, -27, -19, 37, -6, 9, -8, -22, -6, -1, -26, -19, -34, -14},
  {6, -22, -29, -48, 39, -7, -9, -33, 17, -6, -1, -20, 11, 9, -11, -36, 3, -18, 21, 15, -15, -22, 4, -42, -27, 17, 10, 5, 17, -15, -4, -42, 2, -17, 10, -20, -8, 13, 1, -27, 20, 3, -8, 44, 2, -1, 26, -14, 1, 7, -50, 1, 32, -18, -8, 6, -21, -25, -14, -13, 14, 5, -14, -47, -6, 1, -11, 2, 17, 33, 0, 3, -7, -30, -35, -23, -12, -21, -71, -8, -22, 9, 12, -4, 13, 6, 4, 14, -66, -23, 23, 1, -2, 6, 8, -35, -3, 0, -31, 7, -22, 7, -19, -13, 31, -4, 25, 14, 14, 16, -1, 10, 18, -17, 1, 1, -20, -2, 1, -35, 2, 15, -9, -16, 2, -34, 31, 3, -17, -4, -9, -18, -6, 20, -10, 24, 8, -12, -3, 1, -31, -15, -23, 2, -21, -23, 4, -14, -10, -2, 3, -31, -7, 9, 8, -33, -21, -26, 21, 0, -15, 2, -9, -15, 1, -38, -7, -13, 7, -16, 1, -19, -7, 5, 4}
};
static const float tensor_2_weight_scale[1] = 
{0.0075762192718684673309f};
static const int8_t tensor_2_weight_zero_point[1] = 
{0};
static const int8_t tensor_2_weight_quantized[175][175] = 
{
  {-18, -18, -11, -6, 5, 3, -7, -30, -24, -75, 1, 18, -28, -12, -9, -58, -19, -3, -72, 12, 28, -29, 13, 7, 42, -60, 35, -20, -22, 37, 19, 11, -15, -11, -27, 2, -34, -11, 42, 38, 15, 4, 4, 19, -6, -32, 20, -19, -8, -14, 13, 7, 5, 20, 24, 10, 22, -25, -18, -39, -20, -13, -55, -35, 33, -20, 1, 29, 43, 10, 7, -25, -21, -25, -109, -43, 13, 28, -35, 8, -47, -66, 29, -1, -42, -30, 20, -41, -55, -16, -32, 25, -48, -21, -19, -6, -13, -4, -52, 22, -10, -13, -7, -20, -34, -47, -26, -6, 17, 0, -18, -9, 14, 12, -5, 0, 50, -2, 34, -7, 0, 24, -21, -14, -30, 2, -44, 23, -1, 10, 18, -5, -6, -31, 26, -23, -39, 39, 11, 31, 1, -40, -11, 10, 2, 40, -16, 7, -23, 0, -3, -27, -12, -4, -10, -38, -12, -12, 6, 41, -10, 0, -3, -6, 4, 7, 24, 12, -1, 5, -39, -28, -78, -8, 50},
  {-101, 39, 27, -5, -22, 77, 50, -14, -26, 4, -29, 3, 13, 19, -19, -28, 4, 22, -6, 4, 15, -7, 8, 8, -70, 20, -14, 32, 19, -25, -6, -47, 15, 20, -17, -19, 20, -21, -37, 4, -7, -31, -24, 17, 24, 7, 14, -37, -12, 17, -21, 22, 12, -10, -11, 16, 11, -9, -33, -68, -27, -14, -29, 13, 2, 38, 11, 14, -5, -2, -8, 19, 25, -2, 34, 23, -2, -53, -22, -5, 10, 25, 8, -19, -21, -12, -7, 31, 29, -20, -55, 8, -18, 9, -1, -107, -2, -45, -12, 24, -25, 11, -38, -2, -60, -30, -34, -42, 16, 13, -25, -35, 40, -31, -27, -3, -14, 8, 33, 26, 1, 3, -14, -1, -4, 23, -13, 41, -14, -41, 4, 21, -29, -43, -6, -35, -46, 14, 9, 25, -13, -54, -36, 20, 17, -44, 16, 21, 4, -78, -16, 20, -66, 23, -57, -21, -29, 22, 44, 1, -26, 0, 41, -5, -19, -29, -23, 37, -21, -48, 14, -24, 23, 1, 29},
  {-53, -12, 4, 15, -8, 17, 29, 12, -25, -89, -38, -25, 6, -4, -53, -11, 5, 26, 53, -1, -53, -27, 18, -6, -14, -34, 3, 2, -29, -41, 12, -27, 16, 16, 18, 37, 4, -16, 24, -4, -49, -22, -2, -9, -37, -3, -54, 1, 13, 14, 8, 45, 11, -13, 22, 34, -4, 70, 33, -43, 1, -43, -25, 13, 9, 29, 30, -22, -26, 17, 11, 9, -8, 2, -13, -3, -27, -16, 9, -19, -7, -18, -12, -2, -37, 12, 15, -4, -3, -17, -43, 24, -8, -29, -28, -14, 1, 9, 8, -41, -15, -1, -7, -11, -3, 31, -1, 24, 11, 27, 1, -19, 7, 4, 31, -38, 18, 1, -1, 17, -25, 7, 10, -36, -13, 5, -36, 21, 3, 16, 5, -26, -47, -23, -11, 3, 17, -17, -31, 30, -4, -23, 0, -13, 20, -20, -44, 82, 26, -21, -27, -3, 7, 35, -10, 16, 33, 10, 22, 7, 1, 46, 3, 32, -12, -11, -24, -7, -22, -9, -9, -18, 5, -27, -11},
  {-33, -19, 1, 2, 25, -22, 20, 6, -10, 0, 15, 16, -31, -64, -28, -7, -55, -33, -33, 15, -25, -44, -36, -6, 16, 1, 62, -25, -23, -39, -24, -13, 28, 3, -21, -15, -10, 30, -38, 19, -13, 20, -5, -51, 9, -11, -20, 38, 23, 9, 16, -34, -10, -18, -18, -12, 34, 24, -30, 0, -14, 15, 18, -20, 20, -46, -2, 11, -38, 1, 16, -10, 13, -11, -13, -28, -36, -19, -9, -18, 5, -2, -71, 9, 0, -26, -71, 6, 65, 29, 0, 9, -41, -43, 8, -7, -11, 4, 19, -28, -33, -20, -4, 18, 12, 47, -24, -1, -53, -28, 29, 28, -34, -12, 46, 6, -15, 2, -5, 46, -21, -15, -40, -28, 18, 7, -17, 19, -19, 31, 64, -77, 5, 44, 16, -27, -11, -27, -15, -32, -5, -34, -29, -4, -70, 25, 35, -40, 26, 27, -7, 3, 15, 40, -11, -19, -9, 4, 14, -10, 13, 9, 25, 17, -27, -14, -13, -34, 17, 0, -16, -14, 44, -56, 4},
  {24, -33, -18, -63, 17, -30, -43, 3, 83, 14, 0, 19, -56, 16, 8, 9, -30, -16, -20, -34, 43, 26, 7, 33, -3, 0, -42, 7, -35, -30, -4, 4, -2, 7, -32, -5, -20, 21, -20, -32, 18, 15, -32, -13, -43, -46, -25, -45, -40, 12, -4, -30, -1, -29, -37, 10, -41, 17, 6, 43, -1, 19, 17, 34, -24, -1, -29, 43, -24, -19, 10, -20, 2, 0, -21, 4, -43, 38, -2, -77, -28, 1, 7, -16, -29, -7, -48, -8, 5, 17, 0, -32, 21, -33, -1, 4, -37, 6, 8, -14, 4, 1, -14, -35, 21, 1, 15, 10, 8, 4, -18, -43, -34, -1, -24, -29, -21, -1, 9, -31, -15, 12, -7, -10, -36, -3, 39, -15, -16, 1, -50, -1, 20, -59, -38, 19, 16, 23, -44, -23, -36, 29, 10, -9, -12, -9, 12, -5, 25, -1, 3, 40, 12, 2, -30, -37, -15, 11, 7, -37, -25, -51, -9, 0, -32, -3, -10, -29, 48, -68, 11, -7, 0, -20, -22},
  {23, 23, 4, -26, -3, 3, -7, -7, 3, 6, -24, -3, -5, -5, 41, 12, -27, -29, 22, -48, 2, -2, -3, -20, -6, 9, 8, -31, -35, -27, -11, -21, -4, 0, -13, -7, 6, -28, -48, 16, -24, -41, 11, -25, 1, 13, -13, -5, -30, 25, -7, -17, -25, -25, -14, -11, 15, -23, 57, 2, -19, -6, 0, 10, 15, -7, -2, 10, -24, 25, -26, -13, -27, 31, -7, -40, 6, 18, 16, -3, 10, -6, -6, 19, 7, -15, 19, 11, 9, 28, 37, 23, 8, 11, 16, -2, -13, -1, -16, 6, -8, -19, 29, 26, 4, 13, 0, -4, 16, 7, -60, -9, 22, -37, -5, -12, -19, -27, -22, 14, 21, -36, -18, -23, 12, 0, 22, -10, -14, -13, 5, 28, -33, -2, 22, -16, -7, 4, -13, -3, -12, 23, 8, -14, -35, -4, 1, -6, -13, -1, 6, 7, 3, 1, -18, -3, -27, 1, 2, -4, 5, 15, -6, -3, -52, -17, -11, -10, -17, 23, -11, 6, -56, 6, -9},
  {22, -1, 8, 32, -58, 4, -38, -20, -12, -33, 19, -42, -21, 16, -21, -5, 15, 20, -42, -40, -17, -6, -15, -15, 1, -12, 20, -61, -29, -3, 9, 4, -13, 14, -9, 10, -68, -22, 14, 16, -15, -39, -7, -48, 29, -19, 14, -22, -21, -23, 49, -30, -31, 31, -4, 25, -29, -16, -24, -11, -13, -5, -39, -10, -5, 40, 7, -17, -29, 1, -1, -28, -29, -26, -10, -23, 1, 17, -68, 4, -44, -64, -17, 22, -69, -17, 12, 2, -26, -44, -38, -4, 6, 27, -12, 22, -9, -24, 6, -17, -40, -18, 3, -13, -6, -35, 5, -36, 2, 43, -22, -20, -25, 4, -24, 23, -25, 29, -26, -27, -13, -30, -35, 19, 2, -15, -42, 4, 19, -28, -1, 33, 1, -2, -3, -16, -23, 3, -8, -3, -20, 42, -49, -41, 21, -31, 9, 11, -32, 4, 19, -12, 25, -1, 4, -53, 28, 27, 20, 36, 8, -12, -44, -36, -1, -20, -9, -59, -16, 5, -20, -26, -12, 0, -49},
  {-28, -22, -10, -10, 35, 44, 1, -16, -3, 4, -1, -6, -30, 10, -36, -1, -32, -10, -61, 17, -3, 16, 19, -6, -31, 42, -40, -37, -19, 13, -9, -19, 8, 40, 4, -9, -40, 7, -19, 12, -49, -31, -28, -12, -7, 35, 1, -37, -23, 23, -5, -15, -49, -28, -17, -7, 8, 4, 13, 31, -33, -25, -22, 16, -11, 1, 45, 17, 5, 22, -21, 17, -24, 17, -25, 7, 12, -26, -42, -1, -29, -13, 35, -51, 62, -40, 1, -12, -21, -47, 10, 13, -59, 7, 1, 0, -68, -3, -14, -35, 45, 13, 0, -34, -48, -29, -18, -36, -4, -37, -4, 19, -4, -26, -9, -23, 34, 1, -38, 5, -7, -9, 12, -38, -29, 4, -34, 26, -9, 0, -49, -31, -8, 24, 26, 21, -57, -8, -32, -29, 28, 30, 1, -1, -7, 1, -6, -17, -24, 5, -40, 0, -33, 16, -7, -35, -26, 20, 10, 38, -12, 4, -14, -28, -43, 6, 3, 4, -14, 33, -18, -71, 32, -2, -9},
  {11, 29, -14, 8, 36, 9, 27, 14, -83, -16, -26, -25, -14, 10, 36, -56, 13, 44, -1, -7, 57, 49, 36, -43, 11, -27, -18, -14, -77, 1, -10, -25, 25, -21, -2, 1, 14, -27, 23, 41, 6, -13, 2, 26, -9, -23, 11, -14, -6, -27, -17, 55, 9, 0, 15, -9, 11, 7, 23, 8, 52, 10, -25, 4, -28, -44, 23, 17, -32, 34, -36, -5, -26, 30, -22, -15, -58, -28, -6, -36, -16, -17, 25, -21, 50, -7, 41, -18, -10, 32, -9, 5, -12, -23, -16, -3, 16, -3, 16, -61, 8, -38, 27, 29, -23, 2, -19, -16, -5, 29, 9, 77, 4, 6, -13, -7, -53, 5, 18, 10, 28, 1, 18, 6, 25, -28, 22, 13, 0, -7, -2, -34, -17, 21, -1, 11, -1, -45, 3, -21, -29, -7, 36, -6, 8, -52, -6, 14, -3, -27, -10, -3, 21, -23, 3, 3, -19, -45, -35, -8, -23, -14, -3, -35, -11, 25, 9, -45, -8, 2, 36, 2, 35, -15, 63},
  {6, -19, -8, -14, -2, -5, -18, -3, 36, 18, -31, -7, 8, 0, -31, -24, 18, 47, -29, 13, 19, 0, 9, -30, -37, 24, -59, -8, -50, -15, 13, -14, 0, -25, 8, 6, -12, 19, 6, 57, -56, -21, -1, -5, 0, -15, -9, -25, -29, -36, -59, 43, 2, 2, 7, -22, 23, -4, 9, -6, -32, 19, -31, -5, -2, 48, -18, -5, -3, 67, -5, 6, 19, -32, 24, 3, 1, -23, -47, -4, -10, -32, 38, -20, 2, -7, -8, 3, -58, -32, -40, -5, 2, 20, -25, -16, 3, -23, -23, -2, -32, -19, -32, -48, -76, 8, 18, -22, -24, -19, -2, 30, -7, 0, -2, -15, -3, -3, -25, -13, -43, 9, -14, -61, 22, -21, -24, -5, 1, -33, -7, -19, -2, 32, 32, 25, 17, -13, -4, -18, 15, -45, 19, -13, -8, 1, -14, -33, 9, -13, 5, 3, -21, -57, 11, -48, -1, -63, -13, 21, -11, 5, -33, -15, -45, 13, -2, -10, -12, 28, 11, -25, -22, -13, -26},
  {-32, -41, -10, 46, 21, 43, -33, -31, -2, -3, 10, 27, 1, -18, 15, 25, -32, -31, -14, -37, 22, -21, 41, -6, -68, 17, -21, -23, -38, -8, -31, 8, -44, -25, -5, -34, 11, -65, -40, 7, 28, -35, -6, 4, -15, 9, -6, -15, -5, -35, 0, 4, -1, 10, 29, 20, -1, -8, -3, 7, -15, -9, 5, -6, 6, -33, 18, -13, 7, -6, -25, 29, -31, 7, 19, -17, 15, -44, -2, -29, 16, -31, -5, 14, 20, -33, 16, 29, 7, -51, -20, 29, -26, 3, 29, -22, -41, -45, -6, -55, 3, -36, 20, 12, 31, 2, -22, -6, 19, 14, 40, -9, -21, 19, 5, -17, -18, -13, 9, -2, 14, -2, -21, -6, -17, -20, 2, 7, -9, -15, 37, -39, 30, -34, -17, 27, -11, -17, -35, -30, -7, -9, -37, -9, 4, -3, -26, -74, 28, -12, 40, -40, -10, -15, -6, 21, -4, 11, 9, -53, -14, -22, -9, -1, -3, -38, -56, -5, 11, 39, -4, 12, 32, -56, -19},
  {-24, 10, 9, -6, -13, 34, 56, -11, -35, 12, -61, 16, 40, 41, 1, 13, 26, 5, 22, 41, -84, 18, 13, 0, -18, 14, 5, 13, -18, 11, -11, 8, -16, 9, -25, 26, -21, 3, 39, -15, -11, 11, 35, -7, 54, 20, 25, -8, 3, -7, 0, 35, -28, 18, -31, 15, 5, 20, 8, 14, -29, 28, -25, -18, 26, -29, 7, -8, -10, -14, 7, -6, 8, -14, 9, 35, 9, -40, -44, 30, 34, -49, 25, -25, -11, -11, -2, -18, 17, -17, -23, 32, -5, -20, 16, 31, -20, -20, -23, 23, 4, -4, 4, -31, -56, 13, -4, -20, 3, 18, 3, 28, 40, -22, 19, 23, 24, 30, -24, 67, -12, -12, 13, 9, -34, -11, -50, 4, 5, 25, 23, -39, 23, 2, 0, -13, 24, 29, -3, -4, 40, 32, -108, 1, 3, -6, -28, 58, -48, 15, -31, 1, 7, 7, -29, 2, -50, 53, -5, 30, -3, 33, -3, 14, 25, -14, -31, -11, -27, 19, -27, -38, -34, -38, -24},
  {18, 22, -58, -25, -1, 11, -5, 21, 32, -30, 23, 5, -17, 23, -37, -15, -7, -14, 25, 6, 1, -34, 12, 12, -9, -64, -18, 19, -15, -30, 23, -13, 12, 19, 28, 31, 18, 3, 60, 29, -13, 1, -32, 6, -24, -10, 7, 18, 3, 24, -43, 9, -26, -16, 23, -3, -8, -33, 8, -41, -19, -39, -56, -22, -28, 26, 1, 23, 48, 10, -4, 11, -107, -37, -28, 3, -71, -22, -8, 9, -6, -22, 12, 7, -20, -4, 58, 10, -56, -7, -48, 14, -26, -3, -39, -20, 38, -3, -30, -5, 4, -27, -10, -45, -2, -47, -12, -83, -10, -27, 2, -40, -21, 7, 19, 20, -12, 26, -26, -32, 11, 21, -10, -24, 12, -42, 36, -32, 20, -25, -15, -16, -34, -35, 11, 32, 39, 27, 25, 49, -8, 4, 27, -82, -5, 13, -10, 3, 14, -17, -57, 8, 49, -23, -26, -23, -7, 29, -37, 12, -4, -56, -13, -23, -17, -6, 1, 10, -70, -11, 41, -10, -47, 29, -3},
  {-11, -24, 11, -45, 19, -42, 3, -28, 14, 6, -4, 0, 8, 50, -6, 3, -12, -13, 8, 30, 34, 14, 17, 22, -18, 0, -9, 2, 20, -26, 36, -23, -15, -21, -39, 12, 34, 6, 24, 3, 4, 14, -22, -48, 31, -12, -26, -11, 12, -10, -4, -26, 35, -34, -9, 53, -23, 2, 1, -4, -11, -11, -23, -33, -20, 36, -5, 31, 44, 49, 0, -22, -64, -25, 8, 27, -24, 7, -44, -6, 4, 31, -1, 6, -28, 25, 9, -15, -32, -48, 9, 11, -53, -14, -8, 13, -7, -23, 2, 19, -2, 1, -15, -2, 5, 2, 31, -45, 12, -4, -22, -7, -22, -5, -9, -10, -27, 36, 9, -21, -14, -5, -25, 4, -35, -29, -15, 43, 33, -32, 25, -21, -24, -43, -53, -1, 4, -8, 10, 7, 16, 8, -5, -14, -6, -10, 0, -36, 16, 1, -46, -3, 29, -12, 1, -26, 37, -25, -18, 25, 9, -22, -46, -4, -78, -9, -16, -35, -40, -23, -12, -32, 22, 14, -55},
  {-47, 36, -20, 22, -17, 37, -2, -20, -46, -52, 13, -56, -73, 2, -31, -24, -1, 0, -15, 3, -2, -18, 12, 21, -12, -22, -38, -1, 14, -15, -29, -26, 33, 22, -11, 13, -17, 1, 9, 5, -67, -19, -3, -38, -25, -58, -30, 20, -14, -33, -59, 12, -51, -1, -16, -68, -36, -19, -21, 1, -8, 2, 21, -23, -23, -44, -8, -13, -5, 1, 7, 20, -22, -6, -36, -24, -5, -31, -41, -6, -46, -19, -32, -8, -50, 69, 3, -31, -40, 24, -30, 35, -49, 19, -11, -37, 22, -4, 20, 20, -15, 3, 7, -5, -14, -23, 2, -35, 16, 30, 6, 13, 30, -11, -10, -7, 44, 10, -36, 12, -1, -20, -10, -50, -23, -24, -68, 16, 23, -22, -43, 19, 6, -43, 37, 3, -25, -53, -11, -1, 21, -7, 45, -27, -3, -1, -34, -1, -13, 8, -29, 17, 23, -14, 17, 3, -40, -21, -27, 14, 27, -13, -29, -30, 5, 21, -29, -15, -75, 24, -46, 6, -60, -39, -5},
  {-74, 0, 25, -17, -8, 49, -4, -9, 1, -15, -41, -27, -5, -1, -5, -7, 9, -5, -25, 8, -9, 20, 25, -33, -7, 39, -18, -9, -23, 19, 9, 6, 14, -13, -6, -1, -21, -29, 33, -15, -32, -33, 8, 3, 7, -38, 18, -5, 2, 6, -12, 1, -26, -29, -17, -3, -7, 42, -9, 15, -23, -23, 7, -16, -1, -16, 13, -4, 23, -12, -17, -17, 16, 14, -5, -30, 20, 49, -14, 11, 19, 15, -5, -66, 57, 30, -40, -18, -22, 0, -4, -19, -32, 13, 19, 42, -13, 34, -29, -74, 12, -2, -30, -55, -55, 19, 7, 30, 17, 23, 10, -12, 5, -14, -19, -27, 7, 12, -2, 10, 10, -38, -22, 11, -29, -12, -49, 8, -11, -26, 29, -17, -27, -25, -4, -17, 3, 12, 9, -76, -27, -22, -59, -19, -71, 6, -13, 29, -42, -28, 22, -2, -20, -37, 3, 17, -18, 7, -8, -7, 10, 12, 15, 11, 2, -9, -31, -7, -16, -15, 18, 5, 15, -29, -30},
  {-25, -17, -9, -33, 3, 11, 30, -27, 1, 29, 0, 10, 74, 15, -50, -28, 14, 45, 23, -39, -24, -19, 33, 30, -17, -13, -27, 26, 30, -17, -2, -39, -24, -26, 3, 10, 12, 14, -10, -32, -12, 4, -6, -51, -16, 30, -2, -35, 20, 30, -4, -32, 21, -54, 22, 7, -25, 34, -20, -36, -61, -27, -44, -52, -40, -27, -17, -4, -11, 24, 22, -16, -16, -8, 32, 18, 32, -8, -8, 31, 8, 3, -39, -39, -67, 47, -12, 0, 45, -26, 7, -27, 16, -64, -23, -7, -4, -32, -4, 0, 22, -16, -1, 13, -16, -28, -17, -25, 6, 10, -6, 5, 24, -16, -4, -2, -8, 5, 50, -58, -25, 12, -30, 8, -20, 25, 17, 0, -27, 6, -7, -18, -32, -12, -21, -1, 0, -17, -45, 25, 1, -23, -33, -28, 10, -16, 24, -21, 24, -14, -39, -28, -21, -13, -30, 3, 20, -11, -20, -31, 9, -15, -19, -31, -43, -5, -5, 9, 2, -14, -35, -52, -2, 29, -20},
  {-26, -4, 33, 10, 0, 24, -16, -21, -19, 14, 28, -9, -18, -28, 33, 37, -4, 19, -1, -48, 18, -10, 11, 10, 30, 4, -4, 16, -5, -47, -4, -42, 12, -14, 7, -8, -25, 0, 13, -26, -44, -3, 11, -33, 8, -2, -4, 21, -19, 54, -12, -39, -42, -9, 8, 35, -9, -7, -11, 52, -23, -18, -11, -37, -70, -14, -21, -50, -33, 6, -74, -16, -13, 12, -28, -62, 9, 14, 14, -9, -22, -29, -17, 18, -4, -5, -11, 26, -5, 23, 24, -25, 32, 26, -13, 51, -2, -4, -25, -11, 30, -4, -33, -49, 5, 30, 45, -23, -10, 20, 19, 17, 13, -14, -35, -59, 19, -11, -56, 16, -43, 7, 9, -26, 3, 12, 2, -80, -68, -17, -43, -6, -25, -12, 30, 3, -23, 21, 29, -32, 27, -7, 11, -14, -35, 26, 3, -21, -34, -11, -11, 1, -18, -4, -11, -18, -40, -68, 20, -78, -13, -27, 29, -65, 6, 11, -7, 17, -3, -34, 4, 14, -34, -64, -50},
  {-7, -41, 4, -27, -10, 28, 16, -48, 26, 3, -32, -35, -59, 29, 33, 32, 13, -29, 26, -6, -25, -22, 50, -20, 25, 48, -3, -23, -8, -34, -6, 24, -30, -29, 42, -38, 50, 25, -16, -27, -28, -23, 31, -50, 2, 5, 21, -9, -40, -2, -2, -43, -18, -22, -9, 6, -12, -50, 9, 11, -53, -15, -8, 17, 11, -39, -25, 16, -42, -20, -33, -8, 0, 27, -29, 9, 27, 25, -41, -6, 9, 30, -44, 25, -4, -4, 39, -57, 1, -41, -6, -65, 5, -11, 21, 2, -18, -3, 8, -4, 22, -30, -1, -29, -3, -17, 1, -10, -46, 16, -9, -46, -18, -14, -6, 11, 7, 5, -30, -74, -29, 13, -6, -35, -10, -27, 13, -33, -15, -19, -66, -13, -15, -23, -27, -2, 14, -38, 9, -20, 15, 46, -13, -40, -4, 18, -60, -21, 6, -23, 2, 4, 16, -34, 18, -4, -23, 13, -57, 1, -2, -12, -18, -72, 19, -6, -3, -17, 11, -16, 1, -5, 29, 38, -47},
  {-8, 2, -6, 20, 22, 4, 21, -7, -23, 6, -1, -1, 25, -28, -6, 6, 31, -9, 22, -11, 24, 5, 45, -18, -22, 18, -46, 1, -13, -8, -1, -21, -22, -45, 10, 13, 54, 11, -15, -37, -27, -39, 20, -27, -62, 57, -59, -17, -46, -9, -9, 15, -19, -17, -3, 49, -7, -29, -15, -7, 1, -7, -18, -36, -15, 15, 6, -32, -16, 22, -23, -6, -36, -24, -1, -13, -1, 30, 8, 46, 18, 21, 19, 18, -4, 0, 25, 14, 30, -32, -12, 9, -65, -19, 15, 11, -18, 8, 14, 10, -49, -6, -2, -14, -12, 13, -5, 13, -4, -43, -36, 42, -6, 25, -5, -4, -30, -16, 12, -17, -10, 2, -16, -35, -38, 16, -6, -12, 35, 3, -20, -25, 1, -17, -20, 2, -14, -28, 12, -32, -66, 15, -51, -12, -11, -24, -8, -33, 15, -24, -38, 9, 40, 6, -1, 6, 21, -45, -1, -16, -12, -43, -29, 44, -49, 4, -26, -2, -58, -3, -20, 24, -17, 35, -34},
  {-43, -12, 49, -26, -38, -24, -14, 20, -8, -18, 17, -27, -21, -5, -4, 17, -6, -2, 11, 14, 14, -69, 1, -9, -9, 33, -3, 2, 30, -11, -19, 8, -10, 40, -3, 3, 7, -5, 2, -47, -7, -12, 17, -37, -29, 5, 17, 5, 12, 3, -12, 47, -24, -21, 9, 8, -18, 26, 40, -10, -22, -7, 24, 5, 0, 8, 55, -62, 13, 5, 13, 16, -42, -24, 9, 3, -65, -14, 24, 13, 3, -70, -23, 29, 18, -18, 2, 37, -30, 7, -4, 14, 26, 19, 8, 27, 0, 24, -13, 39, -21, -7, 16, 38, 16, -2, -21, -20, -11, 11, -20, 32, -14, -14, -8, -23, -19, -45, -13, 16, -24, -86, 30, -24, 3, 1, 37, -25, -10, -20, -1, -5, -18, -40, 17, -33, 38, -43, 25, -25, -17, -23, -17, 27, 16, 35, 9, -27, -17, 57, -68, -10, -10, -15, 10, -3, -11, -49, -10, -25, 19, -2, -4, 1, 24, -26, -30, 23, -3, -27, 15, -38, -2, -3, 2},
  {11, 28, -24, -15, 2, 0, 1, -19, 14, 14, -7, 1, 2, 15, -23, 2, -47, 35, -13, -4, -15, -21, 31, 22, -59, 7, 16, 27, -3, 7, -25, -1, 28, -2, -28, -14, -21, 14, -42, -32, -16, -22, -39, 25, -12, -20, 27, -32, -4, -13, 14, -7, 32, -12, -31, -23, 17, -11, -11, -50, 27, -21, -10, -9, 17, -18, 3, -8, -5, -21, -1, -18, 22, -10, -11, 20, 13, -43, 29, -22, -28, -4, -18, -5, -14, -17, -10, 25, 24, -33, -27, 4, -11, -39, -57, -31, 20, -44, 6, 35, -21, -5, -34, 2, -41, -4, -43, -27, 16, 8, -41, -38, 28, -46, -6, 6, 3, -26, -6, -15, 9, 9, -8, -15, 5, 9, -26, 54, -30, -16, 40, 12, -43, -27, 15, 4, -12, 15, 0, 7, -1, -28, -25, -8, 28, -25, 20, 24, 11, -20, -48, -17, -43, 3, -37, -16, 45, -6, -4, 8, -44, -40, 29, 9, -13, -13, 45, -26, 1, 10, -17, 25, 31, -2, -22},
  {-25, -3, 24, -18, 33, 7, 12, -20, -4, 25, 2, -5, 28, -45, 40, 11, -54, -36, 3, -11, -12, -49, -17, -13, -5, 48, 9, -48, 29, -55, -27, -46, 8, -37, 9, 0, 0, 1, 8, -31, -3, 4, 30, -44, -15, -19, -38, 9, -21, 2, 5, -6, -54, -69, -4, 2, -10, 20, -10, 26, -29, -10, 22, 2, 10, -23, -2, -76, -40, -10, -27, 6, 47, -25, 7, -38, 30, 22, 3, -17, -7, 8, 1, 37, 6, -16, -45, -2, 4, 7, -19, -36, 3, -42, 27, 24, 13, 7, -61, -1, -13, -50, -41, -5, -52, 17, 16, 11, -19, -36, -22, 3, -20, -42, 25, -21, 19, -21, 27, -21, -21, 3, 14, 26, -25, 50, -10, -77, -49, 41, 13, 16, 3, 0, 10, -32, -18, -1, 18, 14, 20, 11, 48, 2, -53, 26, -28, -26, -2, -22, 20, 33, 13, 6, 0, 58, -31, 22, 0, -28, -45, 25, -19, -22, 41, -20, -27, 12, 10, -54, -43, 3, 20, -4, -63},
  {-16, 16, -22, -6, -12, 4, 39, -29, -3, 3, -25, -22, 15, -4, 16, -20, 10, 11, -8, 15, 1, 11, 15, 27, -1, -8, -33, 0, -25, -14, 2, -6, -5, 35, 3, 49, -3, 10, -6, 3, -16, -10, 24, -42, 7, 14, -53, 14, -45, -13, 7, -3, 8, -16, -27, -13, -1, 14, -54, 2, 1, -1, -18, -10, -23, 35, 16, 3, 17, 32, 22, 1, -24, -10, -31, 8, -32, -39, -25, 40, 22, -39, 4, -2, -16, -69, 30, 39, 21, -3, -11, 11, -59, -36, -54, 6, -32, -23, 8, -11, 22, -27, -4, -33, -16, 8, -15, 9, -13, 34, -50, 22, -40, -7, 36, -33, -8, 8, 4, -8, 13, 26, -10, -28, -6, -21, 31, 11, 9, 31, 15, -63, -7, -24, -15, -23, 57, -40, -24, 49, 7, -43, -48, -69, -29, -11, 1, -2, 96, 38, -49, 13, 15, 38, -21, -7, 45, -11, 2, 9, 21, 17, 10, -6, -41, -7, -12, -52, -16, -33, -14, -22, -21, -12, -36},
  {-19, -7, 7, -23, -16, 23, 2, -53, -54, -39, -29, -16, -36, -21, -9, 8, -30, -12, 10, 11, -16, -15, 23, -1, -26, 20, 6, 26, 36, -5, 5, 24, 2, -66, -1, -17, 18, 5, -40, -22, -15, -20, -12, 3, -5, 34, 5, -28, 11, 5, 8, 9, 32, 16, -10, 14, 22, 14, 19, -23, -15, -12, -46, 21, 6, -12, 25, -34, -39, -41, -75, -3, -18, 15, -11, -38, 23, 11, 20, -17, 28, -24, 6, -38, 33, -12, -20, -33, 19, 35, -29, -18, -41, 7, 56, -47, 6, -35, 16, 4, 33, 5, -60, 27, 11, -30, -32, -15, -24, -2, -6, 3, -16, 14, -14, -24, -23, 18, -26, 29, -42, -1, -13, 28, 6, 14, -26, -9, -38, 8, 15, 21, 34, 27, -1, 19, -11, -18, -12, -7, 19, 6, 3, -6, 18, -5, -32, 26, -25, -28, -3, -17, -68, -8, -9, -5, -26, 15, 32, -18, 29, -10, 32, 11, 0, 3, 10, -1, 15, 27, -3, -39, -2, -1, -13},
  {11, -15, -28, -42, -18, -5, -16, -40, 23, 36, 5, -28, 20, -7, -21, -18, -47, -8, 15, 21, 17, 18, -26, -8, -14, 29, 17, 29, 5, 31, -10, -25, 5, -10, -27, -29, -12, 27, -17, 4, 26, 61, 28, -9, -71, 6, 4, -60, 1, -11, 29, -2, 12, 1, -17, -9, -44, -18, 25, -42, 18, -2, 13, -12, -4, -29, -47, 33, -19, -33, 30, -24, -18, -2, -4, 2, 19, 41, 49, -50, -9, 31, -54, -23, -27, -17, -14, -61, 30, 39, -21, -44, -27, -41, 10, -38, 14, -29, -47, 21, -10, -25, -47, 7, 10, 9, -64, 33, -7, 8, -16, -13, -36, -25, -1, 49, -2, -26, 46, -48, 4, 28, 13, 3, -39, 34, 9, 0, -13, -27, -10, -37, 19, -5, 49, -42, -4, 30, -32, 55, -11, -9, 3, 15, 3, -14, -30, 1, -28, -27, 3, -33, -40, 18, -21, 18, -20, 45, 5, 21, -41, -51, -16, 15, 21, -29, 33, 18, 12, -47, 1, -47, 2, 48, -18},
  {35, 9, -30, 6, -37, 16, -10, 8, -8, -35, -11, -35, 3, 25, -8, -13, 22, 10, 33, -67, 6, -22, 45, 34, 49, -20, -10, -28, -3, -43, 17, 8, 18, 32, -8, -51, -12, 49, -35, -1, -39, -53, 16, -19, 17, 16, 19, -17, -20, -26, 24, 4, -57, -8, 19, -22, -39, -26, -25, -25, -17, 8, -43, 23, -24, 43, 11, -22, 16, -17, -72, -13, -49, -21, -8, -16, -1, 19, -48, 26, 8, -34, 7, 48, 12, 6, 31, -14, 5, -3, -14, 5, -4, 12, 24, 9, -18, -10, -60, -1, -11, -14, 7, -23, 11, -15, 1, -41, 16, -5, -31, 10, 5, -10, 25, 9, 16, 56, -42, -55, -79, -26, 4, 21, -58, -16, -24, -10, -20, -41, -23, 1, -37, -18, 24, 9, -64, -12, 22, 24, 8, 54, -20, -43, 30, 30, 8, 19, -24, 35, 15, -48, 11, 12, 32, 4, 19, -33, -45, 2, 13, 6, -75, -22, 4, 9, -19, -24, -60, -45, -38, -9, -80, 9, -46},
  {44, -43, 22, -17, 6, 8, -5, -64, -14, -16, 25, -66, -19, -34, -13, 43, -45, -25, 7, -15, -12, 23, 41, 6, 5, 18, 30, -51, 41, -11, -15, -31, 35, -2, 21, -52, -2, -3, -14, 4, -1, -20, -43, 21, 29, 29, -9, -38, -14, -35, 5, -35, -31, -26, 6, -4, -23, 10, -37, 8, -38, 21, 30, 37, 14, -1, -2, -41, -30, -15, -53, -32, -12, 9, -17, -39, 33, 21, 17, -8, 2, -88, -16, 33, 6, -14, -20, -27, 11, 21, -38, -5, 6, 26, -6, 1, 11, -2, 9, 5, 0, -9, -31, 31, 4, 11, -4, -16, 1, -45, -35, 4, -9, -46, -7, 26, 26, 22, -7, -47, -51, 2, -4, 45, -45, 16, -53, -68, -24, 20, 21, -10, 38, -54, 29, 19, -11, 6, 29, 9, 40, -13, 12, 24, -12, 25, -13, 5, -63, -16, 19, -24, -63, -7, -12, 33, -50, -34, 18, -20, 21, -15, -20, -20, 20, 4, -27, -19, -20, 35, 4, 37, -5, -33, -33},
  {-6, -3, -19, -7, 26, -2, 9, 10, -13, -30, -68, -17, -54, -16, 25, -16, 3, 11, -39, 23, 46, -9, 25, -14, 26, -10, -66, 43, -41, 9, 7, -35, 22, 34, 23, 43, 11, 39, 49, 57, 15, -49, 4, 49, -62, 17, -39, 3, 24, 18, -35, 52, -4, -23, -38, -25, 0, -21, 49, 7, 66, 16, -31, -11, -3, -19, -16, 17, -7, 46, -30, 7, -52, -31, -15, 15, -80, 26, 3, -10, -46, -9, 20, -26, 50, 26, 35, -12, -73, 18, -46, 48, -39, -4, -10, -53, -56, -12, 0, -10, -23, -22, 35, 9, -30, -55, 11, -42, -10, -64, 39, -5, -2, 1, 40, 20, -9, -27, 16, -22, 69, 54, -17, -18, -23, -36, 13, 13, -32, -16, -35, -36, -32, -20, -61, 13, 24, -50, 18, -18, 3, -28, 15, -80, 27, -26, -17, -75, -17, -34, -59, -12, 55, -16, -22, -34, -14, -81, -42, -10, 23, 4, -15, -79, -77, -12, 29, -40, -79, -21, 4, -40, 5, -29, 70},
  {-18, -17, -70, 11, -20, 3, -35, 3, -58, -14, 26, -35, -4, -21, 30, 9, 25, -11, -41, -7, 49, -5, -17, 0, -33, -27, 41, 13, -3, -25, -18, 17, -18, -34, 21, -35, -8, -14, -51, 22, 15, -50, -25, 8, -46, -27, 32, -10, 0, -2, 51, 10, -25, 9, 2, -3, 52, 1, -17, 9, -36, -22, 3, 37, -11, -11, 15, -17, -33, 23, -10, -17, 2, -42, 10, 40, -22, -57, -4, -31, -38, 1, 24, 34, 31, -20, 15, 9, -28, -9, -22, 0, -19, -10, 6, 25, -23, 10, 22, 2, -22, 23, 37, -4, 3, 8, 18, -21, 6, -18, 22, 14, -75, 5, -17, -25, -16, 0, -10, -25, 29, -51, -23, -53, 1, -30, 8, 18, -9, 27, 31, -14, -16, -12, -4, -23, 3, -36, -4, -9, -88, 12, -52, 24, -4, -1, 22, -15, 28, -7, -18, -36, -1, 15, -9, -5, 19, -25, 16, 21, -30, 0, -3, 32, -26, -21, -32, 1, 32, 11, 5, -16, 4, -22, -7},
  {-36, 26, 30, -29, -21, 13, 7, -55, -85, 36, -53, 8, 48, -57, 6, 35, -15, -7, 42, -15, -27, -46, -1, 10, 12, 47, -35, -32, -6, -52, -1, -29, 6, -22, -55, -11, 11, 2, -12, -30, -44, 27, 19, -24, 16, 20, -2, -3, -11, -3, -21, -49, -19, -36, -40, -17, 11, 21, 7, 8, -21, -1, -17, 7, 39, -27, 20, -35, -46, -11, 13, 11, -6, -22, 33, 14, 10, 22, 13, -2, 2, 19, 8, -7, 43, -10, -21, -14, 6, -13, -56, 7, -26, 4, -5, -21, -5, -47, -43, 19, -17, 15, -37, 25, -76, -8, 24, -9, -14, -6, 7, -11, 9, -6, 19, -18, 24, 0, 2, 19, 6, 8, -5, 35, 20, 14, -18, -8, -4, -5, -13, -2, -47, -4, 2, -8, -8, -24, 6, -33, 5, -38, 11, 19, 0, 25, 5, -5, 21, -26, -1, -1, -30, -33, -21, 15, -27, -23, 1, 8, -67, 20, 3, 6, 47, 23, -27, 19, 7, -49, -19, 4, 6, 2, -6},
  {-38, 7, 7, -40, -42, -24, 13, -23, 1, -15, 9, 17, 27, -23, -20, -3, 10, -13, -4, 51, -28, -42, 2, 39, -16, -17, 41, 20, -7, -10, 10, -33, -13, 10, -14, -2, 11, -7, -39, -6, -21, -4, -62, -5, -32, 7, -45, 45, 33, 31, 26, -14, -36, 0, 17, -4, 29, -19, -3, -24, 31, 2, 2, -18, -23, 19, 16, -32, -18, 55, -23, -17, -18, -57, -31, -5, -40, 6, 54, 3, -2, -55, -28, -14, -12, 1, -13, -29, 43, -4, -30, 40, -45, 14, -21, -9, 30, -14, 37, 7, -1, -29, 1, 19, -40, -5, -59, -27, -26, 7, 13, 41, -20, -37, 22, -22, -5, 9, -10, -8, 47, 9, -31, 2, 67, -16, 4, 21, 16, -11, 26, -16, -21, 36, -60, -5, 15, -26, -34, -18, -78, -67, 38, 0, -32, -17, 24, 13, 18, -7, -6, -16, 24, -8, -4, -5, 19, -9, 59, 12, -4, 41, 30, 20, 45, -40, 7, 4, 42, -13, -2, -11, 10, 9, -11},
  {27, -7, -73, -10, 11, -36, -56, 4, 19, 1, 14, 23, -41, 46, -20, 5, -41, -2, -28, 3, -5, 15, 20, -7, -5, -28, -16, 7, -20, -32, -10, -25, 7, -27, -5, -19, -7, -34, -31, 27, 17, -26, -51, -7, -19, -12, 24, -25, 26, 18, 12, -7, 2, 16, -25, -31, -30, -15, -43, -36, 28, -9, 23, -47, 7, 28, -13, 45, 20, 9, -11, -8, 46, -12, -3, 18, -32, 11, -15, -30, -31, -21, 13, 0, 11, -5, -14, -37, -33, 53, -24, 5, -12, -44, -10, -3, 3, -48, 35, -9, -22, -20, -34, -2, 30, -8, -35, 20, 48, 22, -19, -37, -66, -32, -5, 2, 1, -11, -15, -23, -7, -19, -27, 3, 13, 10, 15, 7, -8, -6, -23, -43, 11, 27, 25, -7, -14, 23, -15, 4, -57, -64, 29, 17, 28, -48, -11, -34, -30, -37, 1, -41, -3, -18, -5, -9, 13, 10, 48, -19, 48, -58, 10, -34, 59, -13, 1, -17, 35, -13, 34, 1, 22, 6, -24},
  {-47, -1, -35, 25, 11, 1, -12, -17, -45, -12, 6, -44, 19, 6, -31, -34, 31, -1, -13, -12, -11, 13, 31, -11, -56, -2, 43, -16, -3, 1, 28, -11, 34, -10, -7, -32, -9, 27, 21, -11, -9, -55, -29, 0, 3, -7, 11, 27, 14, -9, -15, -22, 35, -3, 32, -43, 0, -36, 3, -77, -15, 10, -2, -12, 21, 19, 17, -12, -20, -67, 22, -3, 24, 9, -39, 23, -20, -34, -45, -20, 7, 34, 13, -56, 6, 15, 21, 26, -6, -65, 1, 18, -72, -20, -24, -56, -3, 3, -12, 21, 37, 8, -9, 24, 11, -38, 3, -17, -10, 24, -15, 30, 5, -15, -17, -46, -9, 14, 33, -25, 9, 33, -61, 26, 0, -12, 4, 61, -46, -24, 7, 29, -2, -20, 49, 15, -3, 10, -1, 29, -19, 34, -25, -18, 48, 4, -27, 50, 30, -55, 6, -14, 22, -11, -7, 29, 8, -75, 18, 10, 12, 35, 20, 10, 30, 4, 3, -44, 13, 34, 6, -3, 1, 15, 9},
  {2, -28, 2, 35, -28, 20, -36, -19, 4, -4, -14, -18, -9, 22, -23, -30, -23, 11, 7, 22, 8, 3, 5, 20, 4, 43, -14, -84, -39, 7, -23, 19, 17, -3, -38, -14, -7, 5, -44, -35, -24, -44, 8, 0, -7, -18, -7, -1, 3, -5, -19, -9, -54, 0, 11, 10, 9, -64, 3, 16, -3, 33, 13, 1, -16, 9, 1, -40, -10, -35, -23, 16, -59, -37, 42, 2, -25, -18, 11, -48, 4, -30, -4, 12, -33, 40, -2, 6, -25, 0, 10, -7, 0, -7, 12, 31, -57, -17, 13, 1, -13, 7, 3, -15, -11, -37, -16, -37, 24, 24, 14, -17, 15, 4, -21, 0, 5, 22, -8, -8, -39, -97, -22, -26, -12, 29, -10, -4, 18, -22, -63, 16, -17, 9, 18, 21, 10, -1, 40, -12, 3, 31, 17, 7, 10, 21, -24, -47, -25, -6, -36, -8, -10, -7, 19, 15, -17, -22, -18, -21, 24, -33, -33, 1, 9, 36, 3, 17, -6, -5, -37, -18, -63, -10, -59},
  {-15, -37, 47, 14, 14, 38, 0, 8, -45, 27, -15, 2, 31, -3, 28, 19, -25, 21, 6, -44, -46, -37, 33, 10, -53, 14, -15, 16, -20, -44, 25, -43, 14, -34, -16, -21, 4, 29, -4, -57, -52, -8, 23, -45, 13, 21, 17, 35, -2, -9, -38, -50, -11, -36, -43, 6, -22, -5, -53, 9, -45, -57, -35, -18, -37, -9, 9, -35, -30, -20, -31, -22, -23, 25, -7, -18, 24, -39, -4, 13, 12, -4, 12, -23, -15, 29, -14, -20, 0, 13, 27, -44, 2, 6, -50, 22, -21, -35, -41, -13, 28, -17, 1, -13, -63, -19, -5, 3, -17, 1, -7, 3, 35, -14, -16, -25, -12, -9, -8, 20, -108, 44, -31, -1, -61, 30, 4, -75, -50, 18, -18, -25, -41, 2, 29, 17, 9, -62, 37, 31, 56, -46, 7, -21, -24, -4, -26, -4, -3, -17, 0, 7, -39, 24, 10, 12, -52, -44, -54, -39, -6, -2, 19, -14, -23, -37, -28, 36, -44, -28, -4, -21, 1, 26, 3},
  {-30, -52, 29, -42, -1, -2, -33, 3, -19, 0, 1, 30, -13, -14, 29, 43, -23, -20, -6, 25, 11, -30, -10, -12, 24, 48, 13, -50, 21, -73, -45, 17, 15, -8, -6, -55, 10, 24, -38, -27, 35, -31, -15, -58, 1, 0, -25, 11, -22, -28, 29, -46, 21, -27, -33, 1, -45, 39, -9, -8, -61, -27, -30, -4, 20, -43, -13, -4, -78, -27, 3, -20, -2, -4, -24, -3, 32, -19, 10, -33, 35, -19, -24, 0, 8, -47, -35, 24, -17, 13, -27, -10, -8, -16, 19, 51, -2, 1, -41, -31, -1, -22, -16, -2, -18, 15, -31, 18, 3, -36, 4, -6, -16, -22, -7, 26, 2, 22, -15, -8, -74, -3, 20, 13, -2, 43, 18, -24, -57, 16, 13, -27, -15, 8, 15, -35, -31, -11, -36, -8, 17, -45, -15, 12, -11, 45, -21, -9, 36, -32, 17, -46, -79, 1, -60, 25, -34, -1, -15, -49, -12, -3, -12, -13, -16, -23, -15, -14, 30, -13, -2, -18, -17, -43, -10},
  {36, -81, -47, -3, 35, -61, -67, 4, 34, 30, 20, 13, -61, 13, -3, -10, -59, -14, -41, -28, 26, 30, 20, 3, -3, -10, -20, 16, -9, -41, -33, 9, -4, -17, -16, -27, -49, -10, -14, 7, 28, 12, -8, -4, -30, 9, -14, -42, -41, 36, 7, -16, 29, 16, -32, 16, -22, 39, -49, -9, -6, 32, 26, -12, -21, -17, -57, 8, -11, -48, -20, -25, 5, 15, 19, -15, -23, 11, 10, -11, 1, 11, -6, -21, -5, -17, -12, 25, -6, -1, 16, -41, 24, -33, -31, -18, -11, -31, 24, -25, 13, 15, 8, -35, 22, 23, -3, -15, 16, 2, -47, -43, -64, -16, -16, -3, -26, -58, 7, -19, 5, 12, 8, -39, -20, -8, 18, -19, -38, -29, -34, -44, 11, -11, -22, 4, -8, 23, 0, -40, -11, -6, 10, 22, 23, -18, -16, -44, -23, -46, 13, 25, -59, 11, -8, 33, -26, 20, 34, -44, -1, -23, -9, -8, -17, -27, -13, -64, 33, -3, 0, 6, 26, 9, -12},
  {10, 13, -6, -44, 5, -1, -3, -34, 2, -28, 21, 5, -20, 10, 1, 0, -12, 28, -12, 19, -11, 23, -10, 10, -16, 6, 4, 6, -8, 0, 1, 9, 25, 21, 14, -10, -25, -16, 22, -7, 0, -17, 18, -12, -41, -21, 11, 3, -16, 0, 5, 5, -17, -1, -7, -24, 11, 2, -8, -14, 5, 12, -27, 3, -9, 6, -11, 32, 0, 4, -2, 17, 4, -9, -25, 7, 19, 12, -18, 4, -26, 24, 0, -14, -11, 12, 27, -30, -21, -17, 14, 7, 6, -2, -2, -9, -11, 1, 6, 1, 14, -1, -5, -15, 11, 11, 11, -7, 31, 0, 18, 19, 28, 3, 16, -7, 23, -20, 5, 33, 1, 1, -7, 15, -32, 4, 16, -41, 14, 5, 7, 0, -5, 9, 25, -8, 2, 23, -9, -7, -40, 2, 38, -13, 17, 18, -7, 1, -43, -13, 5, -13, -12, 9, 18, -27, 18, 5, 17, -12, -10, 0, 44, -17, -7, -45, -30, -12, 15, -1, -2, -2, 18, -23, 11},
  {-22, 8, 53, -12, 42, 59, 54, -12, 8, -23, 2, 32, 31, 7, 9, -22, 10, -2, -7, 10, -60, -17, 10, -30, -69, 15, 7, -10, 28, -14, 28, -6, 27, -40, 30, 18, -38, -49, -10, -17, -36, -6, -13, -19, -24, 23, 0, -21, -12, 26, 41, 22, -19, -22, -14, -35, 14, 31, -26, -2, 18, -23, 13, -23, -28, 31, 19, 8, -4, -15, -16, 3, 30, -37, -1, -55, -10, -32, -6, -22, 10, -11, -9, -3, -7, -32, -1, 4, -3, -8, -4, 15, -23, -48, 28, -14, 3, 17, 29, -11, 32, -3, -12, 37, -16, 1, -43, -41, 23, -32, 22, 18, 65, -21, -6, -10, 25, 28, 21, 17, -49, -23, -59, -70, 35, 23, -24, -21, -9, 2, -31, -43, -32, -43, 33, 10, -13, -13, -41, -1, 29, -30, 8, 37, -24, -19, 24, 12, -54, 12, 7, -16, -52, 58, -25, -5, -3, 3, -9, 14, 0, 34, 29, 6, 6, 28, 5, -18, 20, -37, -23, -72, -34, -11, -31},
  {10, -4, -11, -45, 2, 24, -6, -25, 10, 17, 17, -28, -2, -28, 2, -25, -29, -24, -28, -4, 21, 13, 2, 42, 5, 26, -63, 7, -10, -16, -30, -54, 6, -74, -24, -33, 36, -41, -3, -24, -8, -8, 15, -14, -50, -66, -44, 4, -18, 21, -3, -2, 21, -22, -32, -3, -55, -9, 30, 6, 27, -23, 8, 20, 6, -16, -23, -21, 15, 22, 2, 0, -58, -3, -2, -36, -56, 48, -19, -44, -40, 23, -39, -12, 19, 14, -30, -32, -5, -27, 19, 1, -4, -16, 19, -16, -24, 24, 11, 22, -9, -7, -31, 16, 9, -33, -29, 6, -46, 2, -1, 8, -22, -20, 19, 44, -13, -28, 23, -36, 18, -2, -23, -30, -53, 4, 3, -34, 20, 3, -1, -16, -13, -13, -27, 3, -30, -6, -44, -37, 3, 45, 24, 8, 5, 8, -5, -13, -5, -38, -25, 12, -2, -38, 6, -16, -5, 6, -19, 4, -19, -27, -16, 1, -33, 3, -20, 9, 44, -38, -72, 34, -2, 24, 11},
  {-34, -36, -17, -12, -10, -2, -28, 14, 2, -25, 35, -14, -22, -17, -8, 6, -12, 31, -3, 43, 23, -6, -7, -34, -39, 12, 13, -26, 26, 15, -25, 16, -4, -28, 39, 24, 2, -48, -2, 2, 22, 13, 19, 7, 6, -4, 48, 10, 25, -31, -24, 53, 4, -25, -24, -32, 11, 50, 53, 14, 3, 7, 1, 2, 1, -22, 39, -7, -23, 33, -53, -8, -7, 19, -43, -54, -50, 13, -8, -4, -27, -25, 4, -3, 22, -9, 30, -11, 5, 37, -9, 10, 1, -6, -24, -3, 36, -12, 9, 26, 1, 5, 4, -29, -1, 13, 4, 21, -3, -28, 2, -10, 4, 45, -38, -22, 18, 10, -23, 26, -32, -16, 5, 1, -13, -54, -29, 5, -19, -5, -29, -3, -30, -14, -33, 13, 10, 1, 0, -14, -32, 21, 1, 34, -15, 20, 23, -17, -28, -21, 3, -31, 13, 11, -5, 35, -10, 2, 16, -58, -13, 1, -10, 1, 28, -19, -7, 17, 2, 9, 26, 7, -29, -44, -19},
  {15, 7, 13, 18, -21, -2, -7, 7, 6, 9, 8, 4, 5, -12, 7, -9, 14, 36, -12, 18, -21, 7, 2, 8, -4, 26, 15, -23, -32, -13, -8, -34, 1, -29, -9, 0, 25, 28, 4, -9, 4, 0, 10, -9, -21, 5, -12, -25, -34, -12, 14, 8, -14, 7, 1, -13, -13, -2, -5, 15, -2, -20, -35, 0, -7, -38, -14, -24, 15, 18, -10, 36, 9, 4, 8, -10, 0, -2, -1, 7, 29, -15, -15, -11, 16, 23, -19, -32, -8, -14, 45, 8, -10, -29, -6, 7, -9, -7, 6, 1, 17, 29, 2, -17, -11, -17, -27, 8, 24, -15, 1, -13, 0, 9, 5, 0, -2, -6, -2, -5, -5, -9, -11, 9, -9, 13, -12, 18, 5, 0, 1, 1, 32, -31, 3, 11, -5, 32, -1, 16, -28, 0, 13, 16, 12, -3, -9, 8, -2, -10, -50, 10, 1, -16, 15, 6, 18, -25, 11, 7, 26, -5, -37, 0, -2, -19, 16, 2, -9, -19, -31, -8, -20, -1, 0},
  {42, -16, 2, -43, -14, -31, -22, 12, 43, 6, 31, -11, -71, 33, 13, -19, -14, 2, -58, -39, 39, -10, -15, -9, 14, 13, -50, -61, -25, -13, -32, 30, 17, -2, -22, -8, -30, 49, -23, 10, 26, -25, -101, 7, -62, -41, -14, -51, -8, 26, -11, -24, 4, -5, -16, -1, -30, 2, -47, 15, -30, 0, -8, 24, -32, 15, -39, 41, -13, -30, 32, 5, -29, -18, -59, -1, -25, 35, 24, -65, -12, -27, 21, 4, 2, 13, 15, 37, -53, 4, 7, -35, 44, -23, -14, 11, -43, -21, 44, -34, 5, 2, -5, -17, 44, 8, -21, 1, 11, 39, -9, -61, -24, -10, 5, -43, -8, -5, -19, 21, 18, -41, 6, -63, -1, -10, -2, -25, 15, 14, -71, -26, -7, -1, -77, 21, -10, 40, 8, -6, 16, 39, -4, -9, 20, 30, 13, -20, -3, 12, 29, -16, -24, -5, 8, -38, 7, -33, 11, 15, 17, -26, -41, 1, -65, -9, -49, -33, -8, 13, 69, -20, 13, 11, -26},
  {-33, 6, 18, 6, 21, -27, 3, -46, 8, -2, 12, 58, -9, -101, 24, 22, 15, -79, 1, -44, -35, 31, -81, 7, 20, -10, -5, -14, 1, -47, -14, -35, 1, -6, 4, -27, -17, 8, -15, -71, -23, 48, 21, -72, 6, -1, -28, 35, -15, 5, -26, -50, 7, -80, -36, 11, -34, 0, -47, 9, -53, 7, 13, -7, -6, -27, -21, -10, -11, 5, 35, -36, -10, -14, 23, -5, 10, 17, -3, -28, 24, 19, -11, 38, 12, 11, -47, -11, 9, -14, -17, -17, -13, 8, 5, 0, -5, 21, -10, -19, 1, -26, 40, -32, -30, 33, 10, 1, -55, -1, -54, 8, -11, -12, -1, -40, 11, -24, -14, 1, -5, 14, 5, -5, 12, 27, -11, -46, -39, 10, 10, 25, -17, -8, -35, -47, 26, 7, -3, -49, 10, 16, 2, -25, -60, 13, -18, -30, 47, 4, -20, 15, -8, -54, -28, 9, -48, 33, -10, 26, -33, 31, -23, -52, 33, -45, -32, 40, 32, -34, -6, -4, 10, -22, -49},
  {8, -9, -9, 11, 19, 10, 0, -8, 23, 6, -41, -66, 11, 38, -28, 5, 34, 21, 20, -28, -46, -20, 7, -16, -16, -5, -8, 40, -25, 13, -14, 15, -24, 5, -24, -5, -37, 12, 16, 11, 7, 8, -45, -1, -14, -5, 14, 3, -21, 3, -41, -51, 3, -39, -4, -2, -10, -5, -25, -65, -14, -79, 16, -63, -25, -11, -38, 50, 38, -38, -4, 9, -47, -2, 22, 41, 14, -21, -12, 7, 13, 38, -27, 2, -33, 31, -5, 4, -97, -48, -3, 24, -6, 2, -22, -14, 23, -44, -8, -5, -13, -42, -32, -27, -17, 8, -51, -37, 6, 14, -67, -20, 32, -17, -40, -22, -31, 7, -8, -6, -4, -5, -1, -3, 3, -21, 16, 48, -34, -27, -15, -17, 4, -5, 0, 23, -28, -13, -21, 7, -12, 6, -59, -6, 14, -51, 8, 28, 23, -18, 4, 0, 15, -10, -37, -17, 26, -9, 16, 35, 3, 5, -14, 4, -28, -36, -30, -26, 1, 4, -4, -5, 10, -1, -2},
  {21, 21, 3, -20, -9, 18, 4, -37, 12, -48, -12, -15, 8, 20, -7, 9, -51, 16, 10, -15, -44, 4, 21, -11, -4, -3, -32, 27, 20, 15, -12, 10, -4, 39, -15, -41, -28, -7, -2, -20, -7, 26, -15, 3, 3, -17, 33, -82, -47, -17, -4, 7, 46, -7, -9, -29, -2, -21, 16, 5, 13, 25, -15, 7, 4, -29, 10, -29, -29, -38, -49, -19, -26, 10, 28, -7, 16, 13, -7, 21, 21, -24, -16, -41, -25, 25, -16, -33, 32, 30, -16, -2, -15, -22, -19, 5, -70, -82, 0, 3, -12, -21, -25, 17, -20, -1, -30, 4, -52, 13, -33, -28, -29, -16, -35, 26, -18, 29, 25, 1, -11, -5, -39, 10, -4, 42, 0, -23, -17, -34, 8, 10, -16, 9, 34, -4, -42, -11, 0, 44, -48, 12, -4, 24, 5, -28, -82, -16, -17, -7, 21, -9, -76, -22, -15, 9, 17, 32, -49, -2, -13, -34, -23, 41, -14, -12, -8, -7, -10, 4, 34, -21, 20, 11, 22},
  {-16, 2, 13, -12, -1, 3, 6, -7, -11, -16, 8, -9, 4, -30, 9, -13, -25, -13, -12, -7, -8, -47, -34, 13, 11, 1, 4, -22, -4, 4, -37, -3, 16, 30, -20, -20, -17, -16, 30, 7, -28, 4, 10, -19, 42, 4, -7, 23, -7, -17, 14, 8, -46, 11, 12, 38, -9, 0, -28, 13, -55, 9, -36, -18, 20, 32, -8, -24, -16, -3, 3, -11, 4, -6, 11, 3, -7, 20, -18, 23, -1, 20, 9, 22, -27, -9, 6, -13, -33, -26, 5, 6, -49, 7, 20, 29, 26, -14, -11, -12, -20, -10, -48, -25, -45, -7, 9, -32, 20, 2, -5, 33, -1, -18, -9, -6, 8, 2, -37, 10, 21, 44, -30, 4, -14, -4, -8, -17, 8, 11, 44, 24, -12, -10, -14, -38, -56, -6, 53, -21, 12, 4, 27, -19, -50, 11, 45, 20, -21, 7, 11, -34, -9, -24, -3, 2, -17, 4, 10, 31, -1, -19, -30, 19, 13, -16, -8, -16, 11, -16, -38, -11, -40, -21, -39},
  {-86, 27, -8, -21, -25, 31, 56, -29, -8, 20, -66, 13, 4, 9, 13, 16, 32, -3, 42, -19, -56, -24, 5, 15, 8, -5, -19, 2, 20, 5, -22, 20, 3, 18, 0, -16, 44, -2, 51, 12, -13, 54, 26, 25, -15, -10, 1, 3, -18, 38, -17, 14, -19, 6, -13, -15, 2, 0, 0, -22, -7, 1, -2, 17, 10, -34, 25, 19, -18, 2, 15, -12, 21, -15, -5, 2, -11, -1, -28, 3, -20, -16, -4, -4, -5, -27, -26, -2, -20, -45, -24, 13, -54, 8, 4, 6, 6, -37, -17, 3, -11, -11, 6, -11, -6, -26, 8, -4, -68, -27, -29, -4, 35, -35, 18, 12, 7, 9, 1, -47, 6, 21, -8, -6, 1, -50, 5, 37, -2, 14, -21, -26, -29, -9, 22, -8, 14, -78, 34, -40, 14, 4, -49, -9, 14, 1, -59, -4, -3, -10, -34, 18, -11, 25, -17, 15, -20, 10, -66, 35, 24, -32, -38, 0, -3, -14, 8, -15, -69, -50, -20, -44, -36, -35, 9},
  {12, -1, -15, -7, -31, 46, 9, -18, -28, -82, -53, -35, -21, -3, 23, -2, 13, -44, 61, -10, 1, 2, 25, 17, 18, -33, -40, -31, 12, 13, 4, -49, 7, 10, -5, -24, 5, 3, -42, -24, -26, -27, -21, -32, -15, -17, 32, -7, -51, 6, -5, -27, -52, 13, 13, -75, -37, -32, -2, 23, -33, -37, -25, -25, -42, -16, 47, -60, -37, -15, -21, 23, 33, -20, 8, -20, 2, 16, 7, 33, -24, -12, 17, 10, -9, 51, 36, 13, 24, -25, -21, -17, 4, 19, 14, 21, -15, 2, 12, 21, -9, -4, 7, -76, -19, 16, 13, -29, -15, 9, -27, -49, 1, 8, 5, -18, -3, 21, -32, 21, -37, -6, -13, -3, -5, 17, -16, -2, 7, -6, -37, 27, -10, -13, 8, -1, -48, -45, 16, 3, -20, 18, -46, -35, -29, 15, -70, -5, -43, 38, 20, -46, 42, -21, -13, 4, -49, -81, -22, 12, 10, 37, -52, -4, 25, -3, -16, 0, -67, -37, -50, 24, -4, 3, -26},
  {-28, 64, -14, -50, -27, -14, 77, 5, -8, -3, -17, -1, 38, -2, -50, -46, 50, -1, -2, -9, 5, -17, 0, 14, -18, -22, 9, -52, -20, 1, 30, -30, -28, -7, -4, -15, 0, 35, 14, -14, -11, -1, 3, -26, -18, 25, -6, -2, 6, -19, -4, -29, 9, 8, -77, -1, 15, 18, -6, -35, 12, -14, -28, -39, -25, -11, 77, -22, -14, 1, -32, -17, 14, -12, -1, 12, 25, -14, -13, -32, 41, 15, -4, 5, -17, -17, -2, 15, 32, -29, 1, 4, -31, 27, -12, -17, -21, 45, -3, -3, -17, 1, 19, 6, -39, 30, -14, 2, -8, 17, 6, -29, -4, -20, 25, -22, -13, -17, -2, 1, -9, -7, -48, 2, 29, 51, -1, -1, 5, -11, 42, -49, -14, -6, 14, 14, -26, -12, -19, 22, -25, 2, -16, 5, -25, -9, -1, 44, -34, -4, -25, -13, -18, 11, -23, -1, -2, -27, 31, -7, 14, 12, 38, 12, -29, -16, -28, 4, 29, -1, -19, -11, 22, 3, -24},
  {1, 46, -26, -13, -63, 0, 14, -53, -8, -49, -8, -29, 31, 36, -64, -38, -17, 2, 1, -7, -38, -7, -3, 13, -19, -15, -6, -3, -18, 19, -30, -9, -12, 20, -21, -45, -6, 0, 1, 16, 0, -20, -11, 0, 33, 21, 0, -38, -18, -12, 13, -11, -52, 23, 17, 22, -16, -38, -40, 9, 20, -52, -90, 3, -2, 46, -1, -34, 6, -20, -28, 2, -38, -65, 33, -9, 16, -13, -7, 35, -43, -24, -4, 13, -19, 12, 45, -25, -10, 12, -35, 35, 18, -24, -33, -5, 22, -34, -42, 23, -21, -26, -33, 1, 1, -74, 3, -37, 14, -23, -56, -20, 5, -35, 4, 23, 26, 26, -7, -27, -15, -2, -24, 43, -19, 14, -30, 68, 33, -6, -7, 17, 17, -24, 47, -39, -51, -8, 37, 29, -26, -3, -64, -56, 32, -7, 48, 43, -21, -39, -16, -38, -55, 35, -12, 20, 19, 4, -52, 16, 27, -21, -13, 9, 42, -10, -11, -24, -4, -41, -51, 16, -38, -6, 19},
  {-1, -15, -12, -4, -40, -7, 28, -34, 27, -1, -10, -40, -51, -14, 13, 24, -32, -82, 19, -37, 2, -13, 7, -24, 3, 8, -41, -10, 1, -21, -23, 23, -18, -14, -5, -77, 55, 11, -10, 35, -30, -19, 39, 1, -19, -36, 48, -64, -77, 38, -23, -17, -51, -19, 7, -44, 3, -54, 40, 2, 2, -31, 13, 30, -64, -24, 2, 0, -28, -45, -51, 14, 41, -9, 2, -4, 0, 57, -8, 24, -38, -8, 16, -5, 22, 7, 19, -25, 30, -31, -32, -78, 42, -9, 2, -34, -38, 10, 2, 44, -31, 5, -11, -23, -8, -21, 10, -34, -29, 23, -53, -26, -11, 0, 16, 51, -21, 6, -28, -61, 5, -21, -5, 37, -16, -50, -20, -13, 14, -29, -41, 24, -37, -28, -37, 44, -1, 4, 11, -42, 10, 52, 20, -22, -4, -32, -48, 7, -24, 10, 41, -11, 5, -39, -13, 20, -14, 33, 16, 17, 15, -16, 4, 4, 41, 10, -19, -15, -41, -16, 1, 43, -5, -3, -48},
  {4, 13, -40, 18, -17, -21, -4, -15, -12, -10, -29, 16, -62, 6, 12, 31, -1, -5, -17, -37, 5, -19, 3, -16, -21, -53, 35, -38, 3, -17, -6, 3, 40, -23, 3, -27, -32, 37, -16, -4, -34, 25, 29, -41, 16, -24, 23, -1, -1, -27, 12, -29, 5, 13, 16, -18, 21, 6, 3, -11, 44, -39, -11, -32, 26, 8, 39, 1, 10, 13, -7, -15, -12, -19, -14, -9, 2, 2, -3, 48, 5, -34, -21, 15, -18, -25, -6, 21, -53, 8, -54, 6, -59, -24, 40, 9, 0, -5, 7, -23, -26, -17, 16, -88, 31, 20, -1, -30, -20, 54, -46, 11, -23, 1, 8, 4, -32, -4, -20, 7, -5, -18, 1, -14, -3, -19, 24, 41, 12, -11, 30, -52, 7, 27, -9, -1, -31, -13, 20, 56, -31, 21, -18, 0, -29, 8, -32, 9, -4, -30, 7, -51, -6, -18, 17, -58, -19, 1, 14, -33, -65, -20, -4, 16, 9, -12, 1, -25, 35, 43, -13, -43, 15, 5, 24},
  {-51, -39, 50, 4, -8, 2, -19, -1, 24, -47, 1, -13, -18, 12, -16, 25, -2, 21, 9, 1, -16, -23, -40, -13, 4, -57, 7, -8, 25, 5, 3, -7, -23, -33, -27, 15, -34, -29, 45, 15, 1, 25, -33, 1, 13, 48, 27, 19, 4, -23, -45, 9, -49, 2, -11, 2, -18, 14, -15, -11, -46, 18, 6, 9, -8, -18, -4, -22, 7, 12, -32, 8, -11, -33, -44, -21, 2, -30, -21, -14, 3, -75, 3, -7, -21, 5, 27, 1, -44, -9, -1, -34, 9, -5, -27, 22, 37, -4, -34, -10, -1, -22, 2, 10, -34, 20, 35, -45, 31, 26, 14, 2, -11, -23, 18, -53, -22, 14, -89, -32, -69, -37, 26, -64, -28, -25, -4, -31, 17, -30, -60, 18, -23, -33, 8, 51, 23, 20, 33, 29, 37, -24, 20, 9, -39, 16, -4, -3, -22, 42, 11, -20, 5, -5, -1, -42, -9, -10, -51, 16, 46, 23, -1, -21, 18, 10, -27, 4, -23, 34, 27, -1, -60, 0, -32},
  {9, -10, 35, 0, 29, -15, -27, 15, 19, 15, 0, -18, -54, -32, -26, -5, -11, 0, -12, 29, -18, -9, 34, -14, -31, -4, 1, -23, 31, 13, 3, -16, 11, -6, -23, 8, -8, -21, -9, 34, 4, -35, -10, -10, -21, -28, 7, 3, -25, 4, -60, 29, -34, -30, -8, -12, -32, -6, -7, -15, -24, -22, 49, 43, 33, 21, -27, -13, -1, 23, -28, -1, -35, -58, 13, -39, 0, 12, -3, -14, -24, -44, 30, -30, -17, 3, 12, -5, -20, -25, 13, -13, -20, -26, 16, -45, 0, -51, -9, -43, 0, -7, 9, 32, 3, -35, -10, 10, -12, -32, 47, 5, 13, -19, 6, -2, 7, 4, -54, -8, -48, -1, -9, -28, -6, 19, -33, -48, 18, -15, -53, 5, -27, 13, -2, 33, 11, -7, 8, -25, -21, -48, 35, 45, 40, -62, -45, -61, -53, 17, -35, -26, -36, 7, -27, -13, -4, -29, -61, 21, 13, 5, -31, -20, -42, 17, -38, -28, -2, 32, 11, -28, -33, -29, -30},
  {-4, -21, 5, 26, 10, 18, -30, -3, -2, 5, -22, -12, 0, 1, -12, 4, 17, 55, 21, -47, 2, 8, -30, 3, 15, 1, -8, -9, 8, 6, 1, 9, 5, -67, 13, -11, -43, 40, -29, -6, -50, -15, 15, -25, 34, 0, 0, 6, -1, -30, -17, -18, -12, 22, 5, -4, -37, -40, -24, 28, -9, -29, -37, -24, -40, -17, 29, -38, -14, 11, -41, 24, -31, -5, 22, -30, 51, -69, -31, -41, 57, 14, -17, -4, -29, 4, -47, -30, 10, 25, 43, -50, 1, 8, -16, 37, -25, -52, 43, -19, 48, -10, -8, -13, -31, 16, 21, -7, -25, 6, 9, -10, 15, -35, -24, -30, -3, 18, 0, 15, -23, 4, -28, -5, -42, 0, -6, -15, -28, -13, -54, -12, 0, 10, 10, -10, 7, -14, 15, -13, 27, 33, 4, -43, 8, -2, -4, 11, -10, -45, -10, -17, 6, 8, 28, 1, -14, -38, -57, -14, 20, -65, 13, -79, -30, -2, -30, 14, -6, 14, 25, -23, -16, 49, 26},
  {19, 15, -32, 9, -29, -7, -27, -18, 25, -1, 11, 26, -12, 17, -12, 16, 2, -19, -4, 32, 36, -2, -21, -4, 0, -51, 47, 14, 0, -36, -53, 19, 30, 21, -8, -14, 35, -25, 21, 19, 2, -3, -3, -24, 0, 10, 8, 14, -24, 15, 37, -14, -29, -6, -11, 31, -24, 23, 18, -1, 21, 4, -6, -38, -39, -15, 9, -29, 7, 12, -17, -25, -12, -7, -10, -29, -23, -14, -6, -26, 30, 1, -3, 25, -5, 12, -24, 5, 10, -33, -4, 15, 1, -44, -5, -2, -19, 18, -21, -45, 13, 6, 20, 24, -16, -13, 66, -20, 0, 13, 27, 2, -13, -5, 10, -58, 15, 4, -51, 45, -26, -38, -57, -7, -33, -14, -13, -53, 13, -9, 29, 25, -3, 16, -6, -72, 19, -38, 6, 1, -19, 17, -51, 19, -27, -10, 18, -25, 5, 28, 27, -5, 19, -32, 11, -13, -11, -39, 29, -23, 14, -3, 19, -14, 8, -17, -18, -4, -35, 19, 0, 5, 4, -29, 2},
  {53, -23, 32, -18, 35, -25, -60, -9, 0, 11, 4, 42, 8, -18, -13, -17, -2, -27, -37, 7, 17, -23, -37, -1, 3, 13, 9, 16, -10, -8, 1, -35, 1, -45, -14, -13, 15, -13, -55, -11, 9, 13, 13, -33, -4, -30, -42, 9, 23, -39, 1, 9, -42, -56, 23, 22, 10, -15, -5, 22, 16, 24, 4, 7, -3, -36, -3, -17, -15, 23, 9, -1, -22, -24, -7, -20, -1, 6, -2, -26, 22, 1, -34, -5, -2, -59, -22, 17, -24, 7, 15, 31, -47, -45, -3, 34, -48, 22, -25, -43, -2, -14, -25, -3, 23, 12, -57, -14, -55, -15, 55, -17, -35, 16, -38, -49, -16, -57, 13, -21, 25, -2, -5, -9, -26, 14, 25, -38, -18, 19, -23, 11, -17, 31, -31, 17, -11, 9, -46, -28, -1, 5, 23, 31, -11, 29, -9, -19, 6, 14, 11, 2, -23, 14, 29, 26, -22, -7, 14, -23, 2, -21, 9, 5, -54, 1, -3, 5, 58, -12, -31, -6, 14, -20, -29},
  {13, 15, -6, -7, 9, 1, -48, 12, -3, -45, -14, -2, -13, 29, 13, -34, -7, 18, -61, 1, -16, -23, 25, 2, -46, -11, -33, -16, -2, -6, 12, -19, -13, -9, -51, 7, 1, -22, 10, 18, 1, -36, -26, 41, -43, -1, -40, 2, -6, -22, -33, 57, -6, -9, -14, 20, 20, 31, -10, -22, -16, 0, 12, -4, 11, 3, 30, 27, -20, 0, -3, -10, -7, -17, -40, 7, -51, -29, -43, 1, -33, 3, 33, -5, -2, -9, 19, -6, -10, 1, -18, -20, -27, -12, -20, -29, -17, -12, 14, -23, -18, -14, -21, 10, -37, -57, 7, -7, -33, -26, 27, -18, 6, 15, 9, -34, 11, -15, 18, 19, 5, 30, 27, -11, 20, -9, -25, 44, 8, -6, -23, -34, -22, 2, 10, 41, -8, -30, 6, -25, 25, -16, -33, -22, -16, -17, -11, 3, 15, -40, -26, 0, -21, 10, 8, -59, -8, -29, -8, 26, 7, 29, -4, -44, -14, -21, 8, 0, 3, 9, -29, -45, -34, -9, 12},
  {-7, 24, -2, 1, -26, 8, 22, 9, 41, 3, -39, -66, -19, 1, -32, -23, -6, -28, -4, -40, 10, -15, 38, -11, -33, -7, -13, -26, -23, -8, -10, -28, -3, 6, -6, -7, -15, -4, -44, 8, -27, -55, 55, -36, -24, -20, -28, 5, 5, 9, 45, 4, -5, -53, 32, 4, -7, -11, -27, -50, -35, -51, -3, 17, 22, -9, -13, -5, -42, -3, -17, -12, 8, 12, -21, -22, -53, 25, -33, -10, -37, 40, 14, 19, 8, -12, -1, 28, -50, -30, -45, 8, -2, 10, -10, 11, -38, -28, -2, 15, 7, 22, -17, -23, -22, -15, -46, -9, -29, -31, -13, 62, -7, 6, 8, 6, 41, 52, -3, -1, -24, 6, 33, 38, -28, 31, 29, -16, 0, -15, -3, -60, 2, -36, -18, -32, -12, 18, 18, 22, 11, 13, -52, 39, 5, 17, -18, -9, -8, -5, 17, -28, 17, -11, 0, -17, -5, -15, 5, 2, 23, 13, -46, 10, 36, 15, -17, 8, 6, -22, 31, -12, -2, -24, -4},
  {-25, -7, -1, -13, -9, 8, -27, -9, -12, 30, 29, -29, 7, 5, -12, 20, -3, -30, 22, -24, 8, 41, 0, 24, -1, 37, -15, 18, 2, -12, -12, 8, -14, -66, -9, -59, -1, -16, -4, -22, -25, -9, 29, -58, 9, -42, 50, -36, -15, 43, -16, -18, -27, 14, 8, -19, -23, -31, -18, 16, -13, 11, 18, -8, 12, 28, 0, -59, -7, -38, -96, -16, -21, -5, 18, -38, -13, 6, 17, 36, -7, -6, -6, 1, -45, 8, 6, -68, -9, -15, 32, -45, 0, 37, -4, 54, -47, 11, -6, 8, -31, 9, -24, -48, -20, -16, 52, -33, -16, 32, 13, 8, 26, 9, -40, -10, -4, -1, -1, 3, -32, -55, -16, -1, -57, -6, -15, -33, -23, -17, -92, 41, -59, -44, 5, 30, -70, -20, 40, 0, 13, 5, 27, -12, 19, -46, -20, -6, -80, -29, -19, 49, 41, -25, 6, 7, -35, -56, 17, 8, 14, 4, -14, -30, 19, 30, 4, 24, -38, -7, 3, 13, -26, -18, -44},
  {-2, 20, -12, 18, -24, 32, 10, -16, -7, -2, 16, -9, -8, 4, -53, 18, -39, -14, -13, 14, 2, 2, -9, 19, -21, -4, 11, 38, -44, -2, -8, -43, 37, 12, -9, 1, -22, -18, 36, -13, -6, 6, -31, -33, -20, 11, -47, -10, 9, -1, 55, 8, -10, -8, -19, 23, -4, 13, -15, -18, 7, 16, -8, -33, 7, -43, -35, 37, 16, -11, 11, -6, 22, -42, 20, 17, -37, -4, -4, 0, -40, 2, -15, -23, -37, -23, -45, 23, 9, 46, 18, -6, -25, -4, -38, -17, 24, -28, 25, -16, -36, -25, -20, -8, 53, -20, -18, -22, 42, 1, 3, 13, 10, -32, 11, -17, -3, -18, -6, -4, -4, 3, -9, -32, 0, -4, -22, 18, 48, -20, 37, 9, 1, -9, -5, -9, 14, -29, -7, 10, -50, -69, 12, 9, -34, -8, -1, -48, 51, -45, -6, -32, -8, -32, 2, -29, -2, -11, -5, -7, 12, -33, 2, -8, 9, -7, 7, -25, -4, 33, 13, -37, 10, -49, 35},
  {-33, 12, -37, -28, -6, 37, 11, -1, -34, -24, 16, 0, -4, 28, -7, -58, 11, 8, -2, 18, -3, -18, 26, -5, -24, -23, -16, -39, -49, 8, -30, -1, 54, 6, 2, 8, -26, -22, -29, 27, -15, -65, -32, -29, 18, -9, 1, -28, 27, -3, 27, -43, -19, 14, 23, 19, -32, -25, -34, 2, -4, 11, -52, -13, -11, -4, 52, 53, 5, 43, -3, -33, -27, -15, -33, -25, 9, -30, -13, -13, -41, -65, -3, 12, -54, -24, -14, -33, 13, -37, 5, 33, 23, 14, -6, -5, 35, -11, -25, 16, -22, 17, -30, -25, -25, -44, -15, -27, 9, 35, -27, -29, -16, 7, 16, 15, 41, 18, -67, 16, -36, -11, 11, -3, -20, 53, -31, 27, 0, -25, -26, -17, -36, -3, 3, -6, -21, 41, 34, -36, 34, -59, 16, -18, 3, 8, 4, -10, -24, -23, -37, -5, -1, 12, 29, -5, -42, -5, -7, 13, 1, 44, 0, 4, -5, -26, 5, -29, 38, -30, -20, -64, 16, -33, -19},
  {-49, -12, -50, 2, 48, 19, -5, -23, 44, -33, -14, 4, 19, -41, 59, 37, -13, -26, 20, -5, 15, -4, -13, 4, -41, -12, 29, 32, 21, -21, 11, -35, -41, -34, 18, -4, 55, -21, 24, -23, -31, 0, 2, -49, 20, 12, 9, -4, -14, -11, 21, -26, -11, -13, -18, 24, 9, -7, -38, -19, -14, -35, -28, -22, 15, -38, -15, 25, -12, -12, -11, 8, 14, 17, -7, -28, -5, -37, -51, 20, -36, 4, 3, -20, -12, -13, 21, -1, 15, 5, -2, 8, -22, 53, -46, -5, -38, -17, -32, -26, -28, -14, 17, -1, -61, 20, 22, 1, -90, 6, -32, -20, -18, 6, -6, -13, -8, 6, -26, 25, -26, -5, 11, -70, -23, -5, -32, -50, -4, 31, 1, 27, 43, -13, -27, 0, -5, -28, -61, -18, 23, -60, -6, 16, -8, -14, 0, -47, -20, -18, 25, 43, -36, -28, 42, -26, -31, -4, -2, -41, -14, 31, 20, -17, 2, 40, -38, 19, -34, -29, -40, -5, -31, -7, -28},
  {46, -37, -22, -39, -1, -58, -32, 32, 13, -3, 38, -38, -9, -9, -24, -2, -45, -12, -69, -5, -11, 36, -8, 66, 34, 6, 9, -5, -44, -68, 19, -12, 26, -25, 25, -16, -7, 33, -24, 11, 42, 28, -51, -57, -42, -11, -4, -11, -10, -16, 30, -34, 38, -18, -19, 37, -27, 13, -22, -35, -23, -16, -22, -82, 56, 12, -16, 16, -5, 0, 4, -20, 23, -15, -61, -36, 28, -1, -6, -74, -1, -22, -29, -1, -48, -29, -12, 14, 18, 14, -26, -3, 6, -72, -14, 18, -20, -42, 50, -7, -63, -12, 10, -42, -1, -38, -31, -4, 31, -72, -4, 6, -43, -36, -5, -36, 24, 18, 32, -46, -8, 6, 24, -17, -17, 34, 31, 7, 26, -26, -21, -32, -19, -49, -4, -38, -9, 25, -36, 5, 9, -30, -36, 29, 35, 30, -8, -33, 52, -2, 21, 14, -17, 35, 30, -33, -12, -13, -4, -16, 13, -44, -27, -12, -16, -26, 15, -39, 24, 19, -5, -18, -13, -30, -34},
  {10, 38, -23, 10, 49, 15, -10, -2, -13, -20, -34, 0, -19, 25, -12, 6, -10, -34, -43, 6, 19, -2, 26, 8, -27, 10, 3, 28, -58, 18, 13, -31, -4, 1, -24, -17, 34, -3, -38, -20, 20, 26, 13, -35, -68, -5, 9, 0, -62, 1, -16, 5, 12, 5, 3, -41, -23, -58, 30, -41, 37, 11, 19, -13, -53, 9, -35, 19, -23, 22, -14, -3, -5, 3, -31, -17, -61, -38, -14, -29, 12, -39, -13, -40, 1, 8, -13, -25, -25, -2, 9, -1, -33, -1, -11, -30, -14, -13, -5, -25, -3, -13, -3, 11, 56, 5, 17, -4, -6, -1, -3, -21, -27, -2, 9, 4, 5, -27, 11, 34, 20, -13, -25, 13, -11, -46, -4, -1, 16, -29, 35, -73, 38, 18, -6, -43, -43, 17, -9, 25, -8, -23, 29, 36, -3, -21, 0, 13, -2, -26, -56, -24, -11, -26, 10, 9, 1, 26, 33, 3, 3, -37, 13, 17, 10, 2, -4, -24, 30, -7, 28, -9, -8, -21, 11},
  {3, -20, 11, -45, 43, -42, 5, 37, 1, -38, -44, 32, 4, -1, -24, -8, 12, 20, 7, 21, -16, -21, -11, 0, -5, 7, -39, 1, 0, 11, -9, -1, -3, -31, -7, 39, 21, -10, 4, 11, -9, 20, -22, 22, -4, 1, -29, -29, 9, 43, -11, -15, -42, -31, 8, 8, -39, -3, 51, -26, -5, 18, 27, 7, -28, -14, -10, -8, 5, 9, 14, -5, -71, -16, 19, -9, 31, -3, 4, 1, -11, 5, -31, -17, -9, -2, 10, -13, 10, 33, -24, -16, -51, -35, -33, -15, -3, -18, -40, 25, -50, -26, 20, -2, -39, -2, -47, 30, -24, -54, -3, 16, -14, 17, -5, 31, -16, 11, 39, -24, -17, 52, 30, 21, -16, 1, 38, 0, -6, 15, -23, -11, -9, -35, -39, 25, 3, -47, -16, 32, 2, -5, 4, 11, 26, 1, 26, -13, -43, -6, 14, -13, -14, -6, -35, -34, 21, 41, -8, 8, -11, 4, -21, 11, 38, 8, 13, -8, -48, -42, -21, -33, 0, 25, -3},
  {9, 4, -4, -12, 28, -13, 8, -14, 4, -12, 3, -13, -5, 6, -5, -7, -27, -10, -29, -15, 17, -5, 14, -28, -49, -47, -27, 15, -6, -15, 5, 7, -20, -16, -18, -1, -21, -38, -52, -11, 37, -1, -35, -3, -43, 12, -3, -34, -20, 17, -31, 15, 16, -42, 5, 1, 9, 6, 14, -14, 13, -14, 44, 35, -2, -4, -26, 12, -5, -20, -8, -19, 1, 12, 4, 2, -4, -16, 0, -17, 0, 1, -14, -23, 17, -27, -3, 11, 10, -5, -10, 23, 12, -37, 16, -35, -2, -34, 5, 9, -60, 30, 17, 27, 17, 10, -45, -13, -5, 3, 4, -22, -21, 6, -40, 2, -22, -38, 6, 11, -16, -10, -12, -12, -26, -13, 18, -5, 3, 8, 19, -44, -21, 15, -76, -12, -17, -13, -55, -35, -22, 20, -3, 14, 12, 3, -19, -58, -2, -17, 1, 15, 13, -18, -22, 8, 33, -20, 25, -1, -25, -50, 16, 0, 40, -14, 24, -31, 7, -13, 15, -12, 5, 35, -42},
  {-10, 0, -30, -28, 44, -8, 28, -20, 12, -19, 10, -15, -28, 72, 3, -6, 2, -21, -30, -10, 53, 19, 57, -40, -35, 6, -42, 39, -32, 46, -20, 3, 36, -3, -29, -18, 24, -5, -1, 5, 28, 48, 28, 10, -43, 42, 7, -39, -24, 16, 1, 16, -9, -30, -41, -22, -32, 23, 34, -18, 33, -3, 21, -12, -54, -3, -7, 21, 16, -40, 3, -22, 6, 4, -6, 11, 15, 39, 4, 9, -7, -13, 27, -8, -15, 14, -4, -1, -7, 12, -13, -19, 29, -2, -20, -29, -8, -18, 12, -24, -7, 9, -28, 4, 47, -60, -42, 9, 21, -2, -7, -63, 16, -9, 12, 32, -22, 16, 9, -4, 36, -18, 11, -20, -24, -29, 37, -7, -54, -49, -28, -36, 9, 13, -32, 20, 2, -11, -30, 6, -43, 23, 11, 23, 21, -24, 42, 18, -30, -24, 30, 39, 29, -24, 6, 11, 22, -24, -6, 42, -2, -26, -55, 1, 18, 10, -1, -35, -18, 0, 34, -53, 53, 39, 1},
  {-22, 26, 0, -7, -25, -11, 5, -8, 9, -9, -8, 7, 4, -2, -24, -32, 49, 11, -2, -17, -11, -21, 28, -13, -10, -14, -31, -6, -1, -11, -6, -28, -8, -32, -6, 41, -9, 20, -22, -4, 32, -11, -31, 0, -61, 16, -50, 15, 18, -9, -47, -33, 27, -60, 41, -50, 18, 11, 25, -24, 1, -25, 0, -16, -22, 22, -9, 25, -2, -4, 30, 11, -16, 1, 6, 27, -12, 2, 15, 0, 31, 8, 7, -20, -18, 52, 21, 20, -4, -5, -10, -13, -19, 16, 6, 5, -37, -47, 17, -12, -13, -17, 21, 1, 22, -8, -87, -10, -46, 17, 24, 17, 12, -20, -19, -28, 7, -29, 4, -26, 6, -2, -31, -13, 4, -17, 8, 6, -43, -38, -2, 16, -24, -16, -3, -16, 7, -24, -33, 3, 7, -9, -27, -13, 40, -5, -31, 34, 8, 24, -94, -18, 4, 2, -21, -19, 54, 10, 1, 5, -14, 24, -28, 18, 14, -1, 3, 6, 0, -20, 30, -6, 23, 18, 11},
  {-1, 19, -50, 43, -36, -19, -2, 3, -17, 9, -30, -43, 1, 5, -6, -1, 33, 11, 12, -51, 13, 1, -38, -24, 2, 2, 0, 4, -19, 14, 29, 43, -85, 22, 1, -19, 14, 35, -1, -38, -91, 1, -32, -33, 15, -1, 22, 18, -5, 6, 8, -73, 8, 20, -35, -80, -11, -68, 14, 31, -49, -3, 14, 41, 23, -15, -4, 0, -48, -25, 36, -8, -5, -24, -31, 34, 12, 16, -59, -8, -22, 20, -2, -8, 1, 42, 43, -6, -39, -52, 23, -25, 18, 9, 37, 9, -39, -18, -3, -17, 26, -26, -13, 15, 11, -25, -12, -50, -39, 15, -59, -17, 20, -39, -3, 9, -98, 26, 10, -56, 8, -22, -75, 19, 32, -99, -34, 6, -6, -3, -16, 62, -17, 13, -45, 52, -29, -56, 51, 10, 24, 59, -11, -89, 11, -28, -7, 37, 34, -13, -42, 33, 25, -8, -17, -33, 45, -20, -15, 19, 11, 24, -20, -68, -8, -22, -31, -8, 13, -18, -42, -2, 2, 33, -7},
  {-24, -3, 5, -14, -25, -4, 25, -38, -20, 37, -9, 5, 48, 12, -54, -48, -44, 15, 26, -7, -32, -48, 5, -14, 11, 13, 10, 26, -98, 18, -18, -46, 29, -15, -5, -8, 10, -30, -68, -2, -23, 25, 4, -14, -5, -53, -52, -10, -23, -24, -1, -38, 3, -18, -55, 19, -42, -34, -22, 4, 2, -16, -20, -4, 8, -19, -6, 3, 15, -9, 10, -37, -7, -13, 27, 52, -36, -21, -10, -23, 19, -3, -28, -59, 18, 14, 3, 41, 2, 23, 23, -22, -37, -25, -2, -20, 37, -45, 24, 27, -33, -6, -26, 7, -21, -25, -26, -32, 18, -12, 0, -14, 16, -41, 15, 18, 19, -6, 54, -22, 10, 20, -36, 26, 9, -5, -19, 30, 30, -11, 44, 23, -29, 2, 44, -38, -56, -17, -20, 54, 1, 23, -17, -17, -7, -3, 10, 0, 33, -44, -88, -37, -21, 5, 18, 8, 20, 16, -13, -8, 5, -2, -10, -14, -49, -26, -7, 3, -13, -4, -45, 13, 7, 19, 9},
  {-18, 21, 11, 39, -16, -21, 7, -19, -20, -20, -34, 26, 11, -45, -3, 0, -15, -34, 27, -6, -46, -75, -69, -9, 39, 34, 17, -54, 14, -59, -23, 10, 9, 2, -33, 12, -5, -48, 0, -14, -34, 28, 10, -45, 36, -7, -2, 2, -11, -56, -10, -56, 0, -29, -16, 35, 29, 13, -25, 6, -21, 6, 9, -28, -17, 10, 23, -13, -72, 23, -2, 5, 31, -21, 47, -11, 19, -9, -56, 53, -7, -28, -36, 3, -9, -45, -68, 2, -34, -3, -3, 6, -47, 26, 19, 9, 9, 33, -3, 10, 32, -25, 39, -22, -23, 13, 19, -11, -27, 11, 9, 25, -60, -39, -16, -27, -7, 13, -14, 22, 42, -39, -23, -27, 11, 3, -16, -9, -5, -22, 54, 51, -3, 36, 10, -71, -9, 35, -4, -22, -3, -2, 30, -21, -87, 4, 14, 19, -8, -5, 1, 5, 7, -63, 15, -9, -50, -15, 40, -22, -67, 30, -26, -9, 29, -35, -6, 31, 20, -38, -83, 1, -24, 7, -16},
  {-17, 4, 1, 24, -33, -17, -15, -10, -36, -22, -7, -42, -63, 41, -17, 31, -26, 5, -37, -18, 55, 12, -35, -18, 32, -22, 30, -28, 14, -24, -25, 10, -6, 27, 20, 14, -15, -37, 26, 19, 10, 17, -49, -32, 9, 16, 20, 44, -49, 7, 4, 5, 4, 47, 30, -3, -19, 29, -46, 9, 1, 24, 8, -27, 25, -39, 26, -21, -1, 13, -63, -2, -29, 17, -21, 7, -6, -2, 2, 29, -22, -33, -25, 19, 6, -12, -54, -18, -81, -8, -34, -4, -23, 40, 19, 17, 11, -45, 17, -40, -9, -6, 3, 16, -46, 34, 16, -18, 0, 11, -1, 16, -29, -12, 0, -76, -18, 32, -69, -1, 7, 29, -17, -14, 25, -12, -46, -33, -6, 18, -3, 1, 11, 1, -9, -56, 5, 4, 32, -30, -4, -10, 27, -14, -37, 24, 40, -11, -62, 34, -27, -58, -9, -44, -6, -98, -40, -73, -14, 17, -46, -8, -15, 21, -19, 2, 14, 21, 6, 44, 0, -19, -20, -33, 12},
  {-63, -27, -26, -1, 0, -3, -25, -24, -39, -4, 2, -23, -11, -39, -40, -5, 33, -14, -10, -11, 3, -8, -5, -1, -38, 38, -11, 18, 14, 2, 4, -14, -3, 9, 3, 24, 20, 14, 9, 14, -12, -51, -13, -15, 12, 0, 45, -5, 48, -20, 15, -29, 11, 9, 9, -8, 29, -27, -7, -16, -18, 2, -24, -15, -28, 6, -6, -34, 39, -23, -14, -26, 33, 36, -8, -5, 12, -13, -3, 26, -36, 18, 18, -55, -28, 28, -23, -27, -18, -31, 24, -35, -11, 8, -43, 5, -24, 17, -2, -20, 21, 2, 32, 23, 32, 1, 15, -38, 0, 26, 2, 32, -8, -33, 1, -56, -12, 17, 2, 19, -46, -4, 8, -2, -16, -33, 6, 3, -17, -35, -4, -40, -24, -38, -13, 24, 0, -3, -27, 2, 25, -2, 30, 32, -37, 2, 0, -8, 19, 1, 6, -23, -32, 14, 8, -30, -11, -36, 39, -65, 0, -17, 47, -12, 12, -33, -32, 2, -21, 31, 2, 3, -9, -19, -33},
  {15, -19, 2, 16, -74, -34, -21, 1, 19, -41, 4, 14, -33, -5, 31, -2, -6, 20, -49, -32, 18, -5, -27, 7, 15, -3, 58, -44, -12, -8, -30, -14, 3, 17, -19, -27, -50, 33, -28, 16, -3, 0, -57, -27, -21, -14, 5, 18, -33, -11, 5, -34, -18, -30, 11, 16, -6, -45, -11, 35, -47, 17, -38, -19, -11, 6, -1, 18, 32, 38, -4, 6, -57, -11, -46, -35, -48, -55, -88, 26, -56, 19, -14, 61, -28, -25, -13, 44, -58, 0, -1, 39, 15, -16, 8, 24, 44, 25, -6, -56, -23, -2, 69, -68, -29, 42, 10, -9, -47, 14, -23, -12, -38, 18, -3, -64, -14, 29, -35, -30, 5, 3, -11, -47, 39, -13, 27, 5, 21, 9, 15, 11, 4, 33, -35, -35, 26, 16, 68, -9, -25, 1, -25, -9, -62, 14, -16, 9, -13, -3, -19, -43, 34, 0, -2, -52, 15, 2, -12, 5, -28, 25, -25, -35, -68, -15, -20, -8, -17, 40, 3, -8, -25, -30, -50},
  {-5, 33, 35, -53, -40, 33, 15, -43, -58, 26, -47, -47, 24, -34, -14, 16, 18, -6, -10, -49, -50, -20, -25, -31, 4, 1, 32, 1, 37, -26, 19, -5, -53, 28, -39, 16, 17, 30, -27, -53, -87, 14, 9, -34, 19, 37, -13, 34, -46, 29, -16, -7, 19, -1, -71, -33, -11, -38, 24, 15, -70, -1, -7, 8, 10, -44, 22, -9, -76, -35, 35, -14, 5, 10, 15, 42, 16, 1, -11, 23, 1, -7, -19, 1, 35, 34, -48, -9, 12, -17, -20, -27, -33, 18, 32, 0, 9, 2, -90, 11, 6, 8, 18, 20, -43, -14, 20, -30, -17, -12, -34, -8, 37, -14, -16, -21, 4, 0, 14, -17, -23, -14, 4, 0, 25, 13, -24, -16, -49, 1, 14, 43, -52, -24, 20, -16, 26, -33, 10, 2, 33, -10, 16, -24, 17, 10, -11, 18, 47, 13, 21, -53, -4, -49, -30, -14, 4, -25, 4, 32, -25, 44, -25, -1, 34, -17, -28, 21, 28, -38, -33, 53, -10, -21, -27},
  {4, 30, -11, 14, 22, 33, 46, -4, 4, -12, -31, -29, 10, -6, -53, 18, 58, 32, -44, -7, 36, -22, 18, -46, -21, -35, 5, -10, -6, -24, -7, -12, 26, 41, -33, -13, -32, 27, -35, 4, 4, -9, -70, -28, 28, 27, -2, -14, -42, 1, -33, -17, 16, 9, -16, -48, -4, -52, 20, -1, 9, 5, -14, -50, 28, 29, 16, -18, -39, -6, -8, 2, 9, 55, -7, -28, -16, 1, -21, -42, 18, -22, 27, -62, -9, -23, -25, 23, 1, 26, -34, -42, -12, 6, -5, -49, -31, -22, -50, -56, 30, -12, -22, -27, 0, 29, 10, -44, 20, 0, -14, 8, 18, -15, 21, -12, -17, -1, -43, 50, 41, 6, -28, -27, -10, 4, 18, 14, -35, 5, -24, 15, -32, 6, -28, -36, 8, 30, 18, 2, -8, -14, -26, -21, -9, -27, 36, 61, -17, -29, -4, -4, -22, 68, 9, -10, -41, -33, 41, 7, 7, 34, 0, -39, 23, 5, 6, 20, 23, -23, -54, -42, -20, -4, -18},
  {-40, -79, 26, 8, 45, 9, -35, -17, -12, 35, -25, 27, 15, -19, 2, -5, -48, -64, 44, -2, -9, -37, -5, -42, 12, 49, 4, -19, 26, -68, -29, 13, 17, -5, -7, -26, 3, 17, -14, 8, 23, -6, 5, -20, 1, 28, -70, -16, 26, -22, 7, -14, -17, -27, 10, 21, -25, 56, 5, -26, -48, -13, -37, 40, 21, -37, 5, 1, -28, 4, 1, -10, 11, 21, -44, -35, 1, -9, 25, -19, 22, 24, -43, -7, 13, -35, -12, 25, 18, 30, -2, -16, -16, -14, -9, -22, 5, -36, 9, 15, 8, 15, 14, -11, -3, 32, -49, 62, -31, -25, -8, 20, 11, -17, -18, 6, -19, 13, -7, 3, -48, -17, 14, -39, -35, 13, 37, -63, -6, 10, -21, -23, 42, -28, 15, -47, -7, -64, -44, -12, 19, -20, 25, -19, -5, 46, -12, -17, 22, -32, -26, -30, -9, 17, -4, -3, -44, 28, -49, -50, 3, -2, 27, -18, 4, -10, -33, 18, 27, -48, -22, -16, 19, -19, -30},
  {-40, -18, -32, -14, -8, 3, 12, -45, -16, -15, -76, 17, -5, -28, -10, 14, -2, 30, -23, -8, 6, 14, 7, -25, -69, -11, 34, 51, 38, 8, -55, -27, -3, -18, -21, -57, 17, -21, -4, -16, -13, -78, 2, 2, 3, 25, 23, 29, -4, -7, 47, 3, 28, -1, 9, -12, 24, -3, -12, -9, -55, -48, 6, 3, 7, -2, -1, -3, 35, -38, -10, -18, 9, 41, 17, -20, 2, -60, -6, 30, 21, -2, 23, -43, 24, -7, -82, 31, 44, -53, -78, 36, -61, 3, 15, -37, -2, -27, -19, 2, -29, -29, -67, 30, -6, -18, -17, -10, 5, -10, 31, 6, 26, -20, -21, 22, -31, -31, -19, 23, -6, 5, -9, -4, -60, 3, -26, -2, 43, 14, -6, -14, -22, 32, -26, -11, -48, -9, -68, -25, -23, -45, -4, 23, -26, -3, -16, 25, -15, -57, -8, -14, -55, -5, -25, 1, -28, -15, 28, -25, 9, -6, 72, 51, 17, -15, -33, 7, -13, 21, -64, 19, 52, -26, 22},
  {11, 11, 12, 3, 28, -10, -28, -10, -42, 8, 0, 38, -10, -16, 5, -48, -21, -69, -83, 19, 17, -38, 17, 15, 11, -43, -60, 32, 10, -14, -21, -34, 16, -2, -3, -11, -2, -1, -62, 14, 23, -35, -49, -6, -39, 23, -73, 20, 6, 24, 20, 20, -3, 10, -16, -20, 5, -8, 28, -32, 40, -10, -23, 20, 0, 6, 33, 14, 2, 9, -2, 4, -57, 3, -52, -7, -10, -12, -16, -15, -34, -5, 2, 3, 41, 9, -23, -21, -42, -6, 10, 13, -35, -4, -26, 5, -21, 25, 5, 11, -1, -13, -26, -31, -1, 21, -25, -19, 4, -28, 40, 39, 23, 37, 11, 31, 56, -23, 66, -22, 62, 98, -22, -9, -5, 1, -4, -8, -5, 4, 30, -48, -12, 25, -34, -13, 10, 14, -66, -4, 5, -11, 40, 30, -22, 21, -11, -61, -20, -32, -34, 50, -24, -8, -4, 19, -9, -52, 26, -27, -35, -35, 25, -17, -68, -1, -60, -12, 21, 32, -17, 2, -10, -47, 56},
  {-32, -2, -53, -1, 6, -28, -39, 55, 14, -67, -51, -41, -19, -6, -6, 14, 7, 54, -18, 0, 40, -29, 6, -12, 1, -34, -52, 4, 14, -12, 36, -17, -45, -16, -23, 17, -6, 27, 66, 24, 30, -30, -32, 3, -37, -26, 6, -6, 12, 3, -34, 11, -35, 10, 13, 3, 9, -18, -23, -16, -21, -3, -4, -4, -4, -28, -15, -28, -13, 40, -1, 14, -32, -21, -11, -22, -37, -30, -2, -21, 5, -11, 14, -1, 14, 7, 36, -18, -36, 65, -14, 10, -19, 3, 0, -9, 15, -26, 3, -43, -51, 24, -54, -21, -5, -47, 16, -37, -22, 4, 30, 4, -5, -5, -3, -33, 6, -15, -36, -14, -10, -5, -23, -36, -3, 20, -34, -36, 6, -14, -55, -4, -13, -39, -5, -20, 31, -20, -29, -21, -3, -12, 36, 27, 11, -18, -42, -39, 0, -27, 2, -14, 52, -11, 9, -12, -12, -27, -34, 16, -1, -21, -22, -20, -30, 9, -7, -58, -31, -4, 57, -35, -14, -19, 6},
  {1, -24, -13, 10, 11, -6, 7, -5, 17, 40, 5, -35, 2, 44, -19, -58, -13, 2, 13, 16, -1, 7, -40, 52, 0, 24, 21, 15, -102, -49, -10, -51, 50, -62, -11, -39, 11, -24, -41, -2, -6, -3, -14, -13, 4, -27, -65, -13, 21, -30, 1, -31, -4, 1, 1, 19, -28, -29, -18, -11, -21, 4, -44, -6, 0, -32, -47, 7, 5, 14, -11, -2, -19, -48, 16, -26, -16, -34, 1, -60, -18, 3, 11, -12, 3, -8, -33, -11, 25, 27, 14, -15, -17, -51, -27, 7, 31, -10, 36, -14, -70, -20, 1, -7, -3, -68, -33, -17, 23, -33, 46, 13, 34, -6, -22, -32, 48, -5, -7, -3, -25, 7, -33, 33, -41, 22, -12, -27, 12, -7, 9, -62, -48, -9, 13, -28, -14, -2, 23, 3, -13, -3, -18, -5, 20, 13, 51, -41, 16, -8, -74, -46, -31, 18, -13, -8, 27, 2, -15, -28, 29, -33, -31, -22, -40, -45, -78, -8, 12, -6, -54, -25, 11, 7, -10},
  {24, -1, -7, 19, -38, 25, -76, 7, -1, -20, -3, -31, -68, 35, -52, -11, -13, -12, 21, -9, 1, -15, 6, 8, -44, 6, -50, -47, 12, -1, -3, -30, 12, -2, 29, -43, -3, -35, -34, 19, -48, -33, 22, -48, -27, -38, 10, -33, -42, 29, -39, -3, -44, 37, 3, -22, -20, -9, -21, -63, -5, -13, -59, -14, 3, 30, 32, 6, 15, -10, -3, -3, 18, 25, 10, -19, -61, 12, 1, 12, -77, -37, 1, 13, -26, 48, 18, -27, -41, -44, -10, -6, -31, 35, 12, -7, -14, -15, -16, 4, -2, -16, -28, 4, -26, -72, -34, -62, -3, 29, -23, -19, -2, 0, -12, 42, 28, 19, -4, 0, 3, -33, -16, 13, 6, -8, -33, 36, 53, -46, -37, 3, -16, -43, -7, -19, 4, -23, 23, 47, -39, 12, 1, -20, 31, -37, -30, -14, -5, 11, 18, -31, 51, -22, 23, -2, -14, -49, -6, -21, 23, -22, -31, -2, 16, 34, -35, 3, -36, -62, 10, 13, -5, -59, -24},
  {9, 26, -40, 3, 9, -36, -20, -15, -63, -11, -72, -30, -4, -8, 37, -30, -21, 31, -82, -33, 6, 29, -13, 4, 64, 34, -22, 1, -57, -7, 5, -41, -8, 26, 10, -9, 35, -36, 13, 28, -3, -20, -3, 47, -56, -4, -20, -14, 16, -11, -48, 46, 19, -22, -24, -50, 24, -40, 39, 11, 46, -27, 26, 5, -11, -15, -8, 11, -44, 61, -36, 19, -4, -24, -16, 14, -82, 8, -9, -2, -23, -4, 49, -23, 2, -9, 25, -25, -35, 7, 12, 13, -52, 15, -23, -52, -25, 1, -5, -14, 5, -13, 12, 15, -18, -15, 6, -11, -24, 40, 9, 19, 22, 46, -33, 33, -31, -33, 27, -22, 14, 12, 5, -11, -1, -29, 12, 20, 1, 5, 2, -12, -19, -15, -35, -41, 29, -25, -7, -36, 12, 60, -13, 18, 7, -28, 14, -2, -18, -28, 6, -32, 46, 5, 22, 21, -4, -45, -6, -28, -4, 21, -34, -48, -62, -3, -7, -36, -60, 26, 28, -3, -5, -5, 68},
  {-26, 45, -15, -13, -40, -15, -24, 30, 18, -6, -14, -33, -37, -34, 21, -3, 27, 22, 28, -47, -3, -15, -47, -14, 31, -11, -6, -21, -10, -28, 5, 17, -55, 32, -7, -18, -1, 23, 18, 2, -45, 4, 12, -14, -7, -14, 9, 6, -35, -44, 4, -33, -25, -5, -8, -45, -14, -59, 18, 18, -54, -1, 47, -4, 35, 2, -27, 36, -20, 9, 40, -32, -11, -2, -15, 34, 29, 15, -31, 7, -5, 24, -33, 22, 16, -17, 30, 0, -29, 14, 8, -13, 18, 6, 38, 25, -28, 24, -17, -9, 21, 3, 22, -29, 8, 10, 45, -9, -17, 16, -59, -38, -2, 6, 28, 13, -19, -16, -11, -58, 9, -2, -24, -31, 41, -66, 28, 21, -3, -33, -14, 33, 8, 12, -47, -7, 26, -20, 21, -27, 9, 26, -61, -80, -18, 9, -24, 4, 9, 12, -28, 0, 65, -5, -1, -25, 10, 22, -42, 38, -27, 18, -83, -6, -19, -4, -18, 19, 12, -13, -5, 30, -19, 25, -19},
  {30, 27, -7, -54, 40, 3, -24, -10, 18, -8, -6, -9, 7, 28, -16, 11, -22, 3, -46, 10, 4, 37, 41, 13, -20, 13, -28, -24, -10, -12, -43, -7, 1, -21, -19, -30, 11, -33, -28, 13, -31, 24, 8, -72, -26, -37, -6, -43, -17, -18, 1, -5, -28, -11, -7, 10, -2, -5, -5, 13, 17, -10, 24, -8, -28, -4, -24, -3, 30, 41, 11, 6, -25, -5, 8, -30, -67, 13, 1, -55, -44, 15, 17, -10, -9, -4, -1, -26, -1, -61, 43, -25, -52, -12, 5, -16, 1, 18, 39, -4, -30, 8, -35, -29, -6, -11, -13, -6, -5, -9, -14, 7, 8, -26, -1, -11, -13, -18, -16, -31, -27, 21, -19, -13, -45, 19, 9, -6, -32, -5, -15, -25, -33, -20, -32, 15, 1, 14, -46, -8, -3, 10, -15, -17, -34, -20, -44, 12, 2, -8, -29, 10, 0, -5, 37, -25, -30, -28, 18, -15, 11, -27, -21, -1, -16, -16, -42, 30, 10, -40, 0, 20, -49, 15, -15},
  {-14, 23, -6, 26, -22, 16, 15, -47, 4, -20, -22, 5, 23, -20, -14, -36, 18, 14, -2, -33, 23, -9, 56, -17, -3, 3, -5, 0, 21, -38, 11, -9, -7, 25, 13, -37, -36, -15, -28, 29, -4, -4, -21, 7, 5, 9, -22, 18, -1, -26, -11, -18, -12, -18, -98, 32, 2, -48, 36, -45, -16, -14, -9, -5, 16, -4, 44, -47, -20, 11, 60, 12, -73, 2, 1, 11, 10, 3, -18, -12, 12, -27, 13, -18, 6, -17, 5, 48, -15, 13, 9, 13, -27, 37, -33, -31, -19, 28, -46, -22, -20, -7, 4, -14, 29, -12, 27, -4, -13, -15, -37, 7, -53, -32, -22, 6, -10, 5, -10, 42, -11, -47, -31, 14, -2, 22, 11, -5, 3, -4, 13, 1, -37, 9, -38, -45, -54, 3, 8, -53, -16, 5, -25, -26, -38, -32, -8, 21, 27, 11, 9, 38, -16, -2, 23, 19, -82, -11, 38, 12, -3, 19, 42, 55, 26, -18, -5, -18, -36, 23, -28, -56, 0, 18, -36},
  {-23, -27, 11, 2, -23, 28, -10, -10, -13, -13, -6, -43, 21, -25, -18, 9, 13, 14, 0, 40, -32, 21, -22, -5, 9, -29, 8, -4, -29, -15, 3, 11, -15, 3, -3, 19, -24, -13, 3, -41, -32, -22, -9, 11, -30, -23, 15, -23, -20, 27, -29, 11, -3, 7, 4, -17, -10, 33, -10, 15, -38, 18, -15, -20, 17, -11, 15, -4, 14, -31, 28, -3, -6, 0, -6, 18, 52, 4, -33, -11, -41, -3, 14, 8, 57, -15, -2, 21, -38, -5, 7, 14, -15, 1, 25, 23, -11, -16, -17, -21, -18, -26, -8, -16, -4, -2, 8, -23, -17, 19, -4, -26, 18, -13, -12, -8, 8, 0, -51, 8, 26, 6, -13, 11, 13, 9, -45, 10, -27, -39, 20, -39, -37, -20, 5, 24, -20, -1, -22, 3, -3, -31, -12, 5, 10, -33, -20, 12, -2, 4, -5, -3, -18, 2, 9, -17, -20, -14, -3, 27, 6, -17, -7, 23, -46, 29, 6, 11, -20, 40, 11, -38, 35, -46, -5},
  {10, 1, -3, -6, -9, -39, -12, -13, -16, -2, -37, -40, -9, -2, -44, 4, 12, -3, 7, -44, -7, -31, -21, -24, 6, -60, -19, -16, 10, 31, -40, -13, -13, 18, -1, -58, -22, -3, 0, 16, -16, -13, -43, 2, -22, 38, 33, -58, -122, 40, 10, -23, -13, 8, -17, -63, -2, -28, -38, -8, 19, -29, -23, -26, -49, -9, -13, -3, 2, -63, 20, -35, 22, 3, 19, -16, -4, 39, -18, 32, -35, -46, -4, -42, -18, -20, 22, -50, 9, -20, -29, -24, 32, 41, -5, -47, 8, -44, -49, 51, -6, -28, -36, -8, 25, -8, -7, -12, 20, 13, -11, -63, -12, 8, -15, 16, -9, 34, -37, -80, -6, -45, -12, -7, 8, 4, 13, 9, 13, -32, 19, 15, -20, -26, 13, 45, -17, -8, 37, -36, -13, 32, -20, -4, 30, -59, -13, 25, -51, 22, 34, -59, -15, -22, -2, -4, -3, 33, -58, 22, 6, -15, -16, -31, 12, -17, 32, 27, -18, 16, 42, 2, 5, 8, -19},
  {-56, -40, -17, -4, -13, -16, -14, -13, -11, -33, -39, -44, -6, -18, -18, 30, -37, 37, 49, -3, 11, -52, -5, -32, 9, -3, 22, -33, -8, -10, -3, 10, 15, 8, -30, 3, 15, 37, 44, 29, -10, 6, 31, -9, 31, 12, 6, -12, 14, -1, -1, 24, -31, 5, 3, -32, -6, 36, -27, 4, 22, 37, -19, -17, 19, -8, -19, -28, 8, 40, -40, 3, -35, 12, -33, -24, -4, -24, -1, 31, -12, 20, 0, 16, -35, -29, -10, -3, 25, 5, 6, -8, -34, -71, -10, -10, 16, 14, 7, -5, 14, -31, 20, 0, -51, -30, 6, 29, 19, -11, 19, 5, 2, 34, -17, 27, 4, 49, 32, -8, -10, 9, -9, -10, -37, -28, 1, -44, -5, -1, -43, -17, -3, -37, -17, -13, -2, -24, -10, -30, -4, 3, -3, 18, 2, 5, -41, -9, -35, -6, -12, 9, -7, 26, 3, -38, -46, 15, 4, -15, 14, 9, -28, 5, 7, 11, -8, 32, -21, -21, -4, -30, -35, -8, 12},
  {32, 11, -25, -29, -12, -36, -16, 4, -42, -8, 28, -10, 30, -2, -12, -11, -5, 35, -29, 4, -16, 7, 22, 15, -33, 25, -4, -39, -10, -8, -21, -45, 5, -40, -4, -10, -10, -10, -42, -2, -24, -109, -11, -13, 16, -33, -19, -28, 25, -40, 34, -22, -14, 42, 22, 46, -42, -5, -42, -60, 1, 29, -13, -8, 25, 24, -26, 19, 5, 5, -5, -1, -22, -22, -36, -11, -1, -16, 4, 11, -44, -51, 29, 5, -10, 8, -31, 2, -28, -11, -38, -7, -7, -9, -3, 20, -1, -37, 8, 25, 2, -18, 2, -13, 11, -13, -34, -43, 63, -30, 3, -18, -60, -19, -19, -10, 47, 0, -8, -26, -31, -39, -5, 13, -29, 26, -39, -21, 19, -21, -36, -4, -27, 18, 12, -50, -10, 39, -5, -20, -20, -33, -26, -17, 0, 10, -10, -37, 20, -28, -26, 4, -48, 43, -22, 3, -30, -50, 16, -26, 5, -39, 19, -6, 8, 9, -27, -31, 36, 16, 3, -25, 1, -66, -6},
  {-28, -7, 7, -30, 31, -22, -42, -18, 36, 54, 20, -5, 18, -15, 11, 25, -17, -30, 9, -33, 31, -8, 26, 17, 36, 20, -2, -1, -4, -23, -35, -18, 24, -40, -4, 35, -1, 25, -30, -1, 31, -1, -9, -26, 0, -2, -38, -13, -6, 35, -30, -7, -40, -33, -48, 10, -10, -16, -34, -2, -52, -15, -17, 25, -26, -19, -21, -31, 26, 7, 5, -14, -54, 16, -16, -36, -41, 27, 22, -35, 0, 7, -11, 43, 22, -40, 22, 6, -3, -2, -15, -89, 4, -37, -30, 49, -27, -16, -25, -17, 12, 6, -5, 2, -21, 19, 15, 9, 5, -15, -7, 0, 25, 3, -11, -2, -5, -57, 8, -18, -30, 22, -3, -4, 5, 37, 26, -49, -4, -17, -55, -25, -47, -42, -13, 5, 22, 40, -10, -31, 66, -23, 27, 18, -7, 3, -28, -46, 15, 2, 15, 40, -21, 17, -15, -1, -25, -25, 7, -7, -15, -2, -26, -11, 6, -5, -30, 17, 10, 11, -21, -12, 1, 14, -42},
  {7, 19, -3, 1, -57, -2, 0, 15, -8, 15, 5, -43, -27, 16, 6, -53, 4, 3, -45, -11, 37, 21, 24, -6, -41, -36, -24, -7, -27, 4, 30, 1, 58, 3, -9, 0, -16, 10, -4, 7, -30, -20, 6, -13, 15, -36, -25, -32, -4, -1, -7, 16, -15, -17, 23, -46, -13, -21, -1, -50, -1, -23, -24, 8, 14, 25, -5, -6, 13, 8, -7, -13, 0, -29, -1, -4, -38, 13, -14, -24, -6, -40, 26, 35, 17, -7, 38, -13, -6, -49, -10, -38, -21, 17, -3, 41, -8, -44, -14, 36, -9, -7, -39, -10, 19, 6, 2, -28, 18, -10, -5, 2, 36, -4, -4, 8, 31, -16, -36, -19, 23, -18, 44, -6, 8, 39, -11, 15, -14, -7, -25, -23, 41, -21, -21, -7, -19, -23, 1, -5, -6, 3, -16, -2, 18, 22, -26, -27, -14, -7, -18, -65, 0, 34, -3, 2, -2, -6, -30, -43, -6, 10, -21, -17, 39, 11, -19, 24, -3, -6, -6, -2, 1, -32, 1},
  {-2, 10, -25, -6, -30, 50, -13, 5, -24, 5, -18, -15, -31, -2, -35, -4, -17, -26, -18, 16, 4, -14, -26, -5, -9, 31, 14, -8, 16, -21, 19, -2, 3, -25, -20, -5, 10, -20, -10, 35, -11, -25, -20, -32, -26, -37, 8, 26, 0, -31, -48, 31, -12, -10, 1, 4, 25, 64, -34, 3, 25, -9, 15, -45, -14, -36, 35, 14, 26, 42, -28, 16, -17, 31, -11, 1, 10, -4, 14, -25, -24, -30, 32, -38, 1, -18, 21, 15, -20, 1, -1, 43, 21, -8, 6, 12, -14, 13, 3, -4, 12, 10, 22, 2, -7, 5, 12, -16, -5, 16, 1, 48, 25, 22, -8, -13, 7, -13, -20, 32, 1, 5, 6, 5, 26, -22, -36, 15, -32, 0, -11, -37, -8, -2, -26, -24, -21, -9, 41, -8, -38, 38, 11, -33, -30, -22, 20, -23, -9, -26, 1, 20, 3, 7, -16, 29, -4, -51, 47, -34, 4, -10, 9, 17, 16, -28, 16, 9, -16, 36, 27, -18, 21, -27, 12},
  {-7, 4, 4, -1, 15, 18, 2, 10, -24, 3, 6, 10, -11, -13, -16, 6, -11, 4, 10, 6, 25, 5, -3, 23, -3, 3, 7, 5, 33, -21, -33, -18, -5, 7, 18, 13, -3, 5, -21, -9, 9, 8, -7, -9, -20, -31, -16, -45, 0, -15, 15, -9, -21, 15, 4, 12, -9, -16, -3, 42, -6, 6, 2, 10, -5, 16, -24, 32, -12, -19, -32, 1, -2, -6, -40, 6, 3, -12, -14, 3, 1, -14, -4, 13, -21, 17, -13, 7, 8, -3, -6, -3, -16, 22, -4, 19, -23, 1, -23, 10, -3, -12, -11, -1, -1, -15, 17, 7, 30, -9, -18, -16, 9, 13, -1, -28, 12, 0, 6, -8, 18, 8, -9, -21, -7, -12, -14, 5, -8, -3, 10, -28, 6, -15, -10, -2, 17, 21, 16, -16, -5, 9, 12, -7, -12, 12, 6, 3, 15, 11, -1, 8, -9, -9, -10, -16, -13, -3, -16, 19, 1, 9, -11, -4, 26, -3, -23, -11, 0, 14, -27, 11, -5, 22, 4},
  {-13, -17, -48, -14, 1, -27, 0, -31, -1, -30, -37, -5, 27, -32, 10, -28, 11, -13, -3, -4, -6, -23, 32, -5, -16, -24, -28, -9, -39, 3, -18, -16, 14, -1, 10, -20, 1, 27, 24, -36, -11, -34, -27, -4, -51, -11, -7, 6, -2, -7, 7, -1, 11, -16, 2, 18, -1, -21, 23, -20, -4, -6, -56, 50, 30, -15, 21, -31, 7, 16, -5, 37, -38, 5, 12, 11, -19, 12, -17, 13, 2, -4, 11, -47, 10, -7, -1, 6, 19, -20, -7, -13, -37, 9, 35, -8, -12, -37, 18, 5, -5, -20, -8, -1, -1, -18, -1, 3, -27, 18, 7, 12, 0, -14, -1, -1, 11, -3, -3, 7, 1, -3, -19, 15, 1, -8, -27, 15, -43, -36, 44, -19, -2, 7, -37, 3, -47, 12, 13, 7, 12, 14, -20, 23, -3, -12, -12, -24, 57, -4, -18, -28, -12, 11, -1, -3, 14, 1, -35, -1, -13, 8, 38, 5, -22, 6, -8, -14, -19, -45, -25, 27, 14, 21, -15},
  {-7, -25, -41, -4, 18, -6, -12, -31, -19, -47, -14, 31, 8, -30, -9, -23, 21, -4, 22, 24, 1, -10, -29, 7, 13, -18, 24, -20, -18, -25, -50, -57, -10, 39, -21, 44, -37, 40, 6, 21, -11, 40, 31, -10, 15, -16, 20, -9, 19, -1, -2, -10, -16, -14, 19, 9, 24, 29, -4, -40, -4, 6, -9, -53, 57, -26, 52, 16, -2, 45, -24, 11, 17, -34, -44, -28, 19, -37, -52, 28, -27, -40, 17, -33, -58, -4, 3, 3, -24, 13, -2, 7, -39, -29, -13, -8, -37, 42, -19, -26, 3, -34, 5, -16, -44, 19, -53, -9, -29, 1, 53, 27, 0, 24, -6, 8, 35, 20, 41, 8, 7, 24, 17, -47, -7, 36, -50, -3, 30, 14, -3, -12, 10, 8, 25, -40, 23, -50, 3, 3, 21, -39, -23, -16, -39, 31, 15, 24, 13, 10, -64, -13, 15, -20, -16, 8, -12, -11, 53, -8, -33, 49, 8, -26, -33, -54, 19, -26, 24, 12, -28, 15, -63, -52, 15},
  {-14, 16, 20, 29, -36, -25, -56, 5, 26, 22, -30, -48, -9, 49, 9, -13, 9, -8, -12, -34, 3, -14, -48, -29, 43, 13, -31, 2, -19, 4, -3, 3, -34, -30, 16, -16, -27, 48, -12, -11, -61, -34, 3, 15, -6, 17, 5, -63, -20, -41, 23, -34, -6, -20, 9, -31, 13, -31, 13, -42, -38, 7, -29, 4, 15, -10, 21, -15, -32, -47, -12, -2, -22, -4, 0, 32, 21, -7, -8, 35, 21, -12, -8, -24, 14, -1, 39, -19, 3, 0, -9, -2, 39, -13, 24, 7, -2, -38, 43, -9, 32, -16, -8, 2, -3, -63, -61, -53, -21, 5, -62, -38, -75, -1, -8, 9, -35, -14, -12, -79, -3, -9, -1, -7, 38, -22, 22, 20, -31, -2, -35, 12, -28, 27, -3, 13, -8, -21, -1, 12, 40, 39, -8, -30, 18, 12, -2, 36, -11, -24, -22, -51, 0, -1, -23, -12, -6, -9, -36, 19, -37, -23, -22, -46, 1, -8, -13, 11, -19, -22, 14, -18, 30, 35, -27},
