// This file is computer-generated by onnx2c 
// (TODO: add creating command line here)
// (TODO: print creation date here )

// ONNX model:
// produced by onnx.quantize, version 0.1.0
// ONNX IR version: 14
// Model documentation: 
/*

*/

#include <float.h>
#include <math.h>
#include <stdbool.h>
#include <stdint.h>
#include <string.h>
#define MAX(X,Y) ( X > Y ? X : Y)
#define MIN(X,Y) ( X < Y ? X : Y)
#define CLIP(X,L) ( MAX(MIN(X,L), -L) )

static const float tensor_0_bias[150] = 
{-0.12108324468135833740f, 0.14142926037311553955f, -0.37770015001296997070f, 0.082700021564960479736f, -0.037496443837881088257f, -0.26011639833450317383f, -0.060589015483856201172f, -0.020357931032776832581f, 0.15667279064655303955f, -0.076784841716289520264f, -0.33276873826980590820f, -0.10849395394325256348f, 0.043503377586603164673f, -0.22839757800102233887f, 0.069709233939647674561f, -0.21534514427185058594f, -0.047578074038028717041f, 0.055368881672620773315f, 0.096179187297821044922f, 0.013116593472659587860f, -0.19326235353946685791f, -0.15639308094978332520f, -0.023714877665042877197f, -0.19749319553375244141f, -0.0066780331544578075409f, 0.084342062473297119141f, -0.22751054167747497559f, -0.39536425471305847168f, 0.30728420615196228027f, -0.12295184284448623657f, -0.058670591562986373901f, -0.086003646254539489746f, 0.032558172941207885742f, 0.034663945436477661133f, -0.099718488752841949463f, -0.073778659105300903320f, -0.032923601567745208740f, 0.079345211386680603027f, 0.038457095623016357422f, -0.33575394749641418457f, 0.18565300107002258301f, -0.13058829307556152344f, -0.019350323826074600220f, 0.13639134168624877930f, 0.041493870317935943604f, -0.084863319993019104004f, -0.32736253738403320312f, -0.059029825031757354736f, 0.11920033395290374756f, 0.022120211273431777954f, -0.14863947033882141113f, 0.18011744320392608643f, -0.24668395519256591797f, 0.34578910470008850098f, 0.18104159832000732422f, -0.48016136884689331055f, 0.096600703895092010498f, -0.025180388242006301880f, 0.24412310123443603516f, -0.068162828683853149414f, -0.40857526659965515137f, 0.087546236813068389893f, -0.25809028744697570801f, -0.20807936787605285645f, -0.053903274238109588623f, 0.30888980627059936523f, -0.15331651270389556885f, -0.072219125926494598389f, 0.073865517973899841309f, 0.13155911862850189209f, 0.19331176578998565674f, -0.0077699436806142330170f, 0.27654710412025451660f, 0.087118722498416900635f, 0.25189036130905151367f, -0.20783390104770660400f, -0.20420527458190917969f, -0.13414117693901062012f, -0.048784784972667694092f, 0.051288533955812454224f, 0.099679566919803619385f, -0.16169941425323486328f, -0.23171946406364440918f, 0.027721488848328590393f, -0.29928830265998840332f, -0.090391136705875396729f, 0.088540799915790557861f, -0.38437601923942565918f, -0.26256543397903442383f, -0.19526129961013793945f, -0.063046291470527648926f, 0.12660212814807891846f, 0.32615852355957031250f, 0.084903657436370849609f, 0.028690243139863014221f, -0.32276663184165954590f, -0.33027735352516174316f, -0.24031905829906463623f, -0.0061717377975583076477f, -0.33401489257812500000f, -0.089367635548114776611f, 0.12482059746980667114f, 0.021747380495071411133f, -0.43557870388031005859f, 0.17195744812488555908f, -0.23002819716930389404f, -0.31756660342216491699f, -0.20098885893821716309f, -0.0061262915842235088348f, 0.11156290024518966675f, -0.014491307549178600311f, -0.031902320683002471924f, 0.12447272986173629761f, -0.033877395093441009521f, 0.12403144687414169312f, -0.13169272243976593018f, 0.13357335329055786133f, 0.026405781507492065430f, -0.015864945948123931885f, 0.072478063404560089111f, 0.069843225181102752686f, -0.40158015489578247070f, -0.083524681627750396729f, -0.11601962149143218994f, 0.035245135426521301270f, -0.44763764739036560059f, -0.30221870541572570801f, -0.35516101121902465820f, 0.040436409413814544678f, 0.12014219164848327637f, -0.25272899866104125977f, 0.21155075728893280029f, -0.084115669131278991699f, -0.36467638611793518066f, -0.0099642258137464523315f, -0.11077757179737091064f, -0.22638802230358123779f, -0.43560880422592163086f, -0.27159225940704345703f, 0.042277302592992782593f, -0.17138367891311645508f, -0.11238144338130950928f, 0.15193539857864379883f, 0.0031955693848431110382f, -0.19613361358642578125f, -0.14191083610057830811f, 0.10602218657732009888f, 0.011087873950600624084f, 0.093256816267967224121f, -0.34026986360549926758f};
static const float tensor_2_bias[150] = 
{0.17062698304653167725f, -0.046138171106576919556f, -0.088766403496265411377f, 0.17785350978374481201f, 0.10982803255319595337f, -0.085802771151065826416f, -0.10218235850334167480f, 0.16466115415096282959f, 0.38518953323364257812f, 0.19466806948184967041f, -0.066896356642246246338f, 0.040502127259969711304f, -0.12984821200370788574f, 0.33329614996910095215f, 0.16931669414043426514f, -0.17291392385959625244f, -0.27159830927848815918f, -0.16560670733451843262f, 0.12676207721233367920f, -0.027449565008282661438f, -0.13206031918525695801f, 0.24986378848552703857f, 0.25892072916030883789f, 0.066839791834354400635f, -0.21496814489364624023f, 0.095712371170520782471f, -0.10171061754226684570f, -0.031696058809757232666f, -0.012468430213630199432f, -0.29970139265060424805f, -0.060889750719070434570f, -0.22863341867923736572f, 0.031357921659946441650f, -0.30373644828796386719f, -0.11145281046628952026f, 0.21251888573169708252f, 0.19851671159267425537f, 0.032530050724744796753f, 0.088479615747928619385f, 0.26289466023445129395f, -0.010510561056435108185f, 0.085579834878444671631f, -0.00013752005179412662983f, 0.21540991961956024170f, -0.25085031986236572266f, -0.054279461503028869629f, -0.023225072771310806274f, 0.044720567762851715088f, 0.057932469993829727173f, -0.29950946569442749023f, 0.23312060534954071045f, -0.19454135000705718994f, 0.16638672351837158203f, -0.15034379065036773682f, -0.20754075050354003906f, 0.39331349730491638184f, 0.39275768399238586426f, 0.16360333561897277832f, 0.021129680797457695007f, 0.044114209711551666260f, -0.18194404244422912598f, 0.16969940066337585449f, 0.059828959405422210693f, 0.052303925156593322754f, -0.070596806704998016357f, -0.089259378612041473389f, -0.36667481064796447754f, 0.15151716768741607666f, 0.29914912581443786621f, -0.25951483845710754395f, 0.18598231673240661621f, 0.13865920901298522949f, 0.38244152069091796875f, 0.050745341926813125610f, -0.15344296395778656006f, -0.049118105322122573853f, 0.32613840699195861816f, -0.081812411546707153320f, 0.018614079803228378296f, -0.16109642386436462402f, -0.23635342717170715332f, 0.10603771358728408813f, 0.20490050315856933594f, 0.041263379156589508057f, -0.62498354911804199219f, -0.17019928991794586182f, 0.027371285483241081238f, -0.22691689431667327881f, -0.029504317790269851685f, -0.087136328220367431641f, -0.30408769845962524414f, -0.079648494720458984375f, -0.055186625570058822632f, -0.027919271960854530334f, -0.24906231462955474854f, 0.055628683418035507202f, 0.25800266861915588379f, -0.096736446022987365723f, 0.28502121567726135254f, -0.29740568995475769043f, 0.014792229048907756805f, 0.20397888123989105225f, 0.20222038030624389648f, -0.28410476446151733398f, 0.16427847743034362793f, -0.16730611026287078857f, 0.038801662623882293701f, -0.082788862287998199463f, -0.17871393263339996338f, 0.087825641036033630371f, 0.059328660368919372559f, -0.059065461158752441406f, -0.049677155911922454834f, -0.0066038072109222412109f, -0.064783453941345214844f, 0.16126452386379241943f, 0.14108455181121826172f, 0.21656088531017303467f, -0.036668173968791961670f, -0.046556375920772552490f, -0.086688615381717681885f, 0.026866346597671508789f, -0.048681098967790603638f, 0.54822206497192382812f, -0.17229373753070831299f, 0.19807557761669158936f, 0.30360218882560729980f, 0.11463245749473571777f, -0.13241048157215118408f, 0.092843137681484222412f, 0.020762346684932708740f, -0.42831182479858398438f, 0.16182613372802734375f, 0.11077203601598739624f, 0.095635250210762023926f, -0.38562077283859252930f, -0.070084951817989349365f, -0.021533498540520668030f, 0.19508522748947143555f, -0.13741490244865417480f, -0.60881495475769042969f, -0.13111349940299987793f, -0.24113824963569641113f, 0.047491036355495452881f, -0.17402382194995880127f, -0.28810521960258483887f, -0.28550514578819274902f, 0.18634495139122009277f, 0.0039251525886356830597f, 0.38352289795875549316f};
static const float tensor_4_bias[150] = 
{0.051329873502254486084f, 0.21932175755500793457f, 0.17524066567420959473f, 0.14506474137306213379f, 0.34471458196640014648f, 0.20062911510467529297f, 0.028502428904175758362f, 0.14826810359954833984f, -0.048080306500196456909f, 0.12475802749395370483f, -0.067358486354351043701f, -0.0036182079929858446121f, 0.12388441711664199829f, 0.070671975612640380859f, -0.014578117989003658295f, -0.036016430705785751343f, 0.085823282599449157715f, 0.032897789031267166138f, -0.27737173438072204590f, 0.10289341211318969727f, 0.17271560430526733398f, 0.11550702154636383057f, -0.11608164757490158081f, -0.085174709558486938477f, 0.052451014518737792969f, 0.23092277348041534424f, 0.026201702654361724854f, 0.057950299233198165894f, 0.17320682108402252197f, 0.10426096618175506592f, 0.21252834796905517578f, 0.28220504522323608398f, -0.027785226702690124512f, -0.14111933112144470215f, 0.10488696396350860596f, 0.16943852603435516357f, 0.18881663680076599121f, 0.064543731510639190674f, 0.081611566245555877686f, -0.054408304393291473389f, -0.27405795454978942871f, 0.23039953410625457764f, 0.27699705958366394043f, 0.24198316037654876709f, 0.015103658661246299744f, 0.073780544102191925049f, 0.11401176452636718750f, -0.17287452518939971924f, -0.14917072653770446777f, 0.10959020256996154785f, 0.055029749870300292969f, 0.25867769122123718262f, 0.21799759566783905029f, 0.0047405483201146125793f, -0.076667204499244689941f, 0.098604544997215270996f, -0.30455377697944641113f, 0.45440545678138732910f, 0.23817348480224609375f, -0.17581969499588012695f, 0.18463587760925292969f, 0.26000443100929260254f, 0.15649378299713134766f, 0.21405179798603057861f, -0.015378989279270172119f, 0.14884942770004272461f, 0.0056979418732225894928f, 0.11734052002429962158f, 0.049807723611593246460f, 0.21459075808525085449f, 0.040955726057291030884f, 0.23366650938987731934f, -0.061952400952577590942f, -0.021088197827339172363f, 0.18004122376441955566f, 0.28201395273208618164f, -0.039202440530061721802f, -0.12678632140159606934f, 0.00074690330075100064278f, 0.21799111366271972656f, 0.010850538499653339386f, 0.081115789711475372314f, 0.12990775704383850098f, 0.21995061635971069336f, 0.082964472472667694092f, 0.065662935376167297363f, -0.15812754631042480469f, 0.058266296982765197754f, -0.16119243204593658447f, 0.047432232648134231567f, 0.047090549021959304810f, -0.23359425365924835205f, 0.12531407177448272705f, 0.24645838141441345215f, 0.11278758943080902100f, 0.11904793232679367065f, 0.15016719698905944824f, 0.10801024734973907471f, 0.12137344479560852051f, 0.21396161615848541260f, -0.22565245628356933594f, 0.11692734062671661377f, -0.10491883009672164917f, -0.12598417699337005615f, 0.44473722577095031738f, -0.057408168911933898926f, 0.19144383072853088379f, -0.29876559972763061523f, -0.12194735556840896606f, 0.25900843739509582520f, 0.096105068922042846680f, -0.052162759006023406982f, 0.14046113193035125732f, 0.28710296750068664551f, 0.27921608090400695801f, -0.054359037429094314575f, 0.19874510169029235840f, -0.31354641914367675781f, 0.0034848963841795921326f, -0.0014475057832896709442f, 0.064330369234085083008f, 0.028363710269331932068f, 0.11046198010444641113f, 0.17212665081024169922f, -0.045978646725416183472f, 0.063361831009387969971f, 0.12939867377281188965f, -0.27382186055183410645f, 0.22809794545173645020f, 0.25544607639312744141f, -0.037975538522005081177f, 0.0063867955468595027924f, 0.18513558804988861084f, 0.26506099104881286621f, 0.072362400591373443604f, 0.10483541339635848999f, 0.15135239064693450928f, 0.014205707237124443054f, 0.11152688413858413696f, 0.17766833305358886719f, 0.044556628912687301636f, 0.23740373551845550537f, -0.15201385319232940674f, 0.080784432590007781982f, 0.10531932860612869263f, -0.031288955360651016235f, 0.085699364542961120605f, -0.16715599596500396729f, 0.089118644595146179199f, -0.11664813756942749023f};
static const float tensor_6_bias[4] = 
{0.010120340622961521149f, 0.026614453643560409546f, 0.039690177887678146362f, 0.36045038700103759766f};
static const float tensor_0_weight_scale[1] = 
{0.016279714182019233704f};
static const int8_t tensor_0_weight_zero_point[1] = 
{0};
static const int8_t tensor_0_weight_quantized[13][150] = 
{
  {9, 3, 2, -7, 7, 25, 11, 4, 1, 22, -2, 3, -6, 3, 59, 6, -3, 15, -6, 5, -12, 35, 5, -3, 3, 61, 20, 14, 3, -12, 97, 11, 19, -1, 13, -6, 18, -2, 47, 9, -8, -8, 14, 70, 20, 11, 2, 13, 8, 3, 19, 6, 20, -9, -6, -11, 53, 4, -6, -13, 2, 36, -18, 6, 86, 23, 12, 25, 14, 2, 3, 47, -11, 5, -12, 15, 11, 10, 50, -8, -3, 7, 8, -13, 2, 17, 82, 15, 3, -11, 5, -9, -1, 9, 7, 8, -7, 2, 15, 0, 8, 85, 79, 5, -2, 3, -4, 18, 2, 31, 37, 1, 14, 11, -6, 16, -7, 1, 5, 1, 9, -7, 11, -8, -7, -9, -2, -9, 30, -5, 14, 5, -5, -1, 64, -6, 10, 8, -1, -16, 2, 15, 3, 41, -2, -13, 1, -8, 22, 17},
  {1, 0, 16, -10, -13, -10, -11, 6, -7, -7, -5, 2, -18, 5, -11, -6, 3, -24, -3, -34, -3, -15, 2, -18, -9, 1, 17, -17, -9, 9, 3, 20, 13, -5, -5, -8, -18, -5, -1, 15, -27, -21, -11, -24, -19, 1, 3, -11, 6, -31, 11, -14, 2, 10, -13, 2, 8, -1, -2, -3, 1, -11, -15, -1, -6, -7, -9, 5, -22, 4, -2, -50, -3, -18, -2, -13, -19, -15, 2, 4, -16, -17, -11, 8, 4, 6, -14, 16, -2, 10, -6, 2, -14, 21, -25, -18, -17, 6, -36, 0, -17, -11, -1, -7, -26, -11, -9, 9, -6, -14, 0, -7, -24, 26, -3, 6, 2, -13, 8, 8, -23, 17, 3, 8, 4, 13, 5, 0, -46, -7, -12, -13, -2, -5, -23, -5, -4, 6, 0, -3, -4, -1, 0, -2, -6, 1, 2, 7, -5, 9},
  {22, -39, -10, -20, -22, 24, 17, 2, -17, -8, 9, -31, 17, 3, -8, 21, 16, 4, -8, -21, -4, 8, -19, -7, -20, -19, -15, 6, -32, 12, 4, -11, 5, 6, 0, -2, 17, -25, -6, -11, 32, -35, 19, 19, -28, 10, 0, 15, -32, 0, 29, 16, 18, 7, 5, -4, 11, 49, 1, -19, -3, 42, 13, 15, -7, 29, 6, 28, 16, 7, -30, 28, -16, -17, 13, -3, 5, -15, -11, -12, 0, -5, -1, 13, -16, 39, -2, 11, -11, -12, -25, 11, -15, -4, 51, 16, 8, -8, -25, 18, -5, 13, -21, -2, 38, -14, 0, 46, -1, 3, -25, 51, -10, 18, 16, 3, -10, -13, 3, 10, 2, 16, 13, 6, -3, 33, 11, -25, 7, 13, 3, 7, 34, -14, -19, 35, 1, 13, 18, -35, 41, -28, 12, -25, 3, 12, -22, -8, -32, -1},
  {-11, -8, 1, 6, 2, -19, 15, -2, -12, 15, 4, -5, 1, 17, 18, 2, -10, 1, 0, 7, -19, -14, -20, 0, 12, 12, 10, -1, 6, -10, 13, -4, 2, -25, -15, -31, 1, -5, 17, 4, -4, -7, -17, 9, -4, 11, 8, 5, -1, 3, -22, -8, 9, -18, -14, -28, 6, 11, -11, 2, 4, 3, -11, 2, 6, 7, -14, -9, 8, -23, -6, 9, -6, 0, 2, 16, -22, 12, 10, -19, 1, 11, -1, -6, 5, 2, 7, 12, 2, 2, 8, -16, -6, -3, -2, -1, 3, 11, 1, 6, 5, 11, 3, 13, 9, -13, 4, 4, -22, 6, 3, 2, 16, 1, -6, 10, -46, -16, -38, -31, 7, -30, -28, 19, 11, -5, -16, 7, -1, 4, 13, -10, -7, -3, 5, 1, -3, -19, -16, -9, 5, -16, -5, 4, -15, -7, -9, 1, -4, 1},
  {-6, 0, 24, 7, -2, 1, -8, 2, -4, -3, -14, 26, -12, 19, 0, -12, 9, -3, -11, -10, 16, 5, -3, -21, 3, 7, -8, -10, -15, 25, 13, -3, -6, -20, -22, -2, -7, -2, 18, 3, -13, -17, -6, -3, -3, 23, 8, -5, -5, 13, 23, -21, 14, 6, 12, -12, 15, -1, -17, 10, 2, -6, -5, -10, 6, 0, -14, -17, -17, 7, 11, 11, 7, -18, -6, -1, 9, 13, -2, -5, 5, -17, 24, -1, -2, -7, 14, -3, -17, 15, 19, -5, 9, 4, -15, -9, -26, 2, -21, -13, -9, -8, -9, -3, -1, -13, -6, -10, -19, 6, 6, -4, -2, 4, -7, -11, 32, -33, -7, -15, -8, 9, -8, 8, 0, 7, 6, -10, -6, -8, 3, -12, 13, 2, -20, -18, -21, -13, 4, 1, 28, -19, 5, 14, 13, 9, 16, 9, 12, 5},
  {11, -52, 27, -18, -15, -10, 2, 28, 7, 11, 22, -20, 37, -10, 15, -21, 21, 31, 16, 16, 3, -3, 7, 15, 23, -21, 8, 1, -12, 31, -3, -20, -17, 15, -35, -20, 11, -22, 18, 0, 6, 12, 33, 14, -35, -3, 8, 9, -34, -16, 4, 25, -5, -14, 4, 1, 41, 31, 4, -22, -9, -12, 23, 27, 7, 39, -8, -12, -26, -23, -3, 4, -12, -36, 5, -12, 23, 10, -43, 8, 26, -31, -34, 21, 26, 11, -20, 22, -20, 58, 8, 11, -12, -12, 20, -16, -21, -3, -6, -10, 14, 22, -22, -10, 18, -1, -2, 28, -19, -13, -38, 21, -19, 23, 7, 4, -16, -11, 7, 1, -3, 2, 27, -62, 3, 33, -1, -50, -8, -8, -37, 38, 31, 1, 11, 37, 31, 1, 19, -21, 11, -1, 1, -28, -25, 13, -25, -10, -11, -2},
  {19, 1, -5, 66, -3, -3, 12, 42, 80, -25, 20, 0, -45, -23, 20, -41, 4, 1, -69, 33, -36, 13, -30, 32, 54, -18, 3, 11, -39, 17, 1, 39, -43, -18, -43, 6, -6, -41, 29, -71, 22, 46, -38, -6, -9, 64, -41, 21, 13, -20, -48, 19, -26, 56, -18, 34, 4, 28, 4, -94, 71, 17, -30, -15, 5, -3, -1, -10, -16, 55, 10, -4, 37, 29, 48, -18, -10, 22, 1, -88, 20, 41, 37, 10, 52, -38, -2, 24, 39, 20, -39, -62, 8, 73, -47, -6, 13, -25, 10, -12, 39, 22, -51, 5, -11, -4, -36, 46, -95, 6, -16, 51, -17, -8, 107, 1, 4, -15, -66, 45, 29, -29, 11, -50, -4, -65, -77, 20, 16, -101, 21, 31, 44, 37, 6, 24, -8, 16, -16, 21, -6, -8, -87, 51, -24, -36, -4, 57, 28, -43},
  {-73, -11, 10, -49, 35, 1, -55, -17, -30, -48, -74, -39, -1, 13, -11, -32, -73, -8, -10, -43, -54, 4, -49, 8, 7, -8, -43, -12, -12, -2, -11, -36, 2, 3, 3, 47, -4, 25, -17, 15, 7, -23, -43, 8, 7, -6, 80, -31, -8, 46, -32, 11, 77, 56, 27, -27, 43, 46, 42, -27, -28, -7, -22, 73, -29, -26, 3, 0, -27, -30, 88, 1, 86, 28, 86, 27, 1, 14, -36, 33, -34, -4, -18, 93, 0, -16, -26, 24, 85, -16, -4, 73, -31, -35, -21, -18, -73, 55, 25, 11, -4, -23, -20, 62, 41, -39, 98, -20, -33, -5, -23, -30, -17, 31, -49, 47, -7, 33, -5, -46, 10, 20, -22, -5, -127, 1, -44, 29, -1, 32, 32, -18, -44, 0, 10, -10, -30, -90, -36, 28, 10, -26, -51, 19, -25, -101, -44, -44, -30, 10},
  {12, -1, 18, 0, 9, 6, -8, -6, 16, 3, -18, 6, -14, 16, 10, 3, 20, 2, -1, -13, 28, 7, -24, -15, -10, 7, 1, -26, -4, 19, 1, -16, -4, 9, 8, 21, 4, 13, 1, 10, 5, 5, -15, -3, -1, -8, 3, 19, 8, 6, -13, -4, 0, -11, -2, -11, -16, 11, -7, -2, -9, 2, -14, -3, 14, -1, 19, 4, -3, 15, 4, -1, 1, 6, 9, -6, 4, 11, -4, -3, 13, -17, 0, -6, -12, 5, -14, -12, -6, -1, 7, -17, 11, 13, -5, -4, -21, 18, 13, -8, -17, 0, -8, -14, 0, -19, -2, -4, -24, 5, 0, -5, -4, -1, 8, -2, 18, 4, -9, 12, 17, -14, 19, -2, -2, 15, -14, 2, 3, -4, -11, 11, 13, -22, 11, -6, -21, -22, -24, -3, -15, 5, -12, 11, 26, 9, -13, 18, 6, 29},
  {4, 2, 16, -35, 31, -3, -5, -55, -35, 30, -6, 35, 50, 10, -21, 0, -19, -33, 63, 18, 23, -10, 8, -36, 46, 22, -18, -19, 20, 14, -8, 2, 30, -4, 38, 31, -45, 25, -20, 52, -8, -14, 21, 8, 14, -28, 12, -12, -40, 46, 15, 4, 42, -6, -8, -17, -8, 40, 1, 35, -18, 18, -19, 2, 17, 52, -54, 23, 41, -1, 29, -7, 0, -30, -5, -41, -18, -34, 6, 28, -22, -18, -33, 5, -37, -35, 8, -22, -41, -10, 39, 25, -10, -18, 5, 13, 1, 3, 15, -27, -42, 26, 38, -32, 10, 10, 18, -53, -1, 52, -9, -65, 46, 13, -39, -12, -1, -25, 28, -26, 20, -16, -13, -9, -17, 26, 35, -19, 1, 51, -29, 0, -42, 0, -7, -41, -7, -20, -8, -16, -23, -32, 59, -53, 7, -9, 21, -52, -63, 17},
  {33, -26, 11, 54, -51, 7, 68, 42, 21, 36, 33, 49, 11, -18, -48, 44, 37, -10, 31, -8, 17, 12, -4, -17, -19, 20, 11, 2, -10, 4, 25, -12, 0, -2, 18, -18, -63, -12, 24, 28, -20, -2, 15, 1, 4, 11, -63, -17, -31, -17, -8, -19, -35, -16, -33, -1, 26, 2, 13, 30, -7, 26, 0, -35, 3, -22, 8, 17, -38, -22, 16, -17, -64, -28, -30, -50, 19, -46, -11, -11, 2, 48, 5, -47, -26, 40, 27, -14, -46, -26, -22, -13, -13, -23, 29, 11, 11, -33, -7, -40, 59, 17, 31, -72, -48, 30, -62, -12, 2, -30, 77, 6, 2, -4, 17, -76, 24, 13, -6, 14, -35, 18, 20, 12, 72, -9, -32, -20, -5, 1, 33, -2, 17, 60, -12, -22, 27, 4, -17, 8, -11, 3, 20, -36, 8, 47, 60, 24, -21, -20},
  {-8, 24, 15, 1, -4, -6, 10, -9, 19, -32, 2, 7, -28, 34, 15, 16, 15, -22, -25, 9, -9, -22, -12, -1, -4, -9, 1, -18, 4, 38, 5, 3, -35, -50, 20, -17, -2, 19, -20, -2, 20, -6, 12, 0, -11, -9, 7, -17, -22, -11, 22, 5, 9, -3, 1, 7, -23, 25, -60, -6, -6, -22, 7, 26, -15, 23, 19, 4, 44, 17, -11, -10, 7, 2, -35, 9, 9, 5, -5, 21, 41, 6, 2, -11, -1, -12, 5, 1, -2, 15, -4, -7, -8, -2, 9, -39, -23, -32, 1, 18, 9, -5, 8, -3, -13, 25, -6, 15, 4, 12, 3, 10, 6, -11, -1, 10, -7, 19, -14, 20, -29, -18, 4, -5, 12, -23, -11, 6, 17, -5, -32, 25, -14, -29, -1, 2, 17, -6, -1, -11, -16, -27, 6, 3, 20, -12, 2, -9, -52, 26},
  {16, -36, -20, -14, -22, -31, -22, -3, 0, -14, 14, -23, 17, -19, 9, 21, -9, 10, -5, -4, -13, 9, 5, -22, -25, -34, 1, 2, -29, -6, 17, 5, -17, 7, 0, 19, 16, 10, -21, 4, 8, -18, 10, 6, 24, 16, 5, -21, -25, 12, 1, 14, -2, -8, 7, -1, -1, -24, -23, 17, 19, 25, -35, 12, -22, -6, -15, 36, -20, 20, 35, 18, 0, 10, -12, 10, -4, -11, -4, -21, -29, -34, 19, -13, -6, 26, 14, 1, -8, -31, -58, 20, 5, -1, 10, 14, -8, -23, -29, 9, 6, -1, 14, -21, -20, -10, 4, -15, 3, 9, 21, -10, -8, 9, -1, -23, 18, -14, -18, -12, -18, 6, 6, -41, -7, -21, -15, -29, 3, -21, 27, -29, 12, -9, 0, -19, -4, -14, 1, -20, -11, 1, 9, 1, -4, 8, 24, -21, 17, -1}
};
static const float tensor_2_weight_scale[1] = 
{0.0074951597489416599274f};
static const int8_t tensor_2_weight_zero_point[1] = 
{0};
static const int8_t tensor_2_weight_quantized[150][150] = 
{
  {11, -6, 39, 12, -1, 9, 7, 24, -28, -18, -8, -39, -23, -16, -31, 10, -3, -4, -55, 24, -22, -14, -4, -26, -22, 17, -12, 20, -20, -16, -7, 21, -39, -9, 26, 18, 19, 1, 28, 39, -26, -78, 19, -72, -27, 17, -32, 19, -27, -34, 1, -6, -9, 12, -26, -16, 14, -11, 14, 21, -33, -52, 1, 53, 23, -49, 7, -9, -30, -46, -5, 31, -32, -12, -4, 47, 14, -22, -8, 22, 43, -31, -20, 33, -13, 52, -59, -24, 30, 29, 25, 24, 1, 4, 25, -30, 13, -19, -20, 32, -6, 22, 54, 27, -27, -8, 9, 8, -78, -27, -18, -12, -26, 1, 4, -18, 20, -75, 2, -28, -41, 20, -12, -45, 4, -18, -20, -39, 3, -9, 12, 18, 26, 26, 15, 20, -1, -9, 32, -20, -1, -28, 27, 18, 28, -13, 33, -6, -40, 6},
  {8, 36, -27, 6, -27, 5, -11, 22, 5, -1, -35, 24, -57, -27, 37, -37, 42, -27, -12, -21, 3, -10, -9, -21, 21, -49, 39, -65, -21, -50, 24, -2, 8, -81, -20, 20, -33, 6, -17, -13, -32, 48, -16, 14, -3, 6, 1, 28, 6, -36, -5, 0, -29, 17, 0, -25, 39, 28, 17, 28, -13, 61, -53, 39, -13, -3, -30, 20, -2, -12, 47, -2, -35, 32, -13, 45, -14, -37, -44, -20, 16, 30, 8, -34, 17, -42, 32, -43, -2, -53, 3, -7, 22, 13, -33, 0, 26, -25, -16, -33, -35, -111, 25, 3, -36, 38, -45, -13, -19, -17, 21, -9, -56, 1, -58, 42, -54, -1, 23, 15, 6, -31, -7, 15, -36, -7, 21, -27, 17, -5, 6, -64, 24, -4, -14, 0, 9, -26, 6, 12, -17, -45, 8, -26, -20, -64, -42, -40, -9, -24},
  {0, -22, -3, 19, -50, 12, 40, 2, -25, -14, -25, -14, -28, 2, -21, -2, 41, -2, -20, 6, 7, -45, -31, 8, 6, 48, -39, -75, -11, -25, 7, -27, -14, -17, -56, -8, -25, -13, -33, -13, -6, -62, 26, -51, 30, -20, -13, -49, -24, -10, -33, 18, 1, 5, -14, -30, -69, -30, -63, -39, -21, -28, -17, -18, -10, 7, -18, -14, -64, 29, -14, -36, -37, 20, -3, -34, 12, -44, -78, 9, 34, -43, -20, -38, 53, 31, -21, 17, 11, -30, -30, 0, -22, -10, 21, 22, 10, 38, -36, -11, -47, -16, -28, 14, 28, 21, -11, 35, -1, -72, 20, -55, -3, -43, -36, -17, 21, -59, -18, -29, 16, 34, -30, -31, 50, 0, 1, -10, 2, -15, -9, -29, 7, -40, -63, -7, 7, -34, 37, 24, 5, 3, -7, 12, 0, 15, -6, -3, -15, -1},
  {-17, -1, -21, -24, -33, 15, 6, -10, 2, 9, -22, -17, 6, 35, 43, -39, 23, 15, -38, 18, -5, 0, -58, -39, -21, -28, -4, 23, 30, -8, 25, 31, 51, 26, -38, -37, -31, -16, 21, -44, 14, -15, 8, 2, -23, -25, -84, -36, -4, -37, -24, -43, -39, -4, -22, -1, 25, -3, -18, -25, 31, 66, -56, 1, -29, 8, -1, 33, -8, -4, 26, -20, -1, -30, -18, 5, -2, 7, -49, -4, -59, -15, 51, -54, -42, -19, 58, -5, -43, -30, 24, -37, 13, -13, -58, -18, -11, -69, -7, -19, -30, -5, 19, 30, -16, -37, -15, 6, -3, -1, -7, -10, 23, -4, 17, -34, -22, -6, 32, -15, -12, -1, -36, -18, -24, 29, 5, -16, 6, -49, 24, 2, -27, 18, 7, -2, 11, 10, -48, -8, -37, -36, 5, -58, -73, 16, -43, -73, 4, 19},
  {-52, -10, -21, -27, 23, 23, 36, 8, -22, -3, -31, 13, -20, 23, -19, 22, -18, -18, 24, -20, -5, -5, 9, 25, -5, 32, 12, -10, -13, -33, -13, -4, -7, 10, -37, -7, 20, 16, 14, -27, -2, -11, 6, 2, 18, 18, -21, 8, 47, 9, -11, -12, 26, -50, 67, 13, 7, 8, 8, -17, -34, 1, 20, -35, -23, -4, -59, 18, 0, -16, -28, 16, 7, -5, 18, 13, -6, 11, -3, -18, 18, -26, -26, 26, 13, -20, -3, 1, -16, -17, -44, -42, 13, 1, 5, -14, -23, -15, -10, -11, -45, -5, 6, -28, -29, 48, -38, 4, -18, 7, 23, -15, -10, -10, 13, 56, -40, 49, 13, 36, -1, -31, -27, -7, 48, -6, -15, 9, 18, 0, -18, -20, 26, 4, -34, -17, -1, -7, -25, 8, 40, 13, -27, -22, -13, -58, -61, -2, 22, -15},
  {-6, 2, 1, -35, -30, -7, -9, -5, -9, -20, -31, 17, -19, -34, 25, 16, 6, 11, -13, 16, -1, 22, -7, -1, -2, 23, 4, 0, 2, 4, 1, -28, -13, 23, -24, 14, 2, -7, -3, 28, -21, 11, 15, -26, -21, -1, -21, 2, -34, 15, -40, 11, 13, 13, 38, -8, 24, -14, 27, -34, 23, -28, -6, 2, -25, -23, 14, -6, 24, -22, 10, 23, 19, -20, -7, 0, -9, 5, 18, -27, -22, 10, 10, -13, 34, 23, -46, 16, -7, 0, 45, 22, -33, -16, -29, 12, -14, 30, -34, -23, 31, 24, -10, -3, -38, -4, -2, 26, -9, 2, -30, 1, 8, -11, -23, -11, 21, -20, -54, -15, 1, 6, 1, -21, -34, -28, -9, 3, 20, -32, -4, 1, -26, -29, -12, -12, 25, 19, -40, 9, 19, -6, 22, -20, 25, -49, -16, 4, -12, -13},
  {0, 12, -1, -9, 3, 8, -49, -16, -50, -21, -21, -22, -2, -9, -72, 17, 40, 42, 4, 15, 84, 2, -71, -41, 8, 28, 24, 36, 12, 25, 46, -8, -18, 27, -9, -17, -29, 31, -22, -12, -2, 51, 4, -7, 3, -24, 12, -19, 1, 10, -85, 12, 0, -6, -24, 7, 4, -8, -46, -57, 48, -42, -47, 1, -30, 49, -8, -41, -10, -25, -2, 30, -6, -7, -25, 11, -12, -36, 35, 22, -40, 5, 61, -34, -30, 19, 38, 17, 12, -34, -5, 32, -74, -40, 30, -35, 24, -15, -41, 52, -20, 38, -11, 26, -10, -10, -11, 34, 19, -33, -18, -58, 12, 23, 19, -10, 45, 30, -21, -14, 51, -20, 3, 24, -7, 0, -39, -41, -18, -3, -22, -6, 39, -36, -45, -48, 10, 31, 22, -4, -10, -30, -19, 0, 14, 65, 16, -38, 28, 15},
  {-5, -68, -11, -33, -24, 1, -31, 4, 24, 20, 11, 0, 13, 40, -10, -18, -4, 0, -5, -22, -61, -20, -42, -18, -41, -21, 19, 22, -2, 16, 17, 0, 5, 6, -63, 35, 56, 2, -6, -26, -25, -17, -10, -16, 40, -15, 33, 12, -20, 0, 33, -7, -7, -19, -58, 5, 14, -10, -18, -2, 4, 23, 25, 31, -29, -8, -41, 0, 12, -61, -37, -36, -1, -35, -11, -15, 15, -27, -30, -23, -33, -54, 34, -15, 13, -16, -21, -21, 19, 5, 49, -36, -3, -15, -45, -2, 21, -19, -77, 29, 24, 45, 27, 24, 34, -51, -17, -28, -22, -38, 19, 34, 11, -5, 12, -22, 9, -3, 35, -19, -3, 5, -19, 33, -25, 14, 33, 2, -7, 9, 36, 15, 28, -19, -36, 14, -36, 5, -5, -27, -1, -38, 12, 3, -47, -10, -56, -14, 15, -15},
  {-34, 16, -26, 22, -39, -23, 6, 41, -11, -45, -19, 18, 35, -44, -23, -68, -37, -4, -16, 24, -1, -59, 1, -50, -20, -59, 12, -14, 27, 29, 10, 44, -6, 9, 23, 24, -24, 22, 24, -14, -29, -35, -9, -22, 41, -20, -12, 2, -7, 31, 2, -7, -22, -41, 14, 1, 18, 1, 27, -13, -61, 23, 22, -5, 3, -16, -3, -28, 12, -57, 53, 17, 42, -15, 45, 1, 17, -53, 8, 17, -18, -95, -34, -15, -44, -32, -10, -46, 36, 21, 46, -7, 20, -2, -7, -35, 2, -68, -30, 11, -45, -55, 14, 26, -14, 5, -25, -9, -28, 31, 55, 32, -29, -7, -62, -1, 30, -19, 8, 24, -99, 6, -17, 32, -76, 23, 15, -32, -25, -25, 39, -5, -4, -41, 15, 32, -22, 36, -4, -12, 1, -2, 38, -10, -60, -40, -20, -13, -16, -21},
  {-17, -10, 3, 57, -34, 27, -6, 12, -52, -47, -17, 10, -30, 38, -17, 16, 28, -11, 0, -11, 59, 3, -6, -2, 11, 39, 9, 25, 5, -37, -12, 10, 7, -30, -46, -25, -20, -9, -4, -8, -12, -38, 16, 14, 21, -3, -39, -23, 12, -9, -8, 11, -4, 31, -12, 2, 19, 54, 36, -17, 41, -40, -30, 6, 41, 5, 26, 7, 10, -27, -9, -23, -31, -2, -41, 5, 32, -23, -42, 0, -54, 18, -45, -7, -8, 79, 25, 32, 0, -29, -18, 43, -41, -8, -29, 9, -32, 6, 6, -14, 27, 20, -17, -29, -26, 43, 21, -18, -32, -27, -12, -25, 3, 44, 1, -18, -27, -29, -35, -28, 15, 28, -6, -16, 16, -25, -54, 16, -38, -48, -53, 42, 13, -6, -40, -48, 19, 8, -65, -36, -13, -1, -47, -4, 7, 71, -11, -33, -4, 28},
  {-72, -11, -5, -40, -6, 10, -86, -21, -26, -33, -47, -56, 17, 2, -26, -55, -6, 9, -17, -17, -33, -10, -26, -34, 38, -8, 35, 20, -33, 11, -7, 33, -22, -1, -15, 20, 3, -15, -76, -22, 46, -30, -17, 17, 28, 65, 45, 4, -68, 17, -11, 10, -41, -3, 0, -46, -32, -26, -28, -77, 71, -44, 14, 8, -39, -4, 3, 21, -3, -36, -40, -31, 25, -38, -13, -27, 16, -12, 1, -38, 25, -12, 24, 7, 22, -29, 11, -23, -39, 26, 0, -27, -6, 37, 25, 34, 34, -11, -71, 4, -12, 14, 18, 18, 7, -30, -44, -26, -1, -87, -70, 34, 28, -10, 50, -48, 7, 0, -16, 4, 8, 59, 5, -28, 13, -2, -10, -15, -14, -13, -19, 31, -31, 12, -38, 12, -27, -10, 15, 1, 39, -14, 2, -19, 41, 44, -37, -18, 33, 16},
  {-8, -52, 14, 24, -39, -24, 1, -38, -11, -34, -30, -2, 1, 0, 8, -1, 23, 1, 36, -15, 24, -56, -32, -7, -15, 13, -2, 6, -54, -31, -25, 25, 16, 2, -43, -11, -26, 1, -19, -39, -6, 18, 3, -13, 3, -1, -24, -27, -15, -22, -59, 32, -12, 11, -11, -69, 20, -47, -38, 16, 0, -6, -39, -26, 10, -1, -18, 9, -111, -32, 26, -30, -35, 30, -8, -3, -8, 31, 22, -23, -17, -17, -9, 1, -12, 7, 5, 6, -17, -26, 11, -25, 32, 22, -23, 11, 43, -4, -49, 35, -30, -21, 2, -26, 1, -16, -11, 60, 8, 35, 18, -17, -17, 29, -39, -28, -36, 8, -10, -1, 60, -14, -22, 60, -22, -52, 4, -12, -65, 4, -33, -15, -5, 8, -75, 5, 17, -28, -19, -26, -21, -3, 43, -28, 9, -28, -3, -47, -38, -2},
  {33, 43, -3, 26, 47, -34, -49, 7, -72, -41, -35, -17, -42, 4, -35, -35, -16, 23, -15, -33, -5, 38, 25, 4, -7, 43, -33, 24, 14, -34, -39, 6, 14, -37, -15, -39, -49, -3, 1, -61, 10, 20, 44, 14, -19, 22, 39, -35, -18, 9, -28, 8, -40, 25, -44, 5, -49, 2, 4, -7, 23, -30, -18, 26, 21, 3, 1, -45, -76, 14, 12, 12, 6, -22, -35, -79, -33, 13, -7, -1, 13, 13, -107, 8, -12, 24, -36, -7, -18, 29, -50, 20, 5, 14, 22, 21, 25, 31, 30, 12, 0, 57, 8, -77, 29, -9, 7, -15, 35, 21, -50, -66, 69, 2, -3, -33, 22, 36, -43, -22, -29, 9, -28, -40, -4, 5, -46, -49, -25, -19, -22, 19, 10, -24, -72, -13, -10, -30, 37, -43, 9, 25, -60, 31, 17, 14, -26, 9, -13, -14},
  {-36, 20, 23, 12, -18, 38, 18, 19, -55, -59, -17, 13, -27, 26, -60, 38, 52, -42, -78, 3, 47, 20, 11, 16, 16, 32, -15, -32, -6, -12, 39, -6, -42, -4, -20, 31, -62, -52, -33, -30, 2, -58, -15, -26, 4, -35, 8, 59, 27, -61, 45, -31, -36, -15, 20, -3, -32, -28, -9, 6, 0, -24, 28, -7, -16, -22, 5, 45, 18, 25, 12, 23, 20, -10, -19, 20, 3, -26, -56, 10, -7, 0, -7, 9, 27, 9, -46, -22, -4, -65, 25, -30, -23, -17, 14, -7, 8, -23, -10, -10, -26, -34, -34, -15, 4, 32, 24, 18, 31, -30, 9, -9, -22, -12, -28, 34, 11, -3, 1, -15, 27, 47, -3, -59, 34, -9, -62, 11, 20, -42, -68, -28, -69, 14, -36, -28, 34, -5, -19, 12, -31, -4, -24, 32, -6, 6, -17, -39, 18, -10},
  {-15, -9, 19, 44, -25, -16, 15, -43, -33, 0, 9, -25, -18, -3, -22, 0, -4, 18, 28, 4, -40, 65, 26, 6, -8, 3, -16, -3, 24, 58, 22, -34, -2, 8, -5, -44, 1, 52, 29, -9, 32, -40, -42, -48, 19, -62, -44, -37, 21, -29, 52, 18, 10, -20, 40, 23, -70, 19, 52, 13, 15, -6, 29, -16, 17, 9, 27, -44, 3, -23, -30, 3, -50, -46, 0, 23, -2, 46, -31, -4, -27, -36, -24, 40, -2, 13, 3, -3, 33, -56, -4, 14, -3, -7, 8, 58, -51, -3, -24, 18, 24, -77, 18, -8, -4, 18, 20, 21, 61, -12, -1, -2, -1, -32, -21, -23, 54, -37, 24, 2, -34, 44, -14, -6, -9, 21, -21, 46, 29, -13, -70, -4, 14, -11, 39, -86, -101, 59, -25, -5, 16, 19, -16, 10, 32, 25, 11, -65, -38, 27},
  {-24, 34, -6, -12, 6, -61, -64, -13, 30, 34, 19, -24, -11, -3, 15, -8, 4, 3, 12, -4, -10, -8, 31, 37, -8, 17, 7, 52, 4, -13, 4, 5, -28, 16, 34, 41, -4, 4, 1, 9, 47, -9, -29, 9, -4, -6, -1, 36, -1, -67, -15, -18, 3, 13, -42, -7, -12, 15, -22, -38, 34, -96, 19, 37, -17, -27, -18, 17, 10, -17, 19, -19, 63, -11, -14, -93, 25, -7, 8, 10, 4, 35, 14, 1, 16, 54, -22, 7, 26, 10, -27, -16, 5, 65, 33, 1, 35, -30, -31, -10, -18, 18, -42, 1, 16, -83, -6, 29, 13, -19, -24, 32, -4, 22, 44, -22, 34, 25, 0, 4, 19, 22, 19, 2, -69, -62, -43, -10, -80, 24, 31, 1, -1, 18, -14, -47, -55, -22, 26, -5, 6, -12, -40, 33, 13, 16, 15, 16, 35, 7},
  {22, -52, -31, 71, -40, 5, -7, 36, -60, 31, -44, -33, 1, -46, 25, -1, 12, 16, -61, -4, 32, -30, -3, -67, -1, 18, -5, -54, -74, 9, 9, 43, 8, 63, 4, 13, 28, -34, -16, -13, 7, -73, -13, -62, 35, 26, -26, 9, -41, -7, -16, -10, 11, 2, -26, -56, -11, 24, -14, -42, -36, -10, -6, -3, -27, -45, -24, -2, -21, 1, 27, -8, -41, 2, -22, -5, 43, -85, -23, -10, 0, -19, 6, -31, -40, 60, -44, 2, -26, 41, 30, -39, -31, 12, 16, -49, 13, 18, -21, 26, 0, 15, 7, 20, -1, 3, 25, -6, -23, -48, -30, 4, 9, 3, -12, -9, -16, -27, 1, -15, -32, 27, -9, -42, -20, 6, 17, 21, -4, -24, -4, -1, -5, -13, -6, -4, 43, -20, 15, -11, -7, -12, 0, 21, -12, -32, 9, -50, -7, -12},
  {11, 39, -7, 51, -19, -3, 11, -33, -28, -62, 9, 8, -51, -16, -47, -54, 20, -40, -7, 32, -72, 4, 12, -25, -21, 31, -45, -8, 17, 15, -42, 9, 22, -12, 29, -35, -1, 35, -3, -16, -3, -41, -15, -23, 8, -50, 2, -35, 7, -3, 8, -15, -14, -64, -26, -15, -72, 6, 40, 30, 30, 14, 14, -22, 25, 25, -6, -39, 2, -38, 8, -32, 4, -60, -5, -17, -31, 9, -26, -19, -34, 1, -45, 7, -18, 33, -11, 17, -2, 67, -15, 13, 1, -40, -19, 7, -18, 20, 4, 30, 6, 13, -4, -20, 27, -12, -22, -4, 28, -21, -5, -39, 26, 44, -5, -13, -8, 44, 8, 4, -10, 27, 18, -11, -63, 25, -47, -11, 24, -29, -11, 26, 0, 4, -6, 7, -33, 32, 18, -18, 6, 27, -37, -52, 1, -4, 23, -38, -47, 36},
  {-3, 6, -47, -35, 12, 5, -43, -47, 6, 11, -42, -9, -52, 30, -9, 25, 19, 33, -31, -44, 2, 12, 0, 15, -53, 37, 11, 51, -5, -60, 10, -10, -9, -32, -66, -18, -66, -9, -19, -24, 8, 15, 38, 48, -70, 16, 5, -37, 26, -17, 12, 25, 20, -4, -19, 30, 25, 34, 21, 9, 1, -20, -49, -19, 7, 8, -48, -25, -2, -5, 44, -11, 6, 30, -26, -26, 16, 19, -22, 33, 22, 26, -32, -46, -23, -9, -10, -38, -22, 17, -60, -2, -8, 3, -23, -13, 6, 14, 28, -19, 31, 37, 27, -46, -34, -41, -4, 21, -10, 0, -58, -46, 22, 9, -4, -8, -13, 15, -59, 6, 16, -11, 15, -2, 43, -51, -17, -40, -54, -26, -37, -6, 9, 37, -31, -18, -28, -56, 7, -45, -28, -22, -62, -2, 35, 16, -42, 9, -29, -15},
  {61, 6, -4, 13, 9, 33, -26, -41, -27, -12, -22, 19, -37, -35, 30, -52, 15, 11, 2, 26, 47, -28, -28, 12, 0, 0, -63, 16, 1, 5, 2, 34, -35, -44, -33, -26, -18, 28, -1, 9, -11, -52, 35, -38, 4, -20, 1, 1, 0, -14, -47, -35, 9, 13, 10, 13, -2, 24, -14, -16, -13, 5, -9, -43, 20, -10, 25, -13, 41, 7, -28, -16, -4, -37, 0, 6, -23, 45, 2, 10, -44, -6, 10, -15, -6, 10, 21, 46, -43, -39, 47, 21, -68, -28, 28, 18, -1, 33, -44, 31, -31, -14, -6, 16, -2, -16, -11, -18, 9, 24, 21, -20, 2, 37, -2, -32, 22, 21, -19, 11, 13, -30, -17, -50, -23, 27, -19, -31, 11, -61, -45, -35, -19, -28, -18, 34, 12, -53, -64, -24, 33, 27, -3, 13, 5, 22, -27, -32, -55, -25},
  {27, -29, 16, -38, -25, 46, 28, -21, 26, 12, -33, -1, -14, -12, 37, 48, 13, -26, -27, -10, -15, 2, -60, -40, 16, -13, -91, 3, -54, -25, -20, 39, 13, 69, -34, -51, -62, 13, -54, -43, -61, -34, -45, -16, 40, 31, 1, 13, -47, 18, -10, 8, -5, 53, -9, -32, -20, -31, -17, -86, -15, -29, -20, 1, -22, 17, 5, -47, 4, -12, 33, -28, -26, 80, -10, -19, 31, -43, 5, 12, 43, -31, -3, -44, 10, 27, -13, 33, -45, -1, 65, -34, -39, 32, -11, -34, -10, -7, -10, 36, -4, -2, 6, 0, 21, 3, 9, 20, -28, -10, -30, -16, -19, -10, -10, 20, -61, 0, 6, -24, -84, 11, -29, -1, 19, -13, 36, -51, 18, -6, -21, 48, -44, -20, -23, 63, 13, 39, -26, -11, 17, -41, -7, 0, 23, -40, 41, -42, 37, -39},
  {-1, -33, -44, 6, -25, -15, 17, -22, -37, -20, -4, -29, -18, -28, -12, -30, -7, -1, 28, 43, -43, 0, -17, -27, 21, -9, -14, 6, -22, -24, -36, -26, 29, -24, -19, -5, 5, -36, 10, -5, 11, 11, 10, -35, -27, -4, -41, -2, -26, 10, 18, -27, -9, -22, 19, -17, -49, -18, -16, 26, 35, 7, 22, 8, 46, 13, 10, -59, -35, -42, -20, -28, -5, -74, 3, 24, 16, 24, -32, 1, -8, 29, -3, 0, -44, 15, 13, 5, 28, -26, 16, -5, 22, 0, -30, -43, -26, 51, 1, -11, 8, -33, 26, 15, -11, 23, 9, 15, 41, 27, 12, 13, 30, -53, -38, -21, -21, 0, -14, 32, -36, -8, 24, 15, -39, -8, 18, 0, 1, -4, 0, 16, 22, -26, -18, -30, -48, -14, -14, 10, -14, 37, 0, -57, -28, -4, 7, -30, -14, 4},
  {-51, 16, 3, -31, -9, 61, 6, -23, -29, -30, -11, 21, -22, 30, -13, -21, -32, -5, -6, -27, -29, 0, 0, 11, -29, -33, 25, 20, -33, -18, 54, -7, 14, -17, 8, 4, -53, -23, 9, -29, -2, -19, -10, 20, 3, 5, 29, -6, 20, 11, 12, 2, -49, 11, -5, -15, -28, -25, 2, -10, 11, -52, 13, -9, -5, 17, -38, 50, -7, 17, -55, -17, 15, -19, 33, -62, -9, -14, -36, 27, -36, 26, 14, -40, -6, 22, -67, 7, -46, -46, 11, -4, 32, 31, -44, 8, -7, 14, 8, 29, -18, -15, 4, 38, -4, 19, 12, 11, 24, -48, 22, 22, 36, 21, -58, -40, 8, -11, -21, 11, 21, -1, -9, -9, 48, -10, -2, 21, -25, -71, 11, 40, -17, -22, 11, 27, -5, 2, -74, -36, 6, -15, -5, -28, 16, -26, -12, -12, -6, -13},
  {-17, -4, 15, -18, 18, 4, -6, 29, -26, -8, -56, 27, -5, -65, -30, -42, 2, 5, -75, -12, 13, 7, -32, 48, 49, -33, -15, 13, -2, 20, 6, 11, -3, -14, 3, -37, -9, -8, 12, -21, 7, -23, -41, -66, -23, -50, -8, -24, 23, 1, -3, 8, -40, -31, -28, 11, 12, -13, -16, -2, -22, -15, -32, 11, -11, 6, 10, 10, -24, -11, -38, 23, -65, -10, 4, 27, -15, -18, 18, -11, 17, -25, -11, -11, 57, -11, -19, -18, -14, 20, -8, 11, -50, 29, 24, 10, -11, 18, -19, 23, -15, -5, 8, 45, 17, -24, -23, -14, 14, -3, 15, -9, 14, -20, 3, -6, -13, -15, -7, -8, -3, -51, -3, -61, 16, -23, -43, 6, -7, 2, 18, -10, 29, -13, -9, -6, -2, -2, -30, 6, 38, 4, 1, -30, -8, 28, -27, -38, 7, -12},
  {-33, -43, 32, 34, 17, 19, 4, 15, 5, 6, -3, 20, 11, 20, 10, 10, -22, 58, -51, -3, 7, 53, -33, 2, -48, 17, -25, 8, -29, 19, -37, 5, 25, -23, -57, -9, -59, -16, -2, 15, -50, -38, -16, 9, -20, -14, 5, -31, 3, -21, -9, 35, 21, -51, -15, 1, 21, -17, -28, 18, -27, -15, -31, -39, 33, -31, -9, 21, 49, 28, -7, 60, -39, -22, -17, 2, -24, -20, 24, 2, -68, -34, 24, -28, 11, -48, 16, 0, -42, -20, 13, 22, 19, -60, -29, 30, -43, 21, -41, 16, -53, 0, -36, -1, 16, 14, -34, -59, -13, 17, -30, -40, 44, 21, 37, -26, -27, 19, 14, 42, 5, -22, -9, 14, 27, 43, -2, 48, -36, -48, -6, -2, -18, -8, -8, -25, -7, 0, -40, -36, 41, -55, 28, -37, -14, 19, -21, -14, -3, -17},
  {-2, -64, -15, 16, -42, -10, 33, -5, 48, 3, -5, 18, 0, -2, 1, 41, -3, 52, -24, -18, -6, -9, -13, 25, 0, -20, -26, -34, -18, -32, 35, -5, -6, 1, -27, -57, -36, 10, -36, -15, 5, -29, -25, 17, -28, -13, 14, -21, 2, 7, 29, 42, -25, -9, 48, -40, -6, -2, 28, 9, -14, 8, -12, 12, 59, -33, 43, -12, -36, -32, 5, -19, 8, 62, -17, 42, 4, -11, -15, 30, 22, 19, -8, -34, 26, -8, -8, 81, -13, -17, 0, -12, -20, -23, 12, 9, -4, -19, -50, -8, 23, 8, -88, -22, -23, 20, -43, 9, 48, -24, -23, -1, 30, -31, -23, -28, 23, -34, -77, -14, 30, -40, -26, -23, 48, -2, -37, 65, 10, -26, 14, 6, -37, 7, -46, -15, 26, -14, -6, 2, 31, 2, -4, -20, -43, -19, 22, -12, -53, 4},
  {20, -24, -22, 1, 13, -46, -17, -27, -16, 19, 15, 17, -24, 4, 53, 3, -49, 39, 9, -9, 53, 25, -46, -4, 6, 24, -39, 47, 5, 16, 11, -24, -8, 31, 0, 52, 1, -16, -5, 27, 9, -14, -30, 3, 2, -6, 21, -27, -12, -7, 24, -1, -1, 34, 23, -33, -22, 14, 23, -18, -27, -54, 14, 37, 39, -40, -13, 40, 3, -17, 9, -37, 3, -16, -13, -34, -13, -32, -38, 12, 7, 27, 63, -7, -17, -13, 31, -5, 21, 26, -17, 23, -3, -25, 24, -18, -37, 0, 14, 9, -6, 5, -38, 23, 20, 21, -10, 5, 9, -6, 1, -9, 16, 15, 21, 1, 5, -43, 33, -41, -12, 43, -22, -34, -60, -77, -9, -25, -20, 23, 18, -18, -25, -48, -31, -6, 5, 46, -18, -37, -7, -38, 3, 10, 4, -2, -34, 26, 13, 31},
  {-17, 20, -13, -36, 2, -16, -56, 8, -51, -16, -20, 9, -33, -51, -8, -44, -50, 55, 5, 27, 7, -83, -81, -7, -16, -34, -37, 0, -31, 24, 11, 39, -79, 23, -22, -23, -16, 3, -20, -25, 28, -4, -11, 11, 33, 24, 24, 30, 0, 16, -26, 16, -15, 17, 6, -28, -54, -27, -5, -49, 3, -45, -18, 4, -28, -13, 19, 47, -59, 19, -61, -34, -38, 5, -29, -21, -5, -1, -8, 9, 3, 13, 1, 32, 28, 22, -43, -7, -69, 37, 15, 0, -11, 13, 30, 7, -18, 16, -20, 32, -40, -19, -14, -8, -14, -37, 1, -21, 15, 12, -35, -10, 21, -3, -5, 3, 14, -7, 46, 16, -1, 12, -14, 10, -20, -10, -15, -9, 0, -40, 19, -19, 1, -46, -49, 7, -5, -16, -24, 17, 30, -11, -20, 15, 1, 27, 9, 0, 58, -16},
  {-20, -12, -55, 4, 15, 20, -21, -1, -24, 20, 29, 42, -54, 21, -4, -25, 26, 58, -2, -21, 41, 9, 8, 38, 11, -14, 21, 11, 24, -2, -10, -16, -17, -4, -17, -7, 4, 23, 1, -16, -37, 18, 35, 42, -53, -17, -15, -20, 32, -13, -29, -10, 9, -23, 25, 24, -45, -34, -43, -12, 12, -21, -41, 21, 48, -32, -19, 16, 40, 51, -9, 52, -36, 16, -8, -24, -77, -10, 49, -25, -55, -4, 43, -12, -60, -19, 25, 20, -10, -86, -14, 17, -4, 20, -40, 27, -25, -3, -37, -54, 3, -19, -23, -12, -55, 17, -46, 0, -8, 10, 6, -8, -22, -3, -38, 10, 7, 19, -2, -12, -13, -80, -9, 14, -23, -2, -2, -17, 15, -48, -8, -39, 31, 26, 5, -25, 32, -3, -111, -6, -58, -14, -7, -29, -20, 4, -42, -68, -3, -13},
  {-10, 19, 17, 6, -29, 17, 31, 34, 22, -38, -43, 30, 27, -82, 4, -23, 21, -59, -26, -9, 31, -54, -25, -9, -40, 44, -73, -63, -66, -42, -5, 35, 3, 30, -27, -31, -29, -43, 2, -13, -5, 6, -5, -90, 34, 41, 5, -30, -35, 9, -40, -29, -23, 34, 11, -35, -50, 4, -69, -13, -91, -12, -39, 8, -21, -26, -24, -57, -9, -2, -8, -2, -7, 32, -4, -46, -17, -35, -15, 17, 30, -47, 7, -60, 15, -25, -48, -25, -27, -12, 17, -56, -19, -7, -19, -17, 2, 19, -53, 25, 2, -31, -62, 5, 18, -10, 8, 14, -10, -12, -38, -34, 13, 27, -28, -8, -53, -43, -28, -30, -38, -12, -8, -8, 8, 25, -17, 4, -20, 31, -24, -7, -3, -30, -13, 15, 12, -3, -51, -42, -41, 13, -4, 27, 6, -56, 47, -51, -74, -21},
  {-4, 9, -7, -39, 22, 8, 7, 19, 32, -33, 61, -50, -15, -2, 39, 26, 40, -54, 14, 0, 2, -11, -32, 45, -4, -9, -26, -49, -14, 58, -13, 17, -15, -11, 20, 0, -44, -3, 32, -34, -7, -4, -68, -68, -27, -78, 18, -32, -13, -1, -16, -17, -2, 39, 58, 25, -23, -36, 39, -30, -21, -22, -6, -23, 32, -4, 8, 38, -20, -50, -54, -47, -31, 22, -8, -1, -37, 16, -60, 19, -36, 33, 1, 13, -39, -6, -31, 35, 60, -19, 15, 14, 0, 11, 64, 20, -68, -24, -112, 15, 62, -54, -27, 4, 13, 16, 13, 42, 36, 22, -38, -16, 17, 6, -24, -89, 16, -26, -27, 7, -38, 12, 19, -26, -37, -22, -55, 34, -51, -30, -7, 10, -19, -13, -17, -17, -70, 44, -44, -35, 34, -10, -27, -60, 18, -16, 50, -32, 12, -30},
  {8, -59, -11, 23, -9, -15, -23, 23, 32, 54, -19, 25, -8, -22, 26, -18, -13, -12, 24, 3, -49, -13, -54, 5, -14, -51, -23, -37, -11, 21, 14, 19, -41, -11, -52, 39, -20, -68, 4, 10, -49, -51, -33, 5, 6, -23, 14, 29, -5, -21, -42, 12, 9, -4, -26, -67, -15, -15, -7, 14, -4, -4, 8, 19, 22, 58, -48, 38, -3, -9, 22, -25, 30, 20, -7, 3, -50, 41, -43, -28, -17, -17, 19, 27, -5, 9, 0, -34, -35, -48, -22, -39, 30, -5, 30, 10, -32, -44, -75, -43, -1, -10, -22, 40, -23, -10, 18, -7, -40, -12, -23, 36, 21, 5, -34, -16, -25, 16, 33, 14, 23, 28, -19, 16, -20, -10, 52, 12, -26, 32, 23, 14, -51, -25, 0, -18, -46, -14, 0, 5, -15, -46, 29, -2, -35, -18, -25, -14, -31, -23},
  {0, -21, -38, -22, 7, -11, -30, -10, 26, 24, 3, -3, 11, 7, 26, -23, -61, 43, -38, -10, 16, 9, 9, -24, 4, 2, -39, -25, 23, -17, 46, -55, -54, -54, -107, 19, -85, -8, -11, -10, -16, 19, -28, 30, -60, 6, 10, 21, -11, -37, -21, 43, 46, -18, 19, 9, -7, 48, 33, 5, -24, -27, 24, 9, -12, -11, -24, 0, 4, -19, 12, -40, 24, 30, -6, 22, 34, 12, -6, 29, -22, 6, 3, -7, -17, 36, -31, -5, -20, 9, -49, 41, 8, -59, 13, -22, 22, -9, -6, -46, 7, 41, 17, -15, -27, -33, 23, -9, 14, 8, -12, -18, -10, 0, -21, -1, -35, -10, -5, -21, -2, 18, 4, 55, -5, -24, 1, 14, -33, -12, 14, -4, -9, -7, -63, 23, 47, 25, -14, -20, -40, -23, 5, 22, -2, -31, -14, -1, -14, 32},
  {9, 8, -15, -55, -26, 13, -22, -16, 18, -58, -49, 8, 6, -23, -48, -3, -48, -47, 25, 19, -7, -12, 44, 23, -69, 43, 13, -25, 35, 4, -28, 3, -9, -7, 14, 42, 14, 4, 20, 12, 11, 2, -1, -10, -34, -1, 8, 9, -37, 12, 3, 15, -1, -10, -22, 16, -44, -11, 1, 27, 41, -4, 6, -7, -17, 32, -14, -37, -52, -42, 18, -69, -38, 46, -9, -13, -18, -47, 44, -1, 25, 31, -31, -8, -21, 32, -28, -12, 15, 64, 17, -36, -27, -18, -30, 21, 2, 23, -9, -29, -21, -3, 78, 13, -35, -22, -14, -35, -14, -24, 7, 27, -70, -21, 24, -18, 13, -33, 0, -19, 20, -12, -28, 8, 41, -6, 1, 24, -1, 2, 1, 15, 40, -2, 29, 43, -33, -37, 24, -21, 21, -42, -18, 40, 8, 6, -24, -7, 27, -37},
  {11, 10, -11, -23, 22, -48, -14, 20, -35, -52, -42, -10, -7, -35, 21, -8, -40, -29, 62, -10, -24, 1, -4, 10, -19, 9, -5, -20, 31, -22, -79, 12, -18, -34, 5, -5, -20, 22, -3, 20, 35, 12, 12, 38, 14, -22, 8, 36, -1, -25, -48, -33, -30, -20, -39, -2, -13, 30, -28, 9, -1, -17, -14, 56, 57, -14, 20, 22, -6, -3, 45, -12, -31, -18, 5, -27, 18, -25, 5, -2, 26, 31, -24, -22, 19, -9, 10, -9, 20, -14, -29, 1, 13, 44, -19, -45, 5, 49, 17, 34, -12, 15, -28, -40, -30, -43, 32, -5, 1, -17, 17, 50, -26, -26, -22, 62, -6, 14, -7, -59, 54, 15, 18, 34, 2, -26, -38, -15, -30, -37, -28, -20, 55, -8, 45, -13, -54, -31, 35, 19, 1, -33, -38, -1, 20, -32, -10, 52, -43, 3},
  {-7, 5, 36, -71, -18, 28, 18, -2, 22, -29, -9, -7, 26, -60, 27, 12, -81, -62, 40, 30, -2, -85, 19, 12, -38, -31, -37, -4, 11, -21, 2, 23, 59, 42, 23, 10, 8, 15, 5, -7, 5, -10, -17, -38, -8, 0, 42, 15, -16, 44, -22, 11, 4, 5, -26, -7, 9, 19, 7, 8, -32, -23, 42, 8, -46, -2, -28, -22, -54, 7, 35, -26, -37, 40, -7, -81, 9, 4, 21, -22, 50, 4, -76, 12, -14, -32, -52, -11, -37, 26, 34, 1, 37, -10, 8, 20, -11, 7, 36, -15, -23, -31, 44, -79, -20, -3, -8, -37, -17, 18, 1, -9, -60, -46, -26, 39, -45, -18, -35, -82, -4, -70, -16, 17, 32, -4, -8, -6, -65, -11, 21, 30, 43, 24, -16, 46, 14, 3, 35, 17, -44, -54, -25, 6, 8, -28, 37, 1, -35, -17},
  {7, 49, 24, -2, -18, -33, -19, 14, -42, 19, -23, -2, -15, -17, -14, -44, 4, -8, 29, -13, -26, -15, 11, -27, -25, -5, -40, -28, 28, 34, 18, -34, -29, -3, 32, -39, 74, -14, 30, 29, -10, -31, -7, -30, 20, -40, 30, 33, -34, -14, 34, 13, 24, -55, 3, -11, -38, -10, 62, -6, -28, -34, 27, 7, 33, -41, 4, -37, 0, -13, -44, 28, 6, -41, -15, -37, -46, -34, 35, -50, -76, 21, -25, 64, 13, 27, 12, 0, -30, -2, -68, 11, -12, -2, 46, -30, 24, -10, 42, 28, 15, -30, 14, -40, 1, -13, -37, -53, 18, -15, -64, -11, -4, -39, -10, -28, 8, 15, 47, 2, -12, 28, 22, 4, -51, 2, 5, 18, 22, 36, -23, -20, 4, 8, 32, -30, -28, 11, 20, -28, 7, 12, -46, -19, 5, -3, 43, 30, 9, 16},
  {1, -39, 1, -29, 57, 10, -21, 18, -18, -23, 6, 9, -38, 38, -7, -3, -14, 2, -14, 8, -23, -15, 37, 7, -4, -2, 2, -35, -2, -39, -7, -9, 34, -8, -22, 9, 20, -35, 1, 17, 54, -7, 2, 7, -8, -25, 12, -7, 10, -34, -21, 7, -45, 33, 3, -14, 55, 31, 27, -14, -17, -19, 16, -8, -4, -41, -48, 39, 31, 26, 8, 18, 23, 24, -30, -11, 36, -6, 12, 15, -2, 10, 38, 26, -32, -37, -42, -43, 7, -62, -27, -38, 20, 17, 18, -69, 40, -22, 51, -3, -10, -63, 14, -45, 6, -23, 4, 40, 18, 35, 15, 8, 8, -19, -11, 47, 28, 13, -6, -69, 2, -10, -18, 6, -3, -15, -12, 25, -15, -40, -45, -34, -6, 39, 16, 8, 13, -20, 19, -4, -45, 21, -31, -4, -45, -9, -7, 20, -33, -52},
  {-31, -17, -26, 24, -44, -33, -9, -2, 6, 20, -4, -13, 4, -42, -11, -14, 17, -16, 23, 10, 40, -3, -61, -40, -6, -13, -6, -13, -33, 4, 24, -18, -19, 4, -5, 16, -29, -24, 1, -37, -15, -35, -41, -30, 48, -6, -6, -35, -9, -15, -16, -24, 3, -5, 41, -35, -22, 17, 14, 23, 8, 21, -17, 32, 52, -45, 26, -32, 6, -33, -18, -22, -68, 12, -22, 6, 12, 13, -13, -11, -15, 0, -56, -90, 18, 11, 31, 42, 23, -34, 9, -38, 35, -37, 50, 16, -23, -2, -32, -14, -9, 7, -6, 38, -42, 31, 12, -1, 77, -4, -71, -22, 41, 43, -17, -18, -14, -73, -8, 26, -19, 14, -11, -44, 22, 1, -21, 44, -70, -12, 22, 10, -85, 5, 1, 25, -3, 6, -10, -12, 14, 33, -40, -47, -14, 1, 10, -9, -27, -24},
  {11, -15, 25, -34, 34, 3, -3, -36, -33, -15, -57, -42, -11, 0, -10, 44, 6, -8, 5, 6, 38, -38, 6, 19, -18, -6, -11, -3, -49, -39, 11, -23, 28, -45, -11, 23, -6, -2, -1, -20, 30, -6, 2, -30, -18, 22, -27, -2, -34, 1, -31, 22, 21, 70, -44, -24, -23, 44, -27, -31, 9, -66, -49, -22, 17, -9, -15, -27, -44, -14, -32, -47, -2, 24, -25, -4, 18, -5, -40, 3, 10, 59, -46, -9, -4, 13, -53, 8, -41, -3, -7, -16, -70, -31, 59, -41, -47, 35, 2, -32, 4, 6, -30, 16, -6, 2, -9, 6, 26, -58, 3, -10, -53, -3, -21, 10, -41, -23, -54, -27, 19, 1, -39, -32, -2, -26, -60, -46, -36, -39, -24, -15, 7, 28, -71, 9, 9, -25, 57, -11, -12, -75, -59, -5, 17, 8, 22, -22, 21, -27},
  {24, 30, -69, -27, 32, -56, -21, 39, -26, -119, -24, -38, -11, -1, -37, -51, -10, -18, -8, 19, -81, -6, 16, -28, -12, -17, -7, -25, 0, 13, -65, 16, 48, 28, 38, -12, 4, 31, 2, -15, -12, -30, 19, -1, 14, -10, -49, -13, -15, 15, -7, 3, -75, -30, -4, 16, -4, -38, -33, 20, 13, 17, 7, -23, -18, -4, -6, -97, 42, -22, 35, 50, 19, -43, 6, -20, 11, 29, 21, -44, -10, 17, -47, 12, -37, -7, 31, -39, -34, -19, -3, -18, 62, -2, 1, 24, 56, -17, 27, 42, -42, 13, -31, -27, 0, 5, 9, -35, -59, 15, 15, -30, -44, -18, -12, -58, 16, 5, 32, -6, -13, -76, -20, -9, 6, 17, 4, 2, -7, -49, -20, 7, -41, 12, -22, 5, -16, -33, 3, -5, -3, -18, -16, 49, -31, -1, -10, 17, -54, -2},
  {-60, -10, -15, -43, -18, -10, 9, 20, -18, -6, -50, 26, -42, 8, 27, -44, 8, 20, 10, 3, -12, 22, 7, -10, -25, -49, -4, 23, -31, 9, 11, 20, 35, 21, -57, -56, -13, 2, -24, 2, -22, -19, 11, 1, -36, -26, -40, -36, 32, -31, 35, -31, -14, -84, -16, -8, -13, 15, -15, 27, -4, -34, -1, -18, -28, 18, -9, -17, 12, -7, -39, 36, -27, -49, -6, 14, -4, -54, 26, -37, -42, -72, 9, -4, 8, -40, 2, -55, -4, -23, 8, 19, 3, 18, -14, -13, -3, -57, -38, -18, -49, 10, 2, 1, -3, -16, -34, 12, -7, -18, -3, -16, 5, -21, 29, -59, -20, -25, -22, -24, 1, 5, -16, -53, -23, -8, -9, -37, 6, 36, -29, 12, -23, -22, 6, 1, -44, -48, -23, -8, 43, -33, 11, -8, -86, -2, -20, -64, 45, -51},
  {7, 10, 26, 20, -55, -21, -15, -7, -38, -21, 10, 7, -33, 34, 15, 12, -44, -19, 35, -17, 4, -35, -25, 38, -35, -15, 27, 23, -24, 20, 10, 16, -39, -17, -15, -21, -36, -30, -19, 6, 14, 12, -24, -26, -1, 26, 9, -8, -53, 44, -7, 42, -16, 19, 29, 3, -5, 11, -53, -19, -36, -34, 28, -19, 14, -26, 3, 47, -54, 7, 1, 12, 28, -44, -3, -35, -29, 25, 8, 6, 23, 12, -34, 5, 34, 29, -33, -10, 19, 10, -64, 7, -25, 29, 24, 39, -3, 34, -14, 35, -43, 4, -12, -9, -38, -7, 19, 18, 26, -24, -23, -15, 44, 16, -35, -22, 41, 25, 0, -6, -25, 26, -2, 23, 17, -13, -4, -5, 8, -6, -10, 14, 21, -8, -60, 44, -37, -24, 2, 15, -12, -5, -50, -10, -10, 17, -15, -16, -48, -26},
  {-3, -20, 9, 12, 13, -12, -26, -40, -32, -19, 23, -30, -19, -38, 41, 24, -11, -14, 37, 33, -6, -66, 2, 22, -9, -49, -41, -9, -42, -17, -37, -18, -22, 19, 4, 61, -12, 5, 79, -16, 6, 4, 47, -18, 21, -43, 21, -17, -47, -18, 35, 4, 35, -41, 57, 23, -12, -20, -21, -14, -20, 3, 7, -3, 29, -8, -1, -10, -51, 28, -68, -23, 10, 26, -5, 20, 5, 16, 11, 15, 9, 40, 1, 4, 5, -11, -16, 36, 11, -57, 36, 16, -19, -47, 35, -5, -26, 26, -4, 25, 22, -47, -16, -41, -40, -12, -18, -36, 41, 1, 40, -19, 36, -26, -26, -6, 22, 48, 23, -24, -50, -5, -2, 11, 15, -27, -55, -19, -63, -9, 28, 15, -12, -8, -9, -18, -6, 22, -58, -10, 25, 18, -20, -15, -1, -5, 33, -32, -34, -15},
  {22, 22, 0, -50, 37, -25, -12, -40, -99, -21, -20, -16, -1, -1, 4, -48, -39, -19, 26, 46, -9, -29, -2, 50, -32, -2, -20, -27, -1, 9, -69, 20, 10, 3, -63, -17, -8, 16, -35, -23, -66, 28, 20, -25, -17, 2, -4, -31, 14, -23, 21, -4, -28, -5, 5, -53, 12, -17, 41, 21, 28, -15, 25, 4, 35, -8, 21, -14, -21, 33, -35, -16, 32, -17, 26, -42, 12, 27, -43, 35, 3, -34, 15, 17, -49, -9, -51, -38, 1, -32, 19, -4, 19, -36, 28, 5, -24, 8, -1, -46, 26, 7, -13, -45, -9, 15, 12, 8, 32, 5, 28, -24, 3, 25, -4, -7, -51, 5, 0, -11, 31, -63, 16, -62, -28, -2, -16, -86, 12, -64, -28, -26, 30, 8, -11, -5, 37, 44, 7, 8, -8, 30, 9, 30, 1, 0, -9, -2, -10, 2},
  {-1, -17, -3, 19, 13, 4, -4, 55, -4, -10, 17, -13, 29, -29, 10, 7, 22, -1, -3, 2, -90, 5, -57, -29, -20, -7, -28, 7, -51, -5, -27, 13, -3, 22, -36, 27, 16, -23, -28, -28, -47, 20, -94, -54, 19, -70, 10, -15, -36, -13, -12, -30, -12, 19, -23, -2, 18, -72, 10, 12, 1, 26, 31, -52, -17, 2, -25, 12, -8, 1, -3, 15, 21, 42, -1, -11, 73, 24, 19, -3, -26, -1, 23, 5, 16, -38, 8, -29, 13, 44, -34, -52, -35, -41, 3, 11, -23, -27, 43, 1, -11, -11, -86, -34, -9, -88, 0, -5, 20, 18, -49, 30, 3, 39, -26, -72, -11, 43, 19, -18, 37, 49, -15, 28, -63, -16, 30, 32, -19, 9, 44, -48, -26, -30, -20, -7, 1, 15, 9, -15, -27, -21, -6, 13, -48, 27, -72, 39, 37, 24},
  {10, 4, 20, -24, -30, 49, 15, 36, -57, -32, -8, -13, -8, 3, -58, 21, 27, 21, -33, -27, 17, 16, 29, 3, -11, 24, -51, -53, -34, -7, 5, -62, -13, -27, -16, -34, 6, -70, 17, 8, 19, -37, 0, -7, -21, -18, 29, -44, 21, 8, 26, 54, -13, 0, -2, -14, -14, -21, -19, 12, -57, -7, 8, 5, -1, -2, -25, -35, 24, 40, -43, 33, 25, -8, -45, 9, -6, -21, -17, -32, 10, -1, -97, 12, 38, -29, -45, 32, -55, -54, -28, -11, -6, -64, 4, -20, 17, -12, 1, -24, -20, -35, -25, -29, 1, 55, 17, -27, -3, 29, -10, 6, -39, -55, -42, -9, -22, 39, 3, 6, 2, -23, -19, 1, 30, -23, -84, 30, 13, 4, -21, -17, 31, 39, -25, 26, 47, -23, 18, -10, 57, -20, -3, 14, 20, 32, -3, 42, -65, -22},
  {-34, 24, -13, 33, 16, -35, -1, 31, -15, -4, -37, 9, 7, 38, -29, 38, -8, -41, 16, -25, -49, 25, -34, -58, 1, 15, -42, -2, -14, 4, -57, 19, 28, 2, -12, -42, -1, 30, -4, 0, -29, -29, 11, -23, 20, -10, -7, -6, 10, -38, -13, 38, -36, -7, 31, -15, -37, -6, 10, -9, 1, 13, 1, -3, -2, 16, 45, -7, -29, -6, 40, 25, -59, -11, 2, -30, -51, 4, 9, -5, 13, 3, -10, 17, -3, 22, -13, 32, -3, -2, -10, -17, 16, -15, -37, -21, -33, 38, -16, 5, 14, 3, 13, 20, -15, 35, -27, -9, -52, -54, 20, -24, 12, 30, -24, 11, 5, -35, 16, -4, 1, 34, 16, 14, -9, -73, 7, 39, 31, -13, 1, 2, -16, -13, -15, -14, 13, 2, -65, -36, -26, 37, 9, -2, -23, 28, 10, -4, -30, -25},
  {52, 15, -10, 2, -26, -3, 7, -6, -46, 26, -2, 38, -8, -23, 28, -11, -33, 19, -56, -19, -19, -23, -41, -19, 15, -33, 15, -38, 33, -16, -14, 27, -19, 35, -5, 12, -46, 67, 0, 38, -24, -12, 21, 4, -19, 28, 33, 28, 30, 9, 27, 54, -18, -23, 53, -14, -9, -17, -7, 9, -23, 18, 3, 1, -16, 37, -13, 0, -34, -11, 25, 12, 15, -29, -3, 22, 22, -24, -50, -20, -43, -13, 15, 46, 15, 12, 17, -13, 20, 2, 6, -24, 27, -46, 3, 7, -4, 18, -13, -30, -25, -44, 11, -4, -26, 35, 12, -64, 15, 14, 62, -13, -27, 10, -26, 52, -59, -16, 6, 71, 1, -15, -4, 13, -25, 1, 26, -50, 19, -45, 6, -27, 15, 40, -10, 39, -9, 25, 12, 0, -15, 10, -8, -38, -37, -42, -3, 6, 46, -30},
  {16, -29, 14, 13, 46, 34, -32, -1, -47, -64, -10, 40, -19, 29, -53, -8, 7, 10, -38, 27, -73, 2, 41, 62, 8, 10, -6, 14, -7, -19, -32, -54, 27, -30, -63, -66, -15, -18, -28, -17, -32, 5, 49, -18, 4, -14, -44, -48, -22, -23, 4, -11, -67, -4, -20, 4, -18, -2, 22, -10, 11, 18, 28, -10, -6, -8, -44, -45, -20, 38, 25, 9, 10, -14, 9, 10, 15, 35, -22, -4, -3, 4, -39, 13, 5, -4, -7, -3, -58, 2, -3, -8, -5, -55, -30, 10, -5, 11, 30, -19, 11, -37, -11, -7, -30, 6, 54, 14, 26, 11, 17, -21, 7, 64, -25, -55, -3, 36, 33, 23, 42, -6, 7, 4, 6, 17, -55, -6, -19, -56, -34, -1, -7, -30, -17, 22, 24, -29, -19, 23, -2, -29, -12, 9, 19, 13, 12, -3, -65, -22},
  {44, 12, 24, -7, 13, -38, 27, 29, -9, 23, -45, 14, -8, 36, -48, -2, -8, 41, -11, -67, -49, -74, 8, 28, -18, -7, 9, -2, 25, -34, -9, -8, -40, -18, -33, -1, 42, 23, -44, 0, -17, -2, -4, -52, -2, -13, 12, -42, -9, 31, 2, 39, -15, -3, -25, 15, -61, -32, -29, 41, -42, -10, 13, 27, 34, 3, 0, -13, -11, -18, 21, -50, -39, -3, 17, -11, -57, 3, -10, 19, 3, 11, -19, 26, 17, -4, 7, -17, -37, 18, -7, 10, 20, -10, 46, 19, -36, 24, -39, 24, -13, -21, -1, 63, -5, 7, 41, 4, 4, -61, -2, 19, -31, 10, 5, -9, 12, -16, -27, -30, 19, 25, 1, 23, -22, -24, -21, -2, 10, -7, -5, 62, -28, -24, -45, 23, -63, -32, -27, -9, -40, 17, -35, -18, 7, -34, 9, -40, -12, 20},
  {-27, 28, -20, 8, 24, -22, -23, 7, -55, -8, 15, 14, -60, 5, -38, -72, -70, -31, 8, 21, -46, 26, 44, 13, -19, -11, -12, -39, 20, 3, -27, 21, -31, -10, 9, -10, 12, 61, 26, -9, -61, -8, 14, 35, -13, -23, 11, 16, 23, -59, -8, 11, -59, -20, -2, -10, -24, -34, 6, 36, 13, 16, 2, -15, 23, -73, 6, 6, 40, -28, 2, 3, 13, -82, -17, -68, -33, -28, 21, -93, 37, 23, -37, 21, -41, 4, 12, 8, -16, -29, -25, 2, 21, 46, -18, 18, 9, 25, -7, 30, 2, 26, -15, -7, 23, 10, 12, -19, 11, -21, -1, -31, 21, 18, 4, -46, 35, 26, -19, -6, -3, 29, -2, 0, -49, 22, -39, -65, -29, 33, -42, 24, 14, -33, 9, -12, -50, 4, 25, -4, -1, 18, -29, -9, 23, 21, 19, 55, -9, 2},
  {-31, -30, 46, -25, 39, 30, 56, 36, 5, 3, 10, -7, 10, 46, -26, 40, 15, 17, -7, 31, 26, 0, 3, 35, -1, 19, -13, 4, -44, -15, 3, -50, -56, -58, -6, -11, -12, -38, 11, -2, 30, 26, 4, -36, -27, -26, 2, -24, 22, -32, 18, 31, 37, 28, 28, 24, 16, -6, 2, -35, -25, 6, 49, -17, -28, 17, -30, -11, -9, 10, -8, 10, 32, 23, 12, 13, -13, -16, -14, -33, 8, 18, -29, -6, -1, -14, -44, -1, -19, -20, -23, -42, -13, -22, 6, 28, -69, 14, 3, -24, 3, 1, -37, 8, 5, 17, 5, -15, 35, 44, -51, -33, -53, 4, 0, -15, 28, 38, 10, -55, -12, -18, -22, -17, 1, 55, -46, 4, 1, 1, -21, -38, 21, -4, -41, -37, -4, 7, 45, -32, 0, 7, -15, 29, -22, -55, -9, -8, -21, 21},
  {18, -4, -13, 15, -16, -2, 17, -30, 73, 5, -49, 41, -12, 14, 7, -51, -48, -42, 21, -2, -103, 23, 18, 4, 2, -56, 5, -25, 18, 7, 23, -22, 13, 2, -35, -47, 27, -18, 59, 16, 19, -4, -69, 24, -19, -40, 0, 3, -7, 13, -14, -40, 7, -59, -39, 44, -8, -15, -19, 38, 2, 35, 34, 9, 5, 8, -46, 25, 10, -6, 10, -20, 22, 3, -14, 34, -7, 18, -34, -1, 8, -35, 8, 17, 6, -31, -31, -69, 17, 4, -4, -25, -4, 1, -13, 0, -86, -101, -25, 5, -25, -2, 0, -21, 8, -7, -3, -59, -51, 6, 3, 13, -75, -42, -15, -7, -6, 25, 44, 7, 1, -32, -6, 34, -20, 41, 43, 27, -36, 33, 33, 5, 13, -30, 11, 2, -63, 2, -36, 13, 0, -44, 34, -23, -7, -31, -48, -41, 15, -48},
  {21, 15, -38, -11, -21, 5, -15, 12, 14, -6, -32, -21, -44, 16, -12, -42, -29, -22, -17, -24, 8, -5, -11, -20, -35, 16, 19, 24, 21, -15, -22, -14, 27, -3, -1, -6, 26, -12, 14, 9, 12, -32, 10, 20, -17, -8, -6, -25, -18, -10, 55, -63, 5, -3, -27, -16, 13, 6, -10, 38, -39, 13, -22, -26, -53, 30, -31, -59, -5, -10, -14, 26, 38, -19, 22, -10, -18, 39, 10, -57, 12, -10, -30, 14, -6, 28, -12, -34, -13, 36, -22, -22, -41, -22, -4, 1, -21, -30, 24, -2, -30, -42, -28, -18, 10, 0, -3, -25, -41, 4, -7, -49, -11, -32, -51, 6, -22, 23, -31, -12, 14, -20, -13, 22, 17, 28, -1, -17, -8, -1, 20, -5, -14, -28, 16, 38, -7, -31, -30, -6, -21, -9, -42, -14, -40, -42, 8, -18, -35, 2},
  {-59, 5, -13, 14, -26, -14, -1, -32, 28, -57, 22, -21, 43, -3, -7, -42, 18, -18, 33, -18, -10, 45, 23, -16, -17, 3, 39, -1, 7, -9, -27, 16, 1, 20, -26, 15, 3, 19, 13, -2, 6, -7, -28, 23, 9, -15, -36, 28, -37, -8, 11, -59, -63, -8, 4, 23, 21, -40, -17, -22, 45, 5, 25, 16, -27, 19, -18, -79, -1, -25, -28, -42, -13, -39, 4, 26, -51, -40, -36, 19, 24, 7, -20, -80, -18, -2, -41, -36, 26, -4, 16, -24, 24, -6, -6, 13, -48, -22, -56, 21, -32, -21, 41, 29, -63, 4, -5, -30, -22, -30, 20, 44, 14, 28, 15, -16, -19, -39, 6, -25, 21, -19, -46, -52, -7, 39, 46, -29, -12, 21, -22, 17, -48, -58, -3, -10, -30, -28, 27, -17, 39, -51, 22, -23, -5, 22, -16, -92, 0, -14},
  {14, -19, -2, 32, 36, 17, 5, 32, -36, 33, -2, -15, -8, -33, -59, 6, 43, -38, 62, 10, -37, 21, -6, -8, -12, 7, 8, -11, 25, -36, 31, 8, -4, 17, 2, 33, -38, -28, 9, -7, 7, -31, -28, 9, -10, -15, 20, -11, 8, -26, 32, 4, 39, 15, -16, 42, 2, -28, 17, -40, -12, 75, 0, -31, 0, -23, 25, -18, 18, -97, 24, -27, 15, -33, -3, 1, -42, 6, 33, 8, -36, 29, -43, 23, 22, -58, -7, 37, 41, -7, 1, 0, 8, -27, 11, 22, 16, 31, -40, 49, 24, 0, -15, 25, -23, 5, 31, 21, 25, 21, -46, 1, 14, 11, -40, -66, -19, -20, -45, 2, -20, 12, 13, -22, -11, 9, -47, 75, -17, -43, 58, 70, 29, -3, -18, 0, -77, -11, -15, 11, 29, -25, -16, -16, -15, -53, -14, -32, 22, -35},
  {-33, 17, -14, 23, -37, 3, 35, 7, 24, -58, 2, -25, 42, 25, -81, 26, 43, 48, -19, 28, 23, 6, 8, 11, 15, 41, -52, -7, -15, -14, 47, -10, 11, 14, 15, -61, 3, -3, 14, -28, -28, 2, -24, -54, 19, -8, 3, 36, 6, -25, -49, 55, -24, 13, -29, 8, 8, -18, -19, -21, -114, 37, -29, 15, 18, -12, 4, 34, 57, -34, -38, 13, 14, -27, 6, -88, -15, -4, 44, 34, -1, 24, 0, -65, 3, -5, -23, 32, -22, -11, -59, 13, -14, -54, 17, -11, -13, 60, -33, 64, 13, 5, -44, -14, -29, 58, 17, -48, -18, -32, -15, -14, -24, -27, 46, -11, -2, 24, -20, -13, -16, 35, -20, -1, 2, 36, -23, 24, -14, -37, -59, -24, 0, -7, 20, -44, -40, 3, -25, -14, -14, -29, 14, 48, 21, 24, -11, -7, -8, -4},
  {-15, -10, -18, -25, 16, -69, -13, 21, -15, -26, -28, 10, -28, -12, -24, -46, 4, 34, -11, -27, 1, 8, -16, 23, -22, 13, 4, 32, -43, -2, 29, 12, 15, -24, -51, -45, -98, 12, 50, -14, -16, -25, -3, 23, -22, -12, -18, -20, 30, -27, 7, -7, -14, -38, -8, 27, -17, -28, 23, 14, 5, 19, -15, -36, -14, 1, -29, -24, -55, 17, -47, 5, -11, -39, -33, 45, -3, -1, 38, -22, -51, -43, 5, -22, 2, -38, 13, 4, -2, 8, -33, -32, -80, -12, -7, 28, -35, -32, -7, 42, -55, 27, 14, 5, -12, -18, -17, -19, -49, 26, -45, -23, -17, -80, 52, -20, 9, 43, -1, 78, 64, -41, -12, 0, -4, 29, 14, 14, -5, -1, -44, 26, 69, 6, 32, 29, -12, 17, -26, -20, 0, -39, 23, -1, -26, -50, -29, -74, 37, 8},
  {7, -27, -26, -121, 29, 20, -45, 0, 17, -18, -32, 20, -57, 6, 20, 13, 13, 3, 3, -20, 19, 12, 12, 17, -28, 14, 3, 41, -8, -54, -26, -17, 13, -49, -2, 7, -18, -31, -43, 7, 86, 21, 18, 15, -27, 28, -9, -73, -13, -25, -19, 10, 46, 53, -39, -21, 7, 13, -25, 0, 7, -39, -19, -10, -1, 24, -24, -40, 13, 9, 19, -42, 31, 26, -32, -53, 33, 35, -9, 9, 27, 31, -63, -4, -34, 15, -19, -27, -18, -7, -30, -12, -12, 21, -51, -36, 37, 15, 48, -18, 14, -24, 10, -5, -17, -27, 25, 60, -48, 10, 14, -48, -4, 19, -43, -9, -1, 8, -68, -44, 4, -17, -13, 20, 41, -42, -44, -97, -47, -33, -10, 15, -70, 51, 17, -4, 11, -17, -22, 18, -34, -38, -63, -25, -26, 5, 26, -6, -34, -38},
  {1, -11, -17, -41, 8, 4, 26, 26, 9, -7, 5, 9, 1, -31, 11, -61, -56, 13, -9, -8, -40, -36, -32, -41, 14, -43, 8, -36, -37, 45, -12, 40, 20, 46, -23, -37, 22, -59, -36, -24, 11, -10, 26, -67, 11, -14, -15, -13, -26, -29, -7, -4, 11, 3, -9, -60, -6, -18, -42, 1, 10, 31, 36, -24, -30, 8, -34, 22, -48, 23, -42, 25, 49, -8, -9, -48, 16, 13, -14, -13, -31, 4, -1, -6, 27, -28, 67, -48, -32, 16, 8, -82, 34, -22, 22, 24, -32, 9, -14, -13, -9, 2, -22, 6, 28, -64, 2, -7, 13, 2, -53, 23, 17, 37, -26, -16, -2, 24, 40, -15, -11, 28, -5, -51, -23, -48, 24, -3, 24, -13, 21, 18, 4, -44, -4, -7, 32, 27, 18, -39, 42, 0, 26, -11, -25, 36, -32, -5, 15, 4},
  {-42, -38, -4, 20, 4, -11, -27, 53, 21, -18, -54, -48, -26, 2, -11, 11, -1, 24, -4, 15, 23, -22, 10, 18, 6, -38, -34, -10, 5, 42, -37, 13, -14, 23, 8, -19, -33, 12, 25, 10, -24, 51, 3, -31, 18, 22, 19, 22, -26, -16, 18, 13, -6, 29, 41, -36, -2, 15, 26, -7, -4, -35, 49, 20, 25, -19, 45, -15, -29, -26, -15, -59, -11, -2, 25, -9, -8, 13, -3, 23, -37, 24, -27, -7, -45, 5, -38, -28, 66, -37, 8, 21, -5, -45, 12, 40, -7, 6, 13, 56, 16, 16, -30, -7, -23, -29, 27, 37, -20, -28, 25, -17, 1, 5, 32, -34, 29, 24, 2, -3, -16, -38, 10, -17, -24, -28, 39, 3, 1, 2, 28, 16, 72, -17, 18, -7, -34, -5, 33, 29, -66, 39, 4, -39, 8, -1, 40, 4, 0, -7},
  {-34, 27, -22, 6, 27, -3, -11, 4, 0, -43, -61, -59, 4, 11, -2, -11, 68, 7, -37, 17, 1, -39, -4, -16, -32, -5, 27, 70, -1, 17, 15, -23, 2, 24, 2, -29, 18, -18, -28, -47, 18, -12, 11, -19, -13, -35, -27, -31, 21, -30, -24, 8, -62, 72, 29, -3, -5, -14, -22, -28, 39, -22, -10, 7, -32, -19, 15, -16, -31, -50, -8, -13, -3, -42, -1, 39, -25, 16, 34, 21, -11, -20, 15, 3, 15, 21, 40, -33, -3, -8, -27, -40, -1, -1, 22, 43, -49, -12, 18, 12, -32, -33, 18, 8, -18, -15, 13, -34, 16, 5, -39, -61, 36, -17, 8, -21, -12, -21, -58, 2, -28, -14, -19, -34, -53, -44, -14, -18, 12, 2, -24, 35, -18, -16, -24, 11, -15, -27, -10, 20, 46, -11, -23, 5, 6, 38, 0, -34, -4, -26},
  {-8, 60, -6, -29, -26, -7, -31, 35, -53, 27, 11, 7, -13, 16, -1, -18, -6, 10, 4, -21, -22, -10, 44, -11, -13, -12, -13, -48, 25, 12, 5, 10, 20, 3, 17, 16, 23, -44, 19, -26, 22, -18, -23, 30, 10, -3, 34, 37, -19, -11, -8, 29, 21, 48, -62, 25, 23, -1, -29, -6, -77, -10, 36, 39, -21, -57, -32, 23, 35, 2, -36, 25, -8, -57, -2, -74, -56, 21, 26, -32, 25, 26, -4, -5, 27, -36, -13, -2, -26, -11, -33, -46, 25, 19, 3, -35, 25, -47, 32, -1, -7, -1, -51, -17, 5, 25, -10, -8, 9, 9, 10, 20, -15, -18, 16, 22, 14, -16, -36, 18, -24, 2, -24, 0, -4, 24, -30, 7, -36, 32, -56, -2, -19, 18, 32, -25, -25, -64, 45, -15, 47, 10, 7, 40, 10, 10, -24, 48, -7, 25},
  {-37, -12, -32, 2, 13, -16, 53, -42, -21, 8, 15, 20, -10, -3, 8, -8, 15, 11, 27, -7, -6, -11, -2, 6, 10, -28, 3, -3, -12, 13, 61, 10, -5, -17, -54, -18, 6, 8, 8, 3, -3, 17, 12, -30, 12, -8, -12, -15, 18, -23, -29, 66, 10, -5, 43, -24, 6, -19, 34, -23, 23, -92, -19, 25, 29, 26, 77, -31, -43, -49, -38, -46, -47, -30, -9, 25, 19, -12, 19, -2, -14, 23, -3, -39, 31, -6, -29, 76, 29, -15, 17, 22, -78, 12, 17, -18, -33, 53, -80, 5, -2, -26, -34, -12, 22, 43, -1, 27, -3, 16, -23, 16, 21, -19, -33, 4, -32, 5, -40, 17, -43, -14, -11, 7, -7, -27, -22, 29, 4, -3, -33, 59, -39, 12, -28, 21, -40, 26, -7, 30, -19, 24, -13, -43, -37, 7, 50, -17, -58, 18},
  {-16, 42, -6, 68, 13, -2, 15, 29, -10, -27, -8, -4, -32, 29, -40, 9, -4, -17, -6, 34, 9, 76, 22, -2, 5, 41, 13, -6, 6, -61, 64, -32, 17, -24, -24, -4, -16, -10, 49, 29, -36, 1, -1, -44, -12, -62, 18, 33, 64, -21, 2, 9, 5, 43, 17, 32, -11, 44, 15, -16, -49, -46, 24, 11, 12, 15, -3, -1, 50, 12, -29, 33, -14, -86, -9, -77, -40, -28, 15, -18, 14, 14, -65, -8, 50, -8, 0, 13, 5, -7, -36, 11, -48, 14, 13, 23, 6, 53, -38, 4, 16, -5, -35, 43, -25, 17, -2, -37, 4, -18, -11, -21, -6, 0, -9, -38, 61, -24, -15, 13, -24, -9, -39, -28, 15, 34, -36, -21, 17, -27, -36, -7, 24, -43, -4, -55, -23, -5, -53, -4, -45, -1, -39, 23, 36, 38, 29, -4, -84, 49},
  {-26, 30, -42, -45, 17, -29, 31, -9, -44, -20, -17, -5, -11, -6, -14, 26, -34, -7, -21, 32, -46, -26, 3, -16, 6, -74, -10, 14, 14, 26, -57, 51, -48, 45, 50, 2, -3, 18, -11, -8, -25, -1, -41, -45, 19, 19, -26, 0, -34, -23, 17, 6, -22, 13, 28, -29, 5, 1, 22, 15, 7, 17, 34, 41, -7, 3, 8, 3, 2, -16, 26, 3, 1, -22, -4, -9, 9, -10, 6, 22, -41, -48, 8, 17, -10, 5, -41, -24, -11, -47, -7, 2, 12, 22, 4, -12, 1, -75, -37, 16, -1, -31, 11, -3, -18, -91, 6, 34, -25, -27, 24, 17, 13, -20, -9, 30, -35, -24, 18, -11, -56, 26, 1, -2, -53, -44, 12, 8, -11, 1, 10, 5, -30, -11, 57, 6, 47, 11, -24, -5, -30, -4, -4, -5, -40, -18, -13, -35, -6, -31},
  {-25, 25, 31, -28, -49, -5, -52, -51, -22, -17, 26, 5, 25, 28, 7, 25, -47, -18, -7, 38, 39, -47, 29, 42, -2, 8, -47, 5, -18, -8, -31, 12, -63, -33, 12, 10, 4, 6, 52, 29, 4, 3, -22, 24, -10, 22, 31, 51, -14, -36, -8, -3, 8, 40, -4, -11, -61, -6, 50, -34, -19, -78, 17, 41, -35, -57, -11, 31, -9, -32, 13, -12, 70, 8, -33, -1, -33, 10, -11, 35, 11, 48, 3, 19, -9, 25, -27, -26, 9, 21, -17, -13, 21, -4, 92, -12, 6, 34, 23, 32, 30, -5, -20, 18, -9, 28, 5, 28, 46, -13, -29, 40, -10, -4, 4, -3, -3, -92, 14, -43, 15, -35, -17, -24, -9, -90, 0, -27, -59, 3, -2, -3, 22, -7, 36, -30, -23, 26, 15, 4, -8, 25, -33, -8, 45, -3, 16, 40, -64, -4},
  {13, 28, -9, -3, 14, -28, -5, -45, 23, 6, 0, -32, -41, -3, 0, -12, 23, -12, 10, 19, 3, 34, 39, 28, 30, -9, 38, -7, 1, -7, 9, -79, -8, -54, 7, -25, 6, 22, -22, -50, -39, -11, -13, 5, -40, -14, -18, 5, 66, -11, -18, -22, -27, 24, 32, -5, 15, -21, 18, -29, -30, 38, -11, 28, 2, 19, 6, 19, 20, 56, -19, 69, -23, 21, -7, -18, -65, -36, 39, -49, -30, 19, 10, -6, -19, 27, 28, -34, -22, 9, 9, -5, 45, -21, -8, -18, -31, 40, -38, -33, -61, -11, -23, 12, -23, -14, 5, -10, -37, -36, 70, -21, -16, 21, -25, -35, 24, 26, 25, -2, -22, -77, 0, -7, 24, -5, -26, 19, 24, -26, -96, -40, 33, -2, 29, 9, 41, -27, -32, 7, -2, -29, -22, 14, 0, 24, -2, -3, -62, -42},
  {-23, 1, 23, -33, 16, 8, 0, -24, 19, -5, 8, -57, -53, -60, 6, 13, 2, -20, 55, 34, -4, -35, 38, -9, -2, 2, -66, -40, -50, -2, 18, 36, -30, -4, -4, -1, 7, -30, 23, 32, -37, 15, -69, -12, 24, -29, 11, -35, -65, 21, 33, -4, -18, 8, -8, -56, -33, -12, 3, -6, -57, -19, -15, 12, -1, -59, -44, -19, -49, 21, 61, 29, -7, -23, 18, 12, -36, -23, -38, 35, 32, -40, -8, -10, -7, -17, -23, -34, 49, 22, 13, 15, -10, -54, 8, 22, -19, -23, 12, 26, 5, -6, 33, 10, -6, -3, -7, -25, 3, 34, -24, -42, -26, 29, -29, -4, -32, -26, -10, -32, -25, -3, -29, -13, -36, 16, 16, -4, 2, 37, -4, 20, -1, -67, -27, 39, 11, 3, 17, 10, -32, 21, 37, -2, -46, -5, 10, -36, -60, -9},
  {-32, -9, 18, 0, 6, 36, 39, -67, 30, -10, 9, -22, 18, 27, -1, -37, -58, -34, 3, 25, -51, -29, 53, 9, 0, 25, -94, -67, -13, 24, -21, 3, 23, 3, -10, 13, 19, -30, 22, 52, 20, 41, 50, 11, 31, 17, 25, -30, 16, 28, 27, -71, -30, 13, -31, -54, 19, 22, -8, 38, -31, 5, 31, -31, -11, -26, -43, 15, 10, 15, 2, 38, 66, 22, -37, 38, 33, 48, -57, 16, -14, 7, -13, 14, -73, -40, -24, -53, -24, -11, -49, -42, 3, -45, -22, 33, -25, -7, 27, -46, 67, 13, -16, -19, 29, -27, 0, 34, 3, 23, 3, -58, 11, -25, -9, -18, 11, 34, -4, -30, 20, -30, -27, 21, 5, 41, -39, 7, -28, -1, 32, -68, -5, -9, -30, 48, -8, -18, 76, 7, 4, -33, 19, 33, -22, -34, -39, 56, 47, 15},
  {-35, -39, -1, -20, -37, -21, -12, -38, -23, -25, 21, 8, -15, -54, 27, -11, 68, 4, -18, 1, -5, -70, -23, -2, 27, -40, 3, -41, -30, 24, -23, -36, -13, 3, -62, -26, 5, 20, 53, 3, -8, 12, -18, -42, 11, -3, -46, -29, -52, 24, 4, -5, 37, 19, 27, -6, -8, 6, 8, 20, -30, 11, 53, 6, 58, -12, 52, 12, -31, -7, 7, -54, -4, 20, 3, -33, 9, 20, -36, 4, 33, 40, -67, -39, -29, -14, -27, 22, 36, 1, 47, 12, 9, -10, 26, -18, -16, 93, -31, -24, -14, -105, -33, -37, -17, -20, -24, -21, 0, 65, 40, -11, 50, -12, -70, -17, -59, 41, -36, 16, 11, -9, -2, -9, 22, 2, -68, -42, -21, -13, 8, 19, 3, 0, 16, -19, -19, 23, -1, -11, -6, 35, -25, -16, -12, -23, 27, -65, -11, 6},
  {-17, 4, 26, 35, 20, 59, 38, -4, 14, -13, 8, 32, -1, -6, 15, -40, -68, -2, -13, -24, -8, -22, 5, 31, 5, -19, -23, -48, 2, 45, 10, -53, 36, -22, -56, -52, 6, -43, 56, 57, -45, -31, -15, 8, -17, -47, 51, 10, -8, 41, -3, -41, 32, -8, -3, 17, 38, -63, -11, 51, -46, 41, 27, -11, -17, -1, -31, -26, 44, 10, 4, 13, 6, -17, 6, 33, -20, 9, -23, -65, 24, -26, -35, 10, 16, -93, 25, -28, 26, -31, -36, -39, 9, -3, -9, 18, -42, -24, 34, -71, -29, -1, -24, -67, 21, -31, 19, -46, -27, 67, 13, 25, -2, -41, -23, 28, -27, 3, 27, 21, -8, 3, -12, 10, 6, 51, -29, 14, 4, 24, -10, -41, 0, -5, 31, 25, -18, 3, -15, -9, 17, -13, 16, 10, -73, -4, -30, 5, -17, -10},
  {-17, 11, -10, -29, 32, -21, -55, 1, -43, 18, -35, -18, -6, 29, -31, -83, -49, -9, -14, -4, -25, -42, 24, 32, 12, -36, 0, -8, 33, 30, -16, -15, 0, -3, 34, -5, 9, 5, 23, 34, -27, -32, -21, 0, -7, -42, 22, 11, 4, 26, 18, -16, -73, -78, 33, 14, 20, -10, -17, 47, 3, 12, 48, -24, 12, 16, 0, -27, -2, 17, 18, -20, 18, -26, -38, -51, -3, -25, -16, -20, -67, -10, -63, 35, -10, -44, -9, -48, 16, -12, -25, -17, 34, -3, -28, -20, 9, -43, 14, 28, -15, -50, -29, -31, -11, 29, -4, -25, 8, 9, 11, -27, -13, -7, -75, 9, -13, 32, 33, -25, 8, 4, 10, -12, -52, 7, 26, -25, 4, -3, -8, 12, -22, 54, 30, -6, 4, 15, -15, -4, -26, 25, 26, -4, -99, 8, 27, 38, 1, -5},
  {23, -24, 8, 2, -15, -8, -25, 27, 3, -53, -37, 5, 58, 30, -11, 27, -7, -42, -41, 6, -2, -4, 24, -3, -38, -27, -36, -19, 27, -23, -26, 16, -1, 21, 6, -30, 1, -9, 28, -10, -29, 14, 8, -19, 32, -1, 8, 36, 1, 20, -13, -8, -25, 16, 5, 45, 27, -68, -1, 29, -30, 52, -8, -19, 2, 49, -38, 47, -29, -11, -17, -39, -42, -39, -29, 43, -43, -42, 12, -49, 14, -47, -39, -6, 58, -15, -24, 13, -46, 24, 15, -47, 8, -19, -19, 24, -9, -6, 3, -41, -80, 30, 1, -64, 2, 29, -24, -68, -54, 28, -6, -29, -28, -76, -5, 28, -88, 15, 16, 17, -21, -46, 30, 51, 6, 26, 11, 28, -13, 13, -33, 17, 40, 4, 13, 17, -11, -40, -3, -42, -31, -42, 40, 33, -48, -13, -18, -39, 25, -69},
  {14, 19, 9, -20, -14, -20, -11, 35, 1, -29, -1, 9, -4, -77, 42, -20, 2, -22, 19, -21, -5, -10, 6, -11, -15, -11, -30, 40, -2, 40, 12, -22, 0, 2, 29, 17, -2, -34, 3, -22, -52, -44, -22, -60, -5, -15, 17, -30, -90, -14, 19, 24, 22, -9, 40, 20, -6, -14, 14, 28, -48, 7, 61, -14, -8, -61, -24, 9, 40, 3, -60, -12, -20, 8, 5, 1, -5, 17, 38, 20, 16, 22, 7, 62, 0, -8, -28, 34, -8, 28, 31, 29, -11, -38, 24, -4, 18, 3, -35, 29, 37, -71, -15, -72, 5, -25, 20, -25, 29, 60, 15, -17, -5, 35, -63, -1, -3, 6, 48, 21, -9, -43, -34, 29, -27, -4, 23, -42, -11, 7, 34, -50, 24, -3, 32, 17, -5, 22, 52, -10, -7, 5, -38, 11, -6, 19, -4, 6, 8, -9},
  {24, 4, -64, 28, -8, -34, 8, 21, -33, -6, -7, -15, 7, -23, -1, 8, -46, -22, -4, 37, -28, -5, -6, 6, -25, -23, 17, 11, -12, 27, -20, 7, -20, 24, 38, 10, -4, 2, -13, -4, -15, -37, 3, -43, 17, 14, 8, 0, -32, -38, 20, 23, -12, 23, 34, 35, -40, 3, 9, 21, -13, -3, -36, -20, 14, 10, 12, -29, -5, -38, 16, -41, 16, 2, 40, -23, -10, -19, -26, 24, -24, 20, -17, -21, 10, -1, -13, -17, -14, -21, 26, 27, 8, -8, -15, -20, -30, -28, -34, -29, -12, 64, 26, -10, 24, -14, -22, -16, -25, -18, -7, 9, -13, -37, 7, -11, -10, -2, 5, -16, -4, 6, -28, 5, -17, -38, -4, 28, 39, 10, -8, 23, -37, 29, 3, -15, -5, 4, -17, 27, -12, -20, -27, -17, 8, -15, 24, -29, 4, -1},
  {6, -36, -7, 46, -23, 21, 37, 34, 5, -17, 20, 17, -8, -30, 3, 28, 33, -20, -61, -35, -26, -32, 15, 24, -18, 47, -19, -17, -32, -14, 12, -20, 17, -11, -27, -21, -6, -31, -15, 6, 7, -57, -2, -25, 33, 8, -33, -11, 6, -28, -24, -10, -38, -25, -26, -43, 27, 5, 26, -11, -5, 44, -28, -45, 7, -25, -40, -13, -19, 25, 21, 9, -10, -19, -27, 8, -16, -13, 2, -52, -16, -25, 0, -23, 13, 20, -1, -4, 2, -28, -15, -24, 5, -14, -16, -18, -13, 18, 8, -16, -12, 30, -9, 10, -27, 44, -13, -19, 4, 17, -63, -1, 26, -32, -17, 11, 0, 7, 29, 38, -32, 24, 7, -48, 31, 39, 3, 28, 33, 24, -26, -12, -18, -38, -13, 11, 27, 13, -43, -31, 35, -24, -42, -9, 26, 1, 21, -76, -28, 19},
  {-17, -28, -9, -43, -48, -43, 17, -18, -18, 71, 15, 18, -6, 18, 50, 5, -29, 21, 2, -8, 35, 8, -2, -38, -14, 13, -53, 7, -26, -9, -17, -9, -55, -11, -50, -13, -89, -22, 7, 5, -60, -3, -10, -10, -58, 10, -12, 5, 49, 1, -7, 25, 7, 2, 94, -22, -34, -20, 1, -14, -2, -19, -17, 11, -14, 5, -8, 13, -11, -2, -39, -10, -2, 41, 6, 21, -38, 1, -16, 2, -52, 2, 32, -23, 62, 13, 52, -40, 18, -40, 2, 27, -1, -21, 17, -39, -21, -10, -15, 11, 52, 24, -39, -1, -2, 45, -34, -11, 34, 6, 1, -40, 18, -22, 19, -13, 7, -26, 17, 9, 22, -5, 1, -11, -20, -4, -53, 28, 8, -12, -2, -21, -21, 12, -7, 23, 18, 31, -36, -23, -31, -53, 28, -14, 13, -5, -48, -44, 16, 6},
  {2, 20, 2, 30, 21, 34, 9, 13, 0, -21, -32, 3, -22, 44, -2, -24, -49, 23, 5, -34, -15, -23, 37, 42, -5, -2, -19, 29, -14, -14, 4, 6, -18, -35, -91, -11, -28, -31, -6, 1, -17, 55, -13, 13, -25, -17, -28, -70, -21, -8, -29, 31, -6, -25, 28, 38, 4, 31, -20, 70, 16, -12, 1, 30, 18, 7, -47, -51, 33, -20, 40, 50, -14, 21, 22, -76, -106, 10, 18, -12, 24, 7, -17, -42, 15, -36, -34, 12, -16, -36, 8, 15, 32, -23, -29, -7, -54, 42, -6, 14, -21, -40, 3, 14, 20, -26, -12, -11, -3, 5, 3, 7, 29, 11, -79, -32, -16, -41, -36, -7, -7, 19, 15, 24, 23, 9, -3, -3, -16, -7, -24, -7, -17, 2, 45, 23, 23, -34, -1, 18, 23, -21, -28, -44, -24, -23, 20, -4, -60, -5},
  {-47, 6, -55, 50, -12, -38, 38, 32, -23, -21, -28, 42, 2, -12, -17, -12, 13, -9, -4, -17, -63, -15, 9, 19, 11, 9, 23, 3, -25, 14, 11, 34, -9, 18, 2, -19, -26, 12, -22, -32, -39, -37, -31, -23, 31, -24, 9, -2, -19, -7, -7, 1, 7, -5, 18, 57, -28, 6, -8, 11, -22, 26, -32, -21, 29, 18, -16, 28, 31, -21, 12, 29, 36, 6, -16, 7, 12, -23, 43, -20, -22, -55, -10, -13, 0, 40, 14, 29, -38, -1, 72, -23, -13, -10, -7, -13, 9, 1, -14, -26, -32, 8, -24, -4, 0, 32, 2, -17, -12, -34, 23, 9, -27, -7, 22, -21, -9, -2, 33, -5, -19, 32, 2, -34, -26, -13, 4, 44, 36, -38, 5, -54, -26, 1, 26, -46, 20, 23, -40, 15, -9, -13, -1, 15, -14, -18, 24, -41, -44, 4},
  {-29, -20, -1, -16, -4, -18, -11, -32, -62, -5, -44, -20, -23, -74, 2, -21, 47, 32, 22, -24, 33, 1, -81, 27, -16, -70, 13, -18, -32, -24, 34, 2, 3, 3, -2, -37, -24, 6, -1, -14, -30, 21, 17, -5, -50, 21, -50, -11, -28, -8, -80, 7, -39, -25, 49, -1, -33, 10, -30, -9, -25, -71, -47, -15, 14, 46, -7, -39, -5, 65, -41, 10, -49, 2, -11, 37, 8, 0, 12, 24, -74, -36, 49, -24, -15, 16, 31, 16, -21, -22, 50, 23, -44, -36, 13, -3, -10, 23, -5, 26, 4, -5, -12, 16, 3, -8, -23, 24, -11, 15, -58, -38, -2, -9, -21, -7, -25, -4, -23, 0, 15, -44, -4, -20, 3, 16, -78, -49, 1, -22, -21, -29, -1, -70, -20, 0, 49, 67, -24, 11, 52, -17, 6, 13, -36, 37, -43, -92, 48, -16},
  {26, -68, -4, -12, 11, -10, 13, 30, -6, 1, -3, -53, 4, -42, 39, 0, 25, -79, -49, -33, -25, -35, 17, 14, 6, 25, -14, 6, -11, 28, -21, 39, 25, -17, 9, -33, 4, -42, -7, 8, -13, -2, -24, -40, 11, 12, -50, -16, -39, -6, 57, -30, -35, -4, -39, 14, 13, -33, 22, 12, 15, 2, 10, -4, -25, 24, -41, -18, -52, -28, 19, 5, -24, 6, -10, -47, 1, 22, 6, 6, 14, -17, -2, 0, -17, 20, -11, -63, -11, -3, -12, -42, -20, -38, 20, -49, -25, 0, 25, -52, -11, -29, 9, -4, -41, -30, 17, 15, 31, -5, -39, -26, -8, 12, -20, 4, -41, 23, 16, -30, 33, 5, -15, -6, -19, 24, 20, -14, -26, -7, -10, -11, -47, -35, -22, -50, 27, 11, -15, -39, -27, 21, 29, 16, -31, 11, -62, 9, 28, 35},
  {-3, 5, -8, 38, 11, -27, 12, 0, 44, -25, -33, -14, 5, 16, -47, 3, -29, 16, -40, -12, -55, -10, 54, 49, -10, 7, -2, -9, 58, 3, 30, -49, -22, 5, -91, -18, -15, -36, 44, -20, 1, 9, -32, 9, -28, -3, 14, -36, -28, 1, 5, -41, 50, -34, -5, 3, -1, -5, -33, 36, 3, 3, 7, 15, -40, 29, -31, -54, 1, -10, -30, 0, -30, -52, 25, 13, -78, 12, 13, -47, 11, -69, -48, 10, 30, -31, -50, 11, -21, -20, 2, -27, 35, 15, -32, 4, -64, -23, 4, 3, -58, -15, 29, -10, 39, 12, 7, -102, -36, 8, -16, 34, -15, -2, 19, -19, -38, -18, -15, 39, -13, -10, -24, -4, 5, 23, 4, 31, 42, -2, -6, 9, 4, -31, -1, -13, -69, -83, -3, -25, 28, -72, 49, -7, -24, 5, 30, -21, -18, -47},
  {-37, -25, -23, -30, 5, -3, -34, 45, -27, 0, -20, 15, -22, -24, -7, -12, -56, 13, -40, -11, -45, 4, -77, -17, 12, -55, 17, -29, -51, 10, -1, 5, 7, -8, -8, 0, 29, -23, -5, 32, -31, -23, -35, -36, 0, -8, 22, 2, -29, -19, 33, 12, -15, -5, -30, -35, 5, -46, -2, -17, -2, -10, 20, 16, -33, -47, -29, 32, -11, 13, -41, -13, -20, -22, 15, -10, -47, -1, 21, -25, -17, -35, 18, 35, 17, -46, 35, 18, -20, -23, 33, 15, 25, 24, -23, 10, -12, 21, -3, 46, -31, 37, -4, -1, -20, -26, 5, -21, -13, 0, 15, 30, 20, 48, 23, -20, -17, 0, 37, -18, -68, 13, -9, -29, 7, -1, -18, 27, -2, -11, 32, 19, 4, 3, 10, 15, 1, 14, 4, -16, 29, -39, 39, -10, -30, 53, -3, -31, 10, -26},
  {-5, 30, 8, -40, -30, -78, -55, 32, 9, 9, 33, -23, -24, -24, -19, 25, -22, -20, 14, 2, 28, -29, 10, -23, -12, -27, 8, 30, -38, -28, -5, -8, -93, 10, 44, 38, 31, -39, 4, 30, 3, -51, -14, -51, 8, -48, -7, -5, -18, -16, -17, 26, 27, 26, -59, -11, -24, 17, 12, -4, 8, -46, 22, 29, 30, -16, -13, -27, -53, -57, 3, -43, -24, 14, -7, 25, -18, -48, 10, 41, -39, 34, 2, 25, -19, 31, -29, -17, 26, -1, -24, 30, -10, 17, 17, -24, 17, 38, 20, 28, 49, 25, 18, 66, -20, -8, 23, 29, 19, -38, -63, 3, 1, -13, 23, -26, -5, -59, -20, -47, -10, 47, -32, -4, -19, -30, -1, -10, 7, -1, 13, 9, 24, 27, 19, -17, 61, 2, 24, -3, -1, 16, 10, -12, 36, 1, 26, 14, -13, 0},
  {-19, -33, 25, -34, -5, -11, 23, -37, -41, -39, 22, -18, -48, -14, 56, 53, 36, -9, -13, 15, -10, -51, -22, 20, 4, -57, 2, -25, -45, 26, -79, 11, -24, 12, -28, 61, 4, -37, 26, -14, -16, 69, -36, -27, 43, -38, -32, -13, -76, 12, 4, -5, 25, 4, 71, 45, -44, -33, 21, -27, 12, 3, -4, -28, 17, -31, 62, 30, -13, -1, -52, -52, 2, 35, -27, -47, 18, 71, 16, 29, 20, 8, 14, 12, -13, -16, -23, 35, 14, -69, 28, 41, -6, -23, 49, -8, -5, 38, -33, -40, 43, -74, -60, -39, -24, -16, 13, 63, 65, 1, -4, -9, 30, 19, -30, 25, 40, -2, -49, -23, 30, -38, -11, -19, -41, -50, 6, -21, -61, -20, 6, 6, 22, 16, -32, -1, 4, 48, -23, -8, 3, -12, -44, -74, -15, 10, 27, -40, 42, -11},
  {42, -13, -20, -72, 20, -7, -46, 65, -5, 35, 17, 19, -1, -28, 18, 48, -47, 14, 7, -10, 0, 25, -64, -15, 30, -2, -22, -9, -21, 24, -10, 3, -24, 25, -32, 12, 11, -7, 34, 16, -48, -45, -56, 20, 8, -16, 22, 8, -34, -13, -29, 31, 7, 7, 25, -33, 12, -14, -16, -37, -73, -23, 40, 29, -18, -29, -17, 55, 19, -29, -8, -18, -23, -9, 31, -20, -32, -9, 19, -14, -7, 12, 19, 18, 17, 9, 5, 10, -46, 16, -14, -8, 11, -36, -11, -30, -19, 13, -72, -12, -21, 5, -30, -33, 27, 3, -25, -41, 16, -37, -59, 18, 8, 1, 31, -43, -12, 9, 21, -34, -63, 26, -10, -1, -14, -28, -25, 32, -12, 5, 25, -14, -17, -40, -13, 35, -51, 13, 26, -6, 64, -14, -14, 25, -1, 21, -4, 8, 0, 0},
  {-16, 9, -38, -23, 18, -16, -43, 8, -49, -2, -31, -9, 21, -53, -26, -40, -18, 27, -3, -62, -42, 9, -14, -9, -30, -32, 32, -59, 42, 10, -2, 3, 0, 26, 10, -11, 27, -28, 21, -22, 9, 17, -14, -13, 5, -30, -23, 44, 29, 18, -13, -33, 16, -30, 4, 21, -28, -15, -1, 33, -7, -9, 32, -2, -7, 31, 28, 23, 1, 27, -10, -5, 11, -22, -45, -29, -24, -31, 7, -36, 28, -27, 21, 21, 64, -46, -51, -43, -6, -15, 48, -8, 58, 24, -9, 5, -9, 8, -4, -24, -58, -31, -35, -8, 4, -8, -13, -53, -11, -18, 49, -46, -61, -35, 49, -31, -12, -7, 51, 36, 21, -3, -18, 7, -30, 19, -80, -4, -5, -16, -46, 8, 14, 11, 50, 10, 2, -43, 19, 19, 34, -2, 58, 17, -53, 8, -50, -19, 5, -37},
  {-42, 11, -4, 14, -7, -27, 4, 66, -21, -44, -5, 24, 1, -43, -32, 40, 11, 15, -13, -3, -13, -18, 10, 15, -13, 12, -60, 25, -33, -61, -15, -16, -24, -7, -37, 20, 23, -10, 20, 20, -41, -48, -26, -25, -4, -55, 5, -9, -42, -25, 24, -20, -9, 0, 44, -36, -2, 21, -16, -18, -25, -28, -18, 0, 30, -81, -8, -7, -34, -35, -4, 14, -23, -22, -23, 13, -17, 18, 27, -2, -36, -21, 5, -55, 10, -18, 10, -10, 27, -28, 28, -10, 43, -23, -84, -31, -54, 26, -25, -11, -25, -21, -33, 30, 36, -1, -28, -30, 29, -1, -10, -9, 65, 50, -18, -22, -25, -16, 37, -13, -40, -13, -11, -36, 11, 6, -1, 37, -41, 37, 19, 29, -45, 15, -88, -49, 15, 0, -28, -6, 1, -66, 1, 25, -6, -39, -35, -37, -70, -29},
  {-52, -36, -19, -7, -23, 0, -18, 2, 24, -32, -7, 32, 5, -37, 22, 40, 24, 23, -29, -47, 22, 3, -60, 25, -4, -17, -35, -14, -17, -67, 58, 31, 40, -24, -27, -6, 21, -22, -2, -53, 15, -18, -22, -15, -12, -3, -11, 1, 53, 1, -7, 40, 9, 31, 78, -33, 40, -38, -34, 1, -18, -15, -23, -21, -31, -33, 6, -26, 25, 11, 3, -66, -3, 66, -12, 10, -33, -5, 16, -20, 4, -18, -24, -10, 54, -1, 72, 0, -11, -20, -5, 26, 20, -15, -21, 32, -35, -25, -27, 25, -35, -15, 17, 15, 10, 46, -2, -8, 38, -18, -65, 21, -9, 2, -8, -27, 4, -14, -14, 38, 20, -7, 3, 2, 10, 21, -34, 10, -5, -29, -52, 7, 33, 32, -17, -7, 30, -10, -12, -22, 17, -2, -60, -41, -18, -6, 2, 2, -17, -34},
  {-26, 26, -33, 8, 7, -23, 12, -21, 49, 39, -2, -23, -51, -3, -50, -33, -58, 37, 11, -21, -16, 5, 43, 16, -17, -10, -9, -9, 17, 29, 28, 11, -14, -16, -45, -37, 15, -56, -17, 4, 12, 27, 3, 38, -35, -35, 58, -45, -33, -9, -43, 15, -29, -55, -51, 41, -4, 7, -51, 21, 19, -72, 47, -1, -21, -1, -14, -20, 29, -5, -73, 1, 43, -9, 10, -13, -51, 33, -12, -47, 15, 6, -70, 36, 36, -72, -50, 3, -48, 2, -46, -43, 29, 0, 1, 29, 3, -12, 41, -9, -78, -8, 47, -9, 25, -39, -9, -34, 0, 22, -3, 25, -16, -74, -2, -11, -4, -1, -25, 41, 6, 4, 18, 48, 35, 0, -67, -15, -12, -32, -51, 15, -18, -41, -6, -33, -58, -72, 44, -8, 17, -9, -19, 10, 11, -27, -34, 9, -25, -13},
  {4, -54, -4, 4, -9, -10, 17, 29, -19, 6, -48, 44, -16, 8, 27, -34, -3, -60, -23, -14, -47, -12, 26, 11, -22, 20, 20, -6, -7, -27, -33, -8, 26, -9, 6, -2, 0, 0, 9, -22, -25, 23, 33, 41, 2, -33, -24, -32, -20, -15, 7, -34, -16, -54, -12, 0, 30, -1, -9, 46, 20, 32, 0, -29, 12, 14, -14, -17, 26, 13, 15, 30, 15, -29, -19, -7, 48, 3, -29, -13, -17, -17, -22, 14, -65, -14, 33, -9, -32, 6, -18, -5, 16, -12, -8, 20, -91, 24, 29, -42, -37, -7, 21, -20, -43, -47, -25, -2, 5, 23, 15, -17, 20, 19, -66, -26, -33, 27, 3, -11, 19, -8, -7, -3, -32, 19, 37, -18, 11, -28, -18, -3, -77, -20, -36, -14, 15, -4, 3, -24, -31, 33, -10, 31, -25, 12, -18, -27, 8, 32},
  {38, 2, 18, 23, -85, 13, 9, 5, 41, -11, 16, 11, 16, -26, 33, -13, -26, 17, 4, 44, 40, -36, -24, -23, -3, -10, 29, -15, 31, -14, 47, -42, -36, -63, -7, 31, 40, 0, -13, 30, -44, -47, -26, -51, 13, -11, 9, 20, -31, 1, 11, 13, -20, 27, -6, -63, 33, -27, 22, -15, -41, -28, -3, -5, 11, 17, -6, 29, 12, 14, 18, 19, -13, -14, -31, -5, -5, 17, -32, 12, 50, 38, -5, -2, 11, -17, -6, -75, 38, -20, 20, -26, -4, -37, 36, -14, -55, -41, 1, -12, 13, -56, 25, 29, 15, -28, 3, -29, -3, -13, 43, 6, -18, 45, -25, 26, -81, -79, 23, -33, -35, 19, -7, -50, -56, 1, 12, 3, 14, 55, 35, -35, 18, -22, 8, 8, -10, 6, 30, -2, -11, 0, 43, 16, -54, -44, -17, 13, -25, 44},
  {25, 13, 0, -10, 37, -38, -40, -29, 42, -18, -35, -20, -10, 31, 8, 12, 1, 4, -6, -4, 4, -24, -43, 10, -34, 60, 10, 25, 30, 28, -2, 1, -34, -6, 45, -22, -21, 36, 59, -37, -5, 16, 10, -60, 8, 4, 20, 14, -11, 7, 9, 25, 3, 8, -35, 14, -30, 1, -2, -7, -8, -48, 23, 11, 15, -22, 9, -44, -26, -34, -24, -42, -12, -28, -56, -27, -22, 16, 9, -19, 17, 63, -61, -41, -29, 46, -4, -37, 8, -10, -23, 11, -35, 31, 42, -32, 20, 34, -9, 9, -10, 9, -33, -48, -35, 5, -18, -32, 5, 4, 9, 0, 39, 9, -51, -5, 53, 3, -3, -5, 3, -37, -1, -52, -11, -39, -46, 13, -16, 21, -30, 38, 23, -36, -2, -10, -46, 20, 0, 39, 27, 29, -61, 42, 35, 11, 39, 24, -41, 7},
  {-27, -32, -31, -19, 22, -35, -41, -59, -25, 2, -16, 17, 18, -11, -39, -37, 0, 1, 4, -23, -4, -3, 23, 15, -28, 12, -16, 11, -47, 16, -17, 50, 7, 21, -39, -33, -47, 9, -83, -34, -12, 10, 13, -7, -10, -6, 3, 25, -9, 3, -19, 35, -3, 1, -9, -46, -50, -16, 27, -27, 40, -51, 5, 51, -9, -5, 18, -7, 6, 32, -2, -25, 30, -5, -3, -41, -17, 22, -60, 44, -44, 12, -11, 16, 2, 5, -45, -18, -58, 54, 10, 8, -26, 38, 31, 39, 29, 10, 32, -12, 2, 27, 0, 10, -9, -40, -8, -8, 48, -25, -27, -38, 24, -28, 24, 0, 8, 34, 12, 5, -18, -13, 16, -42, 8, -19, -29, -15, -35, 12, 11, -1, 46, 13, -33, -2, 41, 37, 23, 3, 37, -4, -7, -1, 10, 32, -10, 18, 26, -17},
  {-38, -30, -41, -56, -43, -57, -35, -35, -4, 11, -44, -33, -2, -28, -73, -73, 59, 36, -49, -15, 35, 31, -1, -38, -4, -42, 29, 15, 16, -2, -35, 25, 20, 11, -22, -37, -38, 7, -66, -42, -6, 40, 21, 22, -14, -12, -14, 2, 10, -57, -34, 15, 9, -29, -50, -4, -12, -53, 10, -25, 64, -20, 0, -33, -20, 41, -10, -44, -36, 57, -54, -14, 15, -39, -35, 13, 6, -26, -47, 12, -11, -41, 2, 7, 21, -24, -3, -54, -28, -23, 4, -11, -97, 47, -3, 37, 15, -20, -28, -23, -62, 9, -1, 32, 24, -34, -21, -14, -28, -13, -71, -13, -31, 13, 36, -31, 3, 10, 19, -3, 17, 55, -24, -43, 24, 19, -34, -18, -19, 25, -40, 4, 17, 12, -19, -24, -52, -15, -30, 10, 16, -10, 1, -16, -10, 46, -35, -19, -2, -21},
  {-24, -42, 39, -19, -3, 56, 6, -16, -34, -25, -41, -3, 1, 20, -58, 2, -13, 52, -50, -23, 24, -35, 9, 15, -3, 3, 17, -85, 14, -11, 50, -22, -11, 30, -34, -11, -8, -21, 35, -44, -46, -57, -37, 4, 40, 5, -10, 6, 13, 20, 44, 53, -33, 9, 2, -23, -10, -47, 2, -25, 41, 7, 57, -2, -9, 47, -23, 0, 8, -8, -21, 10, -10, -58, 6, 42, 12, -11, -69, 22, -10, 13, -47, 8, -9, 31, -26, 36, 13, -51, -7, -39, -8, -8, 11, -22, -54, 25, 13, -11, -9, -19, 19, -9, -26, 53, -31, 5, 50, -7, -41, -15, -27, -31, 26, 14, -3, -6, -6, -8, -34, 33, 5, -7, 3, -46, -20, 41, 29, -53, -39, -19, -39, 42, -25, -10, 9, -15, -19, -14, -29, -20, -55, -20, -39, -35, -2, -8, -1, 24},
  {-21, -20, -26, -36, 32, 12, 56, -30, -12, -5, -22, -37, 15, -35, 33, 8, -4, 7, -4, -13, -12, -23, 5, 17, -14, -46, -36, -1, -14, 10, 18, -68, -6, -11, -30, 14, 14, 36, -50, -6, -43, 24, 19, -56, 15, -24, -5, 6, 13, -12, -4, 2, -19, 22, 24, -5, -46, 31, 4, 8, -11, -13, -42, -43, -9, 49, 0, -1, 28, -27, -14, -42, -30, -33, -1, -31, -43, 9, 31, 5, -14, -51, -34, -32, -8, 1, -39, -21, -27, -34, -22, 4, -14, -28, -38, 26, -41, 2, -59, -5, -16, -19, -18, -36, 17, 2, -3, -16, -3, -49, 22, 45, -48, -30, -19, -18, -24, 32, 9, 21, -39, -3, 7, -51, 12, -34, -2, -28, 43, 21, -20, -14, 11, 19, 0, -42, 51, 11, -14, 7, -60, 17, 7, -94, -13, -6, 15, -20, -17, -23},
  {17, 3, -37, 3, 9, 8, 9, 20, 3, 12, -21, -1, -19, -49, -19, -10, -41, 22, 32, -2, 7, -51, -13, 22, -25, -33, 38, 7, 17, 49, 16, 11, 8, -2, -37, -11, 41, -2, -37, -11, 5, -24, -57, 19, -3, 6, 3, 46, -32, -48, -4, 23, 10, 0, -13, -29, -35, -17, -32, -33, -4, -37, 47, 10, -6, 41, -19, -6, -8, 12, -45, -11, 20, -32, -23, 2, -11, 20, 11, -51, 26, -49, -19, 22, 53, -3, -26, 23, -45, -38, 29, 10, 22, 16, 28, 13, -3, -19, 4, 28, -9, -32, -68, 46, 27, -16, 4, -21, 13, 8, -37, 25, -17, -19, 6, -47, -16, 0, 18, 14, -50, -2, 10, 5, -5, 2, -2, 9, -28, -19, -31, -19, -25, -10, 14, 14, 17, -44, 24, -19, 8, 5, 7, 15, -3, 29, -23, 29, 21, -11},
  {21, 12, -42, 4, -12, 9, -10, -31, -69, -43, -6, -7, 2, -35, 33, -39, -33, 2, 34, -10, 15, -15, -33, 19, 21, -47, -23, 50, -28, 18, 6, 59, -63, 30, -46, 29, 14, -16, 13, -10, -14, 19, 26, -51, -50, 49, 8, 28, -60, -11, -34, 12, -43, -1, -19, -49, -59, -9, -28, -41, -2, -4, -14, -41, 10, -52, 8, -6, -47, -36, -54, -4, -19, -25, 23, -9, 20, -4, -36, 6, -26, -8, 28, 34, -5, 32, -7, 28, -15, -13, 16, -32, -5, -16, -27, -21, 7, 16, 22, 2, -24, 32, 0, -12, 19, -33, -34, 45, 8, 10, 5, -34, 16, 22, -4, 29, 15, -4, -2, -32, 22, -15, 39, -49, -27, 67, -44, -55, 10, -55, 7, -21, -3, 0, -5, 32, 43, 8, 31, -11, 21, -29, -2, -5, 2, 42, -9, -10, 40, 17},
  {-41, 0, 25, 50, -29, 6, 4, -37, -28, -37, 27, -24, 32, 18, 17, 26, -2, -42, 48, 2, 25, -10, -20, 17, 35, -64, 1, -56, -44, 24, -11, 5, -28, 35, -19, 31, -18, 17, 24, 23, 12, 15, 1, -32, -2, -16, 3, 22, 13, 10, -9, 9, -27, 10, 69, -30, -31, -12, 31, -42, 8, 14, -5, 0, 43, 14, -16, -19, 1, -33, -78, -50, 33, -19, -20, -47, -23, -8, -3, 41, -4, 40, -19, -16, -15, -24, 1, 43, 30, -67, 12, 47, -14, -34, 1, 18, -43, 33, -72, 44, 60, 0, -21, -1, 31, 1, -4, -8, 20, -21, 10, -7, 67, 10, -48, 7, 51, 0, -20, 4, -39, -24, -21, 1, -5, -11, -32, 47, -9, -38, 4, -25, 17, 9, 11, -14, -68, 6, -31, 5, -30, 30, 9, -5, 36, 1, 39, -2, -64, -35},
  {8, 29, 0, -31, -31, -36, 25, 8, 29, 20, 9, -17, -8, 43, 90, 59, 47, -7, 14, 6, 25, -29, 4, 73, 12, -14, -60, -20, -19, -19, -44, -5, -55, -5, 11, -6, -56, -27, 31, -16, 17, 3, 9, -32, -44, 29, 42, 23, 42, 1, -35, -16, -40, 66, 19, -23, -60, 19, -4, -11, -38, 13, -31, 13, -18, -11, -14, 28, -29, 12, -60, -24, 31, 23, -28, 16, -44, 53, -18, -1, 4, 17, 20, 27, -39, 54, 51, 18, 38, -70, 22, 55, -13, -29, 38, -31, -61, -32, -5, -24, 53, 2, -36, 6, -20, -2, -46, 50, 28, -43, -11, -43, 20, -62, -52, 32, 52, -38, 59, -61, -28, -2, -25, 8, 20, -40, -37, -6, -88, -14, 10, -33, 32, -14, 6, -16, -50, 60, -1, 7, -12, -50, 9, -59, 11, -46, 43, -3, -3, -3},
  {-33, -3, -15, 7, 4, -29, -8, 64, -25, 23, -33, 63, 11, -80, 6, -23, -40, 47, -79, 10, -29, -24, 3, -38, -28, -88, -42, -9, 38, -7, -32, -53, 8, -23, -17, -21, 43, -35, 29, -13, -41, -92, -56, -28, -11, -5, 6, -4, -30, 16, 10, 15, 3, -2, 17, -38, 28, -11, 28, 10, -65, -7, -19, -10, -26, -60, 8, -8, -33, 44, 30, 25, -59, -18, 34, 5, -22, 3, 28, -24, 41, -48, -2, 26, 49, -12, -3, -13, 0, 18, 58, 4, 22, -10, 0, -7, 11, -20, -11, -13, -12, -56, -22, -12, -22, -2, -2, -17, 6, 41, 34, -5, -5, -38, -53, -28, -26, 62, 75, -2, -21, -56, 5, 11, -8, 0, 13, -1, -6, -3, -6, -16, 25, 0, 4, 25, 22, 9, 25, -20, 52, 33, 19, 45, -15, 9, 3, 27, 10, -20},
  {-12, 11, -9, 34, -44, 16, -4, 26, -4, -40, -36, 23, -24, 31, -23, 12, 4, 0, -40, 8, -37, 17, 24, -50, 4, 53, -19, 22, -10, 1, -23, -66, -1, -23, -3, -53, 20, 12, 28, -8, -25, -24, 0, -55, 8, -19, -29, -62, -30, 4, 0, 12, 12, -17, 28, 17, -39, -65, 6, 17, -51, 10, -55, -68, -16, 21, -29, -43, -16, -13, -22, 3, -26, -2, -14, 15, -23, -29, 32, -20, -17, -28, -12, -1, -4, -4, 15, 4, -18, 17, 7, -25, -12, -91, -25, 30, 5, 28, 29, 22, -56, 9, -24, -15, -45, -16, -7, -89, -41, 11, -28, 3, 16, 10, -26, -3, 3, 49, 12, 20, -51, -102, 4, -19, 35, -15, -19, 2, -15, -36, -46, -7, 23, -9, -75, -17, 42, -33, -15, -31, 9, 14, -34, 55, -6, 22, 37, 8, -49, 6},
  {-26, -9, 27, -18, 10, 16, -40, -40, -45, -18, -33, -26, -37, -15, 13, -12, 2, 30, 23, 16, 0, -6, -28, 3, 5, -3, 33, -33, -20, 5, 8, 20, 37, 23, 6, -9, -15, -22, -64, -5, 29, 8, 0, 32, 0, 45, -10, 47, -16, 8, 5, -14, -53, -30, 2, 11, -28, -5, 28, 3, 13, -32, 1, -21, -9, 10, -16, 20, -18, -20, -66, 4, 1, 10, 6, -7, -40, 23, -17, 17, -2, -16, 42, -11, 1, 6, -6, -7, -43, -45, 6, -21, -25, 47, -39, -14, -28, -24, -23, 1, -45, -17, -24, 38, 14, -16, 1, 6, -4, -54, -11, 12, -19, -47, 14, -62, -18, -71, -32, -24, 25, -35, -37, -24, -39, -39, -6, 0, -17, -69, -4, 26, -51, -41, 19, 14, -8, -53, -10, -8, 15, -1, -7, -19, -28, 37, 21, -26, -15, -17},
  {-8, 12, -16, -37, 39, 27, -36, -13, -20, -34, -12, 15, -12, -3, -48, -30, 23, 14, -56, -12, 11, -26, 40, 27, -46, -37, 26, -33, -12, -4, -26, -31, 27, -21, -22, -5, -45, -87, -24, 15, 18, -42, -10, -17, -10, -28, -16, 1, 9, 6, 7, 17, 19, 23, 20, 13, -31, -21, -30, 23, -29, 18, 30, -13, 0, -57, -29, -1, -23, 57, -58, 34, -7, 5, 3, -11, -34, -18, -1, -67, 7, 14, -65, 28, 51, -15, -30, -8, -33, -6, -38, -24, 1, -25, 3, -21, -13, -51, 33, -6, -1, -46, -49, -29, -11, 32, -24, -45, -33, 46, -24, 10, -61, -6, 6, -10, -28, 66, 38, -12, -10, -14, -30, -14, 40, 8, -53, 31, -31, -34, -50, -25, 9, -14, -14, 25, 21, -77, 49, -44, 60, 0, -18, 30, -22, 22, -6, 32, -7, -29},
  {27, -32, -23, -5, -4, -79, 29, 44, 8, 3, 36, -28, -7, -63, 36, -19, 16, -3, 39, 36, 1, 28, -81, -25, -11, 1, 15, 5, 26, 34, 18, -7, -27, 6, 10, 36, 34, 17, 32, -30, -27, -71, -17, -50, -9, -19, 15, 42, -1, 19, -10, 35, -13, 7, -3, -8, 28, 36, -12, 11, -50, -18, -21, 29, 0, -5, -12, 37, -5, -39, -26, -47, 3, -13, 27, -33, -58, -50, 55, -35, 26, -4, 39, -9, -8, -67, -12, -2, -9, -4, 15, 5, 2, -19, 13, -19, -18, 19, -37, 36, 11, -17, -34, 17, 30, 22, -19, -2, 24, -22, -52, 48, -4, 61, -4, -62, 9, -23, 40, -4, -58, 31, -24, 29, -27, -69, 40, 19, -29, 6, -10, 40, -49, -30, 35, -13, 36, 6, 16, -13, 4, 11, -19, 22, -30, 18, 5, 0, -67, 10},
  {-46, 19, -5, -14, -18, -5, -26, -57, -24, 1, -59, 16, -32, 12, -44, 2, -40, -4, 21, -15, 0, 7, 2, 29, -8, 10, 14, 1, -28, -7, 50, -4, -3, 0, -45, 10, 1, -36, -79, -11, 25, -13, -34, 73, 14, 51, 1, -4, -26, -12, -19, -13, -59, -3, -29, 13, -70, 5, -62, -19, 13, -92, 16, 10, 21, 24, -24, 17, 12, 1, -63, -17, 29, -2, -32, -23, -33, -12, -78, 0, 17, -18, 50, 17, 19, 9, -16, -33, -40, -9, 16, 8, -9, 31, 6, -19, 2, -4, -29, 20, -43, -7, 4, 7, -25, -18, 11, 6, 14, -49, -11, 18, -42, -3, 9, 0, 27, -59, -12, -20, 43, 25, -9, 22, -1, 57, -42, -21, 8, -48, 10, 45, -13, -32, 38, 8, -55, -37, -39, 5, 20, -26, -45, 47, -20, 19, -30, -2, -25, -44},
  {13, 10, -17, 14, 3, -27, 20, 9, 9, -55, -20, -18, -54, 35, -51, 15, 4, -4, -12, 28, 10, 65, 36, 62, -10, -4, -30, 8, -27, -7, -23, -28, 13, -25, -27, -60, -26, 49, 44, -5, -25, 14, 7, -17, -7, -21, 24, -42, 50, -23, 43, -26, 3, 2, 16, 14, 7, 12, 30, -12, 19, -7, 16, -32, 8, 18, -8, -29, 33, -24, -45, 45, 2, -31, -5, -44, -50, -27, 0, 1, -1, -32, -3, 16, 27, 25, 13, -29, -4, -61, -7, 16, 33, 13, -5, 20, -6, 24, -29, -10, 28, -38, -13, 12, -16, 12, 45, -21, 7, -14, -1, -18, -49, 22, -16, -32, 30, 25, 43, 11, -12, -3, -1, -8, 29, -55, -19, 17, 0, -41, -44, -26, 26, -9, 49, 2, 13, -11, -5, 2, -33, 14, 18, 15, -9, 7, -26, -75, -27, 11},
  {-61, -59, -17, -22, -3, -13, -23, -43, -6, -11, 1, -65, -30, 54, -2, 6, 25, -58, -12, 29, 2, -53, -17, 50, -24, 1, 1, 47, -18, -8, 9, 77, 7, 31, -10, 26, -23, -3, -33, 31, 64, 1, -5, 17, -15, 20, -55, -13, -13, -5, 7, -33, -46, 40, -8, -28, 17, 6, -23, -3, 13, 22, -21, -22, -27, 3, 45, 38, -63, -7, 9, -35, 23, 6, 15, -1, 35, 21, -3, 87, -26, 12, -3, -33, -25, 12, -13, 0, 53, -93, 6, 12, 28, -39, 10, -31, -38, -38, 5, -19, 47, -38, -39, 15, -3, -45, -45, 49, 16, -20, -3, -23, 19, -30, 7, -1, 21, -60, 9, -67, 12, 8, -17, -14, -37, -17, -18, -92, -30, 11, 22, -2, 36, 26, 5, 16, -14, 20, -4, 5, -64, 1, 14, -48, -8, 9, -3, -20, 36, -49},
  {18, -29, 27, -4, -19, -33, -32, 34, 3, -29, -6, -19, 5, -1, -12, -56, 8, -16, 12, -17, 5, 5, -16, -31, -19, 36, 31, 12, 6, -9, -36, -9, -24, 16, 36, -20, 54, 63, -4, -1, -79, 14, -28, 0, 1, 7, -2, -1, -8, 14, 34, 18, 55, 32, -33, 41, 14, -27, 14, -18, -27, 27, -3, 5, -27, 30, 14, -43, -50, -44, -48, -37, -22, -23, -10, 27, -21, -33, 34, -25, 2, -38, 54, -11, 10, 7, 13, 4, 11, 18, 46, -43, 7, 20, 4, -56, 17, -20, -45, 40, 4, -17, 5, 10, -8, -15, -54, -21, -15, -46, 7, 26, -23, -3, -28, -5, 18, -38, 43, 20, -70, 7, -10, -16, -3, -4, 12, -31, 5, 27, -14, 4, 23, -17, 9, -24, -22, -38, 2, 1, -24, -15, -3, 37, -26, 28, 26, -15, -4, -8},
  {23, -1, 3, -54, 14, 9, 36, -74, -127, -60, -16, -1, -4, -7, -41, 2, 32, 12, -12, 16, 40, 38, -8, 15, -22, 12, 1, 26, -44, 17, -8, -29, -5, 27, -36, -41, -33, -6, -20, -74, -5, 3, 38, -11, -18, -29, -20, -43, 35, 29, -32, -8, -54, 45, -1, 44, -16, -39, -6, 20, 32, -49, -17, -49, 33, 31, -3, -20, -3, 67, -67, 1, 16, 10, 22, -23, 19, 29, 29, -16, 0, -5, 18, -11, -16, 8, 29, 19, -29, -30, -1, -17, -4, -35, -23, 15, -47, 18, -43, -29, 11, 7, -4, 8, -39, -1, 7, -16, 13, -6, 21, -51, 42, 13, -31, -25, 23, 8, 2, -40, 34, -61, 1, 5, -40, 29, -28, -31, -29, -41, -34, -43, -13, -34, -37, 5, 45, 12, -15, -10, 28, -20, -8, -3, -43, 25, -15, -20, -3, -3},
  {42, 5, 9, 6, 44, 23, 8, 31, 41, -3, 15, 5, -24, -8, 3, 16, 21, -8, 19, -13, 69, -27, -13, -13, -12, 10, -61, -38, 5, -48, 4, -70, -23, -24, 23, 37, 35, -26, -5, 61, 1, -16, 9, -25, -2, 22, -15, 8, -33, 10, -23, 15, 49, 35, -46, -18, 5, 36, 7, 12, -33, -9, -22, -44, -42, -37, -37, 22, -7, -29, -17, -17, 24, -3, 7, 55, -20, 13, -39, -12, -3, 8, -62, -10, 25, 18, -39, -42, 0, 30, -27, -27, 7, -37, 22, -33, -65, -6, -4, -9, -5, 23, 7, 6, 9, -1, -2, -36, 31, -6, -10, 12, 32, -9, 23, 3, -50, -29, -30, -3, -17, 3, 8, 10, 18, -2, 25, 4, -12, -15, -18, -40, 13, 18, -14, -17, 13, 2, 39, -2, -17, -53, 13, 30, -34, -91, 10, 17, -34, 11},
  {-9, -9, -38, 43, -63, -36, -10, 29, 32, -42, -46, -22, 36, 15, 2, -26, -16, -55, 0, 17, -50, 23, 18, -57, -6, -38, 1, -19, 10, -2, -25, 16, 13, -45, 7, -26, 37, 55, -4, -43, -29, -30, -6, -22, 27, -10, -52, 17, 7, 42, 1, 27, -33, -4, -35, 37, 58, -29, -7, -9, -8, 62, 11, 23, -47, 13, 1, -27, -21, -74, 23, -2, -8, -7, -7, 29, -41, -71, -12, -25, -39, -64, 54, -1, -42, -34, 20, -6, 42, 27, 13, -43, 18, -23, -4, 1, 59, -19, -28, 24, 1, 29, 67, 23, 11, -51, -21, -33, -53, 16, -26, 48, -9, 50, 16, 2, -13, -16, -2, 5, -35, 34, -1, -45, -61, 0, 44, -54, -32, 20, 14, -15, -21, -30, 13, 11, -22, 23, 4, 3, -43, 2, 38, 10, -51, -1, -13, -15, 33, 24},
  {-23, 11, -6, -4, -6, -19, 21, 47, 4, 33, -11, 23, 32, 2, 37, -8, -19, 39, -22, 9, 20, 12, -14, -27, -7, -82, -11, -22, 32, -5, 19, -99, -20, -8, -16, 8, 20, -38, 42, 26, -37, -41, -49, 13, 22, -15, 30, 31, 56, 17, -3, 56, 7, 14, 23, 3, -5, -30, 9, 45, -83, -7, 11, 49, 15, 6, 6, 68, 17, -14, 10, 4, 21, -17, 0, 14, -67, -4, 6, -26, 24, 10, 6, 36, 50, -20, 6, 23, 7, -3, 1, 20, -11, 9, 3, -68, -25, 36, -9, 9, 6, -55, -26, -24, -2, -9, 13, -35, 35, -17, 37, 12, -70, -13, 8, 17, -25, -27, 17, 25, -79, 5, 5, -49, -5, 2, -16, 25, 41, -11, -51, -30, -38, 27, -7, -11, 20, 26, -19, -7, -7, 13, -26, 36, -13, -44, -29, 7, -38, -27},
  {-14, 17, 8, -24, -10, 13, -11, -59, 2, 3, -3, 27, -26, 7, 9, -5, -35, -23, -2, 17, -35, -13, -45, -51, 20, -40, -25, -63, -10, 3, 25, 5, 40, 36, -19, -17, -56, 29, -47, 9, -64, 26, -17, -28, -18, 1, 10, -38, -12, 42, -7, -4, 18, -22, -30, 15, -50, -21, 8, -30, -97, -24, -107, 22, 9, -30, 11, -16, -14, 40, -31, -39, -25, -6, 5, -30, -41, -2, -40, 12, 1, 3, -50, -56, -23, -28, -26, 27, 18, 15, 23, -5, 7, -17, -23, -5, -29, -25, -54, 46, -35, -28, -60, 24, 35, 5, -13, -1, 5, 20, 2, -33, -11, -85, -4, -25, -14, 20, -41, -29, 0, -45, 8, -4, -19, 5, -11, -62, -25, 11, -21, 4, -42, 24, -6, 53, -9, 27, -22, -36, 33, -51, 32, -9, -5, -18, -3, 19, -30, 19},
  {-31, 36, -29, -31, 50, -5, -10, 56, -62, -58, -7, -16, -1, -13, -49, -55, -56, 1, 36, 23, -66, -16, 25, -11, -16, -68, 38, -9, 31, 8, -97, 26, 1, 47, 32, -16, -22, 13, 22, -33, -4, 44, -13, 43, -6, 13, -45, 22, -4, -5, 31, 4, -41, -29, -14, -8, 36, -18, -19, 23, -13, 9, 25, 3, -41, -27, -3, -28, 8, 1, 7, 25, 10, 1, -24, -26, -24, -33, 55, -16, -26, -38, -40, 13, -16, -14, -19, -27, 0, -54, 3, -17, 13, 22, -50, 15, 9, -15, 7, -2, -59, -15, 13, -6, -27, -19, -14, -27, -43, -31, 38, 23, -70, -46, -49, -8, -41, 28, 14, -31, 15, -79, -1, 9, -8, -64, 32, -5, 12, -69, 19, -3, -23, 14, 56, 7, -8, -5, -19, -13, -7, -15, -34, -41, -10, -14, 34, 47, -4, -75},
  {-39, 18, -11, 12, -13, -9, -13, -36, -42, 3, -31, -34, -42, 34, -28, -4, 0, 14, -5, 4, -18, -5, -5, 40, -7, 11, 2, 10, 5, -6, 46, -40, -74, 27, -30, -42, 0, 8, -21, -8, -1, 34, -8, -2, -9, -9, 14, 9, 27, -8, -12, -9, 18, -17, -27, -6, -14, -2, 6, 16, 37, -20, -36, -3, -2, 4, -7, -19, 37, 55, -18, -10, -1, 7, -13, -16, -6, -7, -3, 30, 27, 46, -27, -18, -5, 7, 29, -44, -14, -6, -34, -26, -27, -45, -46, -10, -15, -19, 7, 26, -30, -34, 38, -17, -7, 44, -27, 42, -33, -37, 17, 11, -21, 23, -19, -16, -4, -3, -89, -3, 21, -27, 1, 20, 24, 49, -5, -6, -25, -11, -49, 9, -18, 2, 18, 29, -4, -11, -10, -41, -2, -10, -34, -39, -11, -22, -12, -56, -27, -40},
  {5, 15, -26, 12, 6, 3, -2, -38, -11, -66, -5, 3, -3, -41, 20, -41, -45, -35, 20, 6, -15, 31, -24, -14, -10, -44, -17, -30, 66, 29, 11, 25, -4, 9, 16, -2, 25, 17, 16, 13, -24, 20, -74, -20, -16, 12, 14, -17, -39, -22, -10, -38, -79, 47, -10, 27, 9, 38, -15, 26, -3, 12, -26, 28, -9, -15, 6, -64, 19, -28, 21, 0, -33, 12, 50, 19, -6, -20, 42, -16, -22, 9, -5, -32, -35, -20, 18, -19, -2, 31, 29, -10, 10, -39, -69, 0, -18, 29, -30, 18, -38, -21, 18, -24, -35, -46, 27, -22, -12, -22, 2, -2, -10, 0, -23, -2, -29, -19, -41, 20, -32, -45, 5, 11, -23, 54, 43, -7, 1, 17, 34, 10, 7, -44, 1, 17, 15, -51, 52, 13, -11, -2, -5, -39, -16, 11, -6, -16, -64, -33},
  {-38, -31, 19, 9, 3, 4, 22, -10, -31, -20, -35, -5, -4, 47, -72, -43, -31, -33, -18, -5, -5, 9, 1, 7, -15, 41, -63, -3, 13, -7, 6, -47, -40, -30, 2, -60, 0, 32, -9, -38, -51, 37, 39, -12, 21, -28, -30, -34, 22, -27, 14, 32, -22, -36, 50, -26, -3, -42, 23, 31, 9, 9, -3, 0, -28, 14, 13, -22, -24, 28, 52, 17, -32, -45, -33, -12, -22, -23, -1, -24, -52, 9, -64, 67, 18, -9, -24, 14, 26, -7, -59, 6, 18, -42, -11, -12, -11, 22, -4, -10, -11, 13, 0, -22, -28, 20, 12, -64, -45, -64, 13, 2, 5, -39, -27, 3, -8, 35, -3, 20, 14, 39, 9, 3, -17, -8, -5, 28, 18, -48, -36, -31, -18, -38, -9, -22, -10, 7, -19, -12, -24, 43, -59, 11, 0, 4, -23, -37, -22, -1},
